400 200
e 0.0010468145 0.0026337744 -0.00087551534 0.0023557516 -0.01801327 0.0043173395 0.006185167 0.0005711294 0.009891589 -0.0006597562 -0.0013870759 -0.0049112476 -0.0010348458 -0.004478097 0.030298896 0.0071251784 0.022478798 0.004194953 -0.0014012213 -0.008739438 0.0036404235 -0.005175734 -0.0011367087 0.0005353116 -0.009562806 0.008555613 -0.011157593 0.015619916 -0.00927488 -0.009596062 -0.002718127 0.016314257 0.009470882 -0.0005465387 0.0010754233 0.013802675 -0.0065552252 -0.005053574 0.012969862 0.008112121 0.01158364 -0.0073546753 -0.003503593 0.003582789 -0.0039459537 0.018319486 -0.0013807958 0.011832668 0.0045824647 0.0011847288 -0.005533363 0.0069579883 -0.0030345465 0.013380556 -0.0022119377 0.0023660853 -0.0057798796 -0.022189869 -0.006528912 0.0008935768 0.0047366642 0.013155918 -0.0013811529 -0.006489566 -0.0058663767 0.0044465843 -0.010886161 -0.0062595154 0.0037842668 -0.011383116 0.0135228345 -0.000114488554 0.007116438 0.01206415 0.004203023 0.0037867313 0.0019019347 0.0083583 -0.0034784742 0.009324658 -0.0058208643 -0.001491848 0.018204749 0.0005028614 -0.0028512327 0.006460231 0.0020084213 -0.0003335215 0.017275002 0.005162697 -0.0017499494 0.004971498 0.0034385032 -0.009851927 0.005937817 0.006264063 0.0008544536 0.0062322924 0.013573745 -0.0164178 -0.0022474567 -0.015651362 -0.0077766157 0.005833441 0.018298494 -0.0064839465 -0.0069005257 -0.012369247 -0.007837688 -0.0081267515 0.024148857 -0.0037190218 0.0020517725 -0.008307618 -0.00033985154 0.0012924167 0.01140411 -0.0015911255 0.0024633275 0.010240579 -0.0069892453 0.0028716954 0.0006276876 0.005693392 0.012009336 0.005891361 0.005198614 0.016535465 -0.0016484319 0.008045235 0.004435565 -0.0064614005 0.003444132 0.0028872874 -0.012346936 0.0073547564 0.013500052 0.0066659516 -0.009591769 0.010848697 -0.006799287 0.006723028 -0.006649139 0.002467134 -0.00038348095 -0.010350709 -0.0073976857 0.008072235 0.0006042975 -0.003019761 0.0038741878 0.00735444 -0.006483171 0.0058448734 0.0018158805 0.014156346 0.00036486157 0.013457978 0.0033284237 0.0021515542 -0.007320993 -0.0009561965 0.0033054447 0.029446417 -0.014811631 0.004039366 -0.016324915 0.012960568 -0.00424457 -0.004759812 0.011947567 0.00539951 0.0086416975 -0.016085787 0.00850386 0.0035716626 -0.0017220868 0.0067955507 -0.0076696887 0.003008494 -0.007396971 -0.016082097 -0.01610295 -0.0019048193 0.003571265 -0.00036800615 0.0022040145 -0.02156417 -0.0028571344 0.007118669 -0.00019139383 0.011031509 -0.0002788443 -0.0044587986 0.015475386 -0.0030447706 -0.013039579 0.0090330625 -0.007618611 -0.00426725
o 0.002203435 0.0039669345 -0.00022084347 0.00059085607 -0.018529521 0.0051954775 0.006161675 0.002171411 0.008137926 0.0027262731 -0.0013512668 -0.0020358937 -4.2974294e-05 -0.008781816 0.028448302 0.0027627395 0.02204847 0.0059925 -0.003584946 -0.007891685 0.006972853 -0.0028691674 -0.0013428578 -0.00397461 -0.010224602 0.006192721 -0.011690533 0.017366989 -0.011003649 -0.009187426 -0.0015933538 0.015647909 0.011158497 0.0018658637 6.8765396e-05 0.016130839 -0.0051242053 -0.005300368 0.010514839 0.0056783953 0.014168406 -0.005467845 -0.004426672 0.0035297207 -0.003530431 0.016448408 -0.002066688 0.010699777 0.0020591754 -0.001113813 -0.005453447 0.0066160313 -0.0062975017 0.010465005 0.00049070694 0.0009655765 -0.0014125933 -0.021466604 -0.004555073 0.00078113674 0.0030055305 0.012624754 -0.0059123854 -0.0068157557 -0.0037208956 0.0048413044 -0.012056882 -0.0066200076 0.0032524012 -0.010321633 0.012341546 -0.0015842405 0.005758987 0.007704371 0.0043645306 0.004330477 0.0024086917 0.0068065245 -0.0073852185 0.010501467 -0.005002598 -0.0036834455 0.0152194165 0.0009551786 -0.005798284 0.0061906516 0.0049864855 -0.0028185314 0.01903989 0.005269892 -0.00077341794 0.0055976748 0.005655242 -0.011392335 0.008563492 0.004151842 -0.0018369015 0.006517856 0.012155605 -0.0133545045 -0.006411514 -0.013651094 -0.008151975 0.0055831643 0.018532075 -0.0048666894 -0.0069776983 -0.011628612 -0.011324156 -0.008581042 0.023088148 -0.005273212 0.00039503808 -0.005280998 0.00060076 -0.0022305418 0.010929762 -0.0024445604 0.0025514294 0.010945851 -0.004474396 0.0011426876 0.00011090696 0.0065490426 0.01301018 0.0047745775 0.0032796047 0.012816429 0.00067867973 0.004509578 0.0018647636 -0.0054918746 0.0016688928 0.0020825937 -0.011681576 0.009600252 0.01238417 0.0052071763 -0.004344797 0.009900611 -0.0066939853 0.007442957 -0.009799219 0.00056651543 -0.000990938 -0.010593834 -0.0074598277 0.007237246 -0.0028231114 -0.0006553879 0.0012361747 0.010341873 -0.008749266 0.007896085 0.00014035687 0.014157967 -0.0038560284 0.012814764 0.006985087 0.00096327707 -0.0060645374 -0.0028451236 0.0010225432 0.028601194 -0.0123594245 0.0040160776 -0.015106041 0.017211553 -0.002441543 -0.0044786152 0.015373966 0.0018832101 0.0071932655 -0.012269101 0.0078445915 0.00047998587 -0.00075398973 0.0052259676 -0.00981635 0.0061669415 -0.008339029 -0.017210716 -0.01739513 -0.0021113101 0.00055887306 -0.0032227093 0.0010027917 -0.017723178 -0.0035468752 0.0054671518 -0.0012610122 0.01345141 0.0006564585 -0.0037904351 0.016223252 -0.0021390095 -0.012139248 0.005886127 -0.0059528216 -0.007040895
de 0.001034058 0.0014217659 0.0015531888 0.0031388851 -0.013458502 0.0009142907 0.0047483724 0.0029556286 0.00799919 0.0021913676 -0.0007270656 -0.0016951921 -0.0008488542 -0.004267328 0.018290913 0.0025508078 0.014152416 0.004252578 -0.0023495613 -0.007916473 0.004700017 -0.00011289317 -0.0029783496 -0.0026984196 -0.008176758 0.006435376 -0.0075118504 0.013060723 -0.0050834864 -0.008770352 0.00070012396 0.01106193 0.006476209 0.0012148052 0.0029257827 0.010920571 -0.0058526425 -0.004420555 0.009457374 0.003186595 0.0069554592 -0.0061396365 0.0006229374 0.0016658604 -0.003090604 0.01407249 -0.0019806498 0.0053645503 0.00399343 2.3998793e-05 -0.0027172267 0.002064533 -0.0024618017 0.007862177 0.0003576422 0.002532237 -0.0049059675 -0.014430231 -0.0054896465 -0.0012364645 0.0041056373 0.01111371 -0.0038525944 -0.005994565 -0.003341038 -9.893631e-05 -0.00969917 -0.004697289 0.0037571816 -0.009168586 0.008188394 0.0023706667 0.007533427 0.0062283296 0.0044699283 0.0012209459 0.004229916 0.0057541486 -0.0018428832 0.005608551 -0.0052164 0.00015796706 0.014190509 -0.0007034213 -0.0017731313 0.0054282737 0.004336252 0.0013435897 0.010667941 0.0009544049 0.00050692825 0.006800298 0.0011798125 -0.0065559205 0.0038290934 0.0015778968 0.00037836918 0.0062567596 0.011068804 -0.01080779 -0.0044203214 -0.0121114105 -0.00319921 0.0007429995 0.010236815 -0.002722356 -0.005485841 -0.009158572 -0.005175047 -0.0039332854 0.016208423 -0.004244448 -0.00012654108 -0.00438246 0.0007936189 0.0019827283 0.006466162 -0.0047005764 -0.00016456605 0.0057868236 -0.004675905 0.0021521216 -0.0014040929 0.0074673467 0.010656661 0.0037572351 0.004700779 0.012891058 0.0012210273 0.0037803608 0.0004919686 -0.0019517218 0.00010841447 0.0019564806 -0.007450399 0.006705921 0.010705708 0.0050952868 -0.0070279096 0.009199773 -0.0026720944 0.0053861714 -0.0070683486 -0.0010774372 0.0016274961 -0.004809325 -0.0058088917 0.0066777696 -0.0025140701 -0.0031060332 0.00029689298 0.0038712 -0.006416103 0.0040483763 0.00070326286 0.011767588 -0.0011568314 0.006388126 0.0040721623 0.00054578437 -0.003331511 -0.00025582477 -7.551744e-05 0.018252037 -0.009837353 0.0031300967 -0.01237473 0.012624674 -0.0015932311 -0.0014548552 0.0093722325 0.0017593068 0.005400422 -0.008285183 0.0035989995 0.0031771974 -0.0016232744 0.004528934 -0.0066853194 0.0032016258 -0.0071359095 -0.010509184 -0.014984337 -0.0026178528 0.0025109223 -0.0030580945 0.0016086522 -0.017194552 -0.0034768898 0.00468767 0.0013153193 0.008768548 0.00087116234 -0.002657927 0.009916699 0.0005639563 -0.00804862 0.003635267 -0.005353558 -0.0054663983
a -0.0007165746 0.003034764 -0.0029056754 0.0018200424 -0.014940152 0.0034278256 0.0005620343 0.00045734635 0.0059318817 0.0026338396 0.00016490427 -0.0044474513 -0.00089658046 -0.007016852 0.024230447 0.0024040947 0.014845158 0.004490651 -0.0048463033 -0.005138402 0.0023273304 -0.0031667529 0.0005171652 0.00016344378 -0.009413894 0.0074422285 -0.007992752 0.01630905 -0.0076218997 -0.009382224 -0.002903815 0.010288997 0.009745034 5.2308907e-05 -0.00095695205 0.0119349025 -0.00453207 -0.0027447871 0.010048245 0.004227043 0.008020354 -0.0030139014 -0.0038019426 0.000494443 -0.0037597741 0.015099472 -0.00039663253 0.010347577 0.00094852416 -0.0006789092 -0.0012337026 0.0046687867 -0.0027261314 0.010115307 -0.0024391294 3.9240207e-05 -0.0043252823 -0.018043775 -0.0048080594 0.0005670456 0.0034710406 0.008538797 -0.0031046828 -0.0051623904 -0.0026442786 -0.00030599488 -0.008175279 -0.0051546916 0.0039741383 -0.008685198 0.011600254 0.0018376597 0.0062598838 0.009750734 0.0013537285 0.0033293285 0.005048031 0.004504694 -0.0048577297 0.00910892 -0.0057665547 -0.0015405822 0.01418947 -0.0019851862 -0.0034813338 0.0042965934 0.0038154302 -0.0017337938 0.015996728 0.0006164938 0.00042228747 0.007178338 0.002721408 -0.00602041 0.008366679 0.005833566 0.0013395315 0.0045072176 0.010216812 -0.011514373 -0.0017725648 -0.013141084 -0.00552037 0.0035457588 0.014170678 -0.0036092394 -0.004322513 -0.006824107 -0.008261467 -0.0059814393 0.019404802 -0.0017350415 0.0032143898 -0.0054950905 0.0012705703 -0.0025347753 0.010116653 -0.0023127557 0.0031234794 0.0053888094 -0.0037541017 0.0041673156 0.0023366269 0.0055053476 0.008774486 0.0053994963 0.00076375005 0.011086895 0.00040026353 0.0055825342 0.0039896807 -0.006149551 0.0024345405 -3.303403e-05 -0.009489892 0.009886099 0.011608313 0.008020932 -0.0067072664 0.007752255 -0.0039638695 0.006498871 -0.0076939426 6.739819e-05 -0.0018421581 -0.009030824 -0.0061286907 0.003747117 -0.0017742997 0.0013326798 0.0035961543 0.007718581 -0.0077838027 0.0072786976 0.0016178058 0.012716858 -0.00027842377 0.010792246 0.0030431596 -0.00083567953 -0.004529863 -0.0015800738 0.00082112453 0.019729394 -0.011806769 0.0031357845 -0.011174602 0.013872917 -0.002535014 -0.0047823666 0.010216599 0.0012766267 0.008272673 -0.012598735 0.006663687 0.0019538256 0.0007517022 0.006831043 -0.008268839 0.0062981704 -0.004378569 -0.012788397 -0.016050728 -0.00064698514 0.00032282955 -0.0003634218 -0.0016782742 -0.01637382 -0.0035668956 0.0032531517 0.0011077272 0.008566143 0.0008168242 -0.0008825219 0.012778657 -0.001403424 -0.008859008 0.0063019563 -0.005493595 -0.0037487831
atendimento -0.00083104 0.0009016423 0.0010038589 0.0018300955 -0.007677991 0.004315604 0.0027791725 -0.0017010275 0.0032933233 0.0014155987 0.0005625219 0.0004888996 0.0019466276 -0.0045513287 0.01533831 0.0021694768 0.011424419 0.0008689661 -0.0005276821 -0.0052273013 0.0031671647 -0.0030058613 0.0014465643 0.0014896287 -0.007356203 0.0064635277 -0.009215272 0.011024593 -0.00584658 -0.007866196 0.00069071184 0.0077806804 0.0039523183 0.0009651636 0.0024269118 0.008558636 -0.0043045 -0.0046201865 0.004245797 0.006091355 0.008261266 -0.0014218985 6.710929e-05 0.0020030604 0.0005704287 0.009506567 0.0011908137 0.004988941 0.0044249897 0.001274833 -0.0003982251 0.0036834227 -0.004511105 0.005419536 -0.0014809467 0.0018938832 -0.0034205236 -0.011989864 -0.0037667498 0.002723669 0.0015205184 0.007112046 -0.00053190085 -0.00495552 -0.0022506982 0.0037941511 -0.004020381 -0.0021240537 0.0026653984 -0.008000037 0.008662262 0.0018286651 0.00631721 0.0038095631 0.0023527232 0.0030842025 0.0033667346 0.0013915844 -0.0025081981 0.00607448 -0.0038418293 0.00054716266 0.008205792 0.00039749808 2.9274152e-05 0.00084490323 0.00229554 -0.001617003 0.009824931 0.00087756506 -8.438266e-05 0.0045360904 0.00017023792 -0.0075575337 0.0032253598 0.0030634797 0.0012830666 0.0052815136 0.007812175 -0.008418992 -0.002210942 -0.008312851 -0.005759076 0.0023738453 0.008470402 -0.001377368 -0.003267905 -0.0074048955 -0.004084285 -0.0041352753 0.013900626 -0.0005027871 -0.0001336649 -0.0025261953 0.0010035665 0.0012783457 0.0066588623 -0.0033036661 0.003432747 0.0065512275 -0.0016645306 -0.00095154357 0.0015180883 0.0062704235 0.007542669 0.00447279 0.000965838 0.006903661 -0.0015539095 0.005712807 0.00044504198 -0.004246652 0.001693378 0.0011851478 -0.005509302 0.0034673512 0.007997067 0.0022060813 -0.0057918397 0.007172841 -0.0029628244 0.0024508531 -0.0044592493 0.0025854374 -0.0006304556 -0.0068844897 -0.003740217 0.00403754 0.0010013575 -0.0014915548 0.0025527605 0.0023626098 -0.0038190344 0.005287367 -0.0019368026 0.0064973305 -0.003022795 0.0060503534 0.000795736 0.0021109832 -0.0018392248 -1.0903003e-05 0.0029939204 0.016792392 -0.0070646247 0.0011734491 -0.007033146 0.006565848 -0.0019336304 -0.002912525 0.008726066 0.0046915426 0.0053388407 -0.008333626 0.0043685716 -0.00015559379 0.001171464 0.0030703077 -0.0057458216 0.0043612705 -0.0060606203 -0.011144822 -0.009029334 -0.0014457074 0.0035772913 0.0007131013 -0.0016239722 -0.011631744 0.000486747 0.0012003767 0.0014872844 0.0066980687 -0.0011642264 0.0006136192 0.008708747 -0.0002893775 -0.0044009187 0.006257495 -0.0020620218 -0.0033611439
um 0.002252019 -0.0005389053 -0.0018595599 0.0034925216 -0.009885103 0.0052762474 0.003273651 0.00086124433 0.0061727786 -0.0013994913 -0.003173955 -0.0013992116 -0.0030505548 -0.003051209 0.023590814 0.0027554515 0.015388477 0.001461405 -0.0013383349 -0.0070942827 0.0030119955 -0.0045246975 -0.0017276595 -0.0015937021 -0.008551208 0.0046825306 -0.011023584 0.013019211 -0.009010706 -0.0077399034 -0.0027606406 0.012286985 0.007682709 0.00145642 -0.0010251445 0.012536884 -0.0046008565 -0.002880828 0.0070230234 0.0047965692 0.007158077 -0.0067582875 -0.002015786 0.00020731881 -0.004628651 0.013159901 9.848608e-05 0.009630227 0.0043683155 -0.0011533521 -0.0041830074 0.004996893 -0.002049633 0.008127441 -0.00027560888 0.0007374099 -0.0009639003 -0.013628786 -0.0034059002 0.0020516573 0.0011853524 0.011645273 -0.0039685867 -0.0038532324 -0.0050437558 0.0029308992 -0.007315156 -0.0023743473 0.0005447425 -0.009286922 0.012161027 0.0006461468 0.008270265 0.007182244 0.003217659 0.003588203 0.0007576338 0.00380342 -0.0060076243 0.009039439 -0.0055230903 -0.0022150239 0.014547141 -0.0027013524 -0.0023627444 0.0015167369 0.0030476344 0.0010308864 0.010932329 0.0010725199 0.0020658672 0.0064713527 0.0010487017 -0.00984652 0.0074098962 0.0039316122 0.00066812575 0.005724582 0.0093581425 -0.009467041 -0.0026095698 -0.009355869 -0.003774151 0.0004062402 0.011012238 -0.0062840735 -0.0062404745 -0.0087552555 -0.0074248007 -0.0027805967 0.018262958 -0.00133269 -0.0005495799 -0.0074333423 0.0009678138 0.0017313332 0.007452908 -0.0037620447 0.0010869725 0.0091635175 -0.0023807774 0.0027603654 -0.0006739443 0.0043914244 0.010375113 0.002293227 0.0023455096 0.009542701 0.0012319534 0.003724922 0.0033621183 -0.0050551496 0.0022110967 0.0045503452 -0.0066211545 0.009102172 0.008600901 0.0063215396 -0.0047909874 0.009964453 -0.0036341036 0.0050239842 -0.004167296 -0.0006131254 -0.0024141453 -0.008463268 -0.006777609 0.003966421 -0.002688448 -0.00017595162 0.00048818887 0.0050615254 -0.0028943182 0.0066597103 -0.0009142041 0.011007806 0.00037665156 0.006853153 0.0061629154 0.0018319433 -0.0040482567 -0.0013480928 0.0021353292 0.022007369 -0.010433349 0.0063490337 -0.0089784665 0.013372467 -0.0058896462 -0.001238095 0.011302052 0.004540968 0.004827183 -0.009904012 0.005520608 0.0022795869 -0.0004069004 0.0039051685 -0.0037844973 0.005841691 -0.003599772 -0.01168012 -0.01512266 -0.0019456319 0.003281839 -0.002894374 -0.0014671214 -0.01439996 0.000102027414 0.0043366984 -0.0009958616 0.011402624 -0.00041625052 -0.001997174 0.011228888 -0.00036094867 -0.011725476 0.0052847764 -0.0058164997 -0.0017251833
muito 0.0013971064 0.00082960457 -0.00068787293 0.0028371662 -0.0074680587 0.003168808 0.0006064026 0.0013646419 0.00070900086 0.0022481976 -0.00028837053 0.0010431588 0.00025607034 -0.0013327844 0.008416658 -0.0007920094 0.008667686 0.0027422241 -0.0014417694 -0.0025034158 0.000992356 4.2419535e-05 0.0005593726 -0.0018256303 -0.0037629174 0.0015227499 -0.0029231342 0.0073413723 -0.0061143646 -0.005115977 -0.0015665452 0.0044481815 0.00579187 -0.0014018543 -0.0010410837 0.0068100444 -0.0034713137 -0.00028976082 0.0060003405 0.001690114 0.0063628037 -0.0017960676 -0.0027280203 0.0029067511 0.0006112814 0.007066399 0.00054177246 0.0046973084 0.0021568062 -0.0016099615 -0.0010178552 0.0011943638 -0.0034515546 0.005947489 -0.00029704688 0.0013299935 -0.0019835327 -0.007130747 -0.00014984238 0.00028830458 0.0017065412 0.0057894816 -0.0022659164 -0.0024169316 -0.0034572482 0.0026604778 -0.0015123957 -0.0022121673 0.003084397 -0.0051838574 0.0063793096 0.001630033 0.00079097634 0.0057874094 0.0006378202 0.0015581301 -0.0010361333 0.004778974 -0.001550484 0.0036737032 -0.0021372496 0.00026890638 0.0071242806 0.0017851482 -0.0005259421 -0.00031856904 0.0026023397 -0.00074265525 0.0050250753 0.0007266806 0.0021515405 0.00021055814 0.00063083874 -0.0053248303 0.0012354389 0.0010760593 0.00022841357 0.0022944892 0.0022785803 -0.0034069698 -0.0027959768 -0.006217022 -0.0001202593 0.0009766199 0.0058880453 -0.004420495 -0.002948633 -0.005133573 -0.0058216527 -0.0035170938 0.007874288 -0.0032897375 -0.0013681761 -0.0019965537 -0.0022989553 -0.00046056323 0.004559403 -0.0010507717 0.002279312 0.0019054594 -0.0020886387 0.00062010856 0.00022118817 0.0028716892 0.004319385 0.004349241 0.00045360875 0.0072281654 -0.0008737102 0.003630297 0.0017824399 -0.00067116204 0.0024208562 0.0005665325 -0.0032538404 0.005281807 0.0034697207 0.0046304334 -0.0011063659 0.001721164 -0.0042524626 0.0028631424 -0.0012516866 -0.0011161821 -0.0020857356 -0.0046860063 -0.0016418402 0.0012537206 -0.002339028 0.0011023029 0.0012706266 0.0047080894 -0.0034498526 0.0041885385 0.0009630381 0.0051599424 -0.0022117072 0.004480233 0.00095929636 -0.0006181982 -0.00068434345 0.0016861737 0.0026167345 0.01205159 -0.0062879543 0.003280181 -0.0034089654 0.0078390455 -0.0015374727 -0.0015511946 0.0068791094 0.00010109931 0.0035070472 -0.0028018923 0.0047293655 -0.0008242751 -0.0027559933 0.003714919 -0.0040988834 0.0038553555 -0.0030806332 -0.005273107 -0.008576138 -0.0018425011 -0.00062690274 0.0004394066 -0.002128186 -0.0056830337 -0.00018086199 0.0018730653 0.0012007051 0.0060604354 0.0014409826 -0.0022478162 0.006074974 0.0007426948 -0.005783542 0.0033532442 -0.0036284071 -0.0007849792
bom -7.670068e-05 0.002809494 0.0001601563 -0.0011744477 -0.011111345 0.0044816663 0.001910052 0.00069102977 0.004456385 0.0003416862 -0.001207907 -0.0030783205 -0.0026062028 -0.006211317 0.015523263 0.00079930114 0.014097204 0.0051779556 -0.0014453188 -0.0057094055 0.003705967 -0.0017056793 0.000676966 0.0003341431 -0.003698094 0.006405263 -0.0070801536 0.012765582 -0.0073613976 -0.007358233 -0.0019424042 0.007100828 0.0053796223 0.00216231 0.0008334607 0.007993644 -0.006119567 -0.0008318458 0.008343826 0.0036298297 0.0059762616 -0.004351124 0.000829303 -0.00091500673 -0.00049806986 0.010523732 -0.0009028592 0.0043059145 0.003155217 0.00046469993 -0.00054958503 0.0054740654 -0.002378599 0.006070696 0.00030791308 -0.0007399894 -0.0024409017 -0.012981994 -0.0023660169 -0.00028283327 0.00033220655 0.010061612 -0.00020909787 -0.0017005148 -0.0030926499 0.0017955261 -0.0049444805 -0.0029573378 0.00068987254 -0.007970795 0.0053036883 -0.001261486 0.0049992367 0.0061383857 0.0015769339 0.0027997852 0.0041906675 0.0048963353 -0.0021543638 0.0073159602 -0.0029682338 -0.002580898 0.0126464395 0.00010048886 -0.0022178714 0.004489653 2.9576635e-05 -0.0016603173 0.009036925 0.0025419032 0.0014488825 0.0051763933 0.0022546519 -0.0042224545 0.004192053 0.0026725659 -0.0007229059 0.0037615255 0.009742198 -0.0071633607 -0.002095072 -0.007470309 -0.0030040366 0.0030408902 0.008143852 -0.002319184 -0.0045141447 -0.008018941 -0.0067574214 -0.006062502 0.014092608 -0.00033713886 0.0022815275 -0.005539368 0.00075164094 -0.0010203841 0.008314125 -0.0038430598 0.0020262452 0.0063631716 -0.005207699 0.0029594293 0.00051398587 0.0055443835 0.007933899 0.0017987336 0.00043547308 0.008321877 -0.0013299903 0.0038809918 0.0003004835 -0.0022282442 0.0020970292 0.00339345 -0.008403814 0.0038802424 0.0077187377 0.0055922507 -0.004051252 0.007871251 -0.0045920755 0.004963983 -0.004216511 0.0014533473 0.0013673877 -0.004982935 -0.0049841017 0.005891727 -0.0004529701 0.0012639834 0.0024991562 0.0064388537 -0.0046826135 0.003631067 -0.00029074395 0.008297822 0.001211949 0.006929326 0.00091404206 -6.416364e-05 -0.0044663623 0.0010365503 0.00026824136 0.017205523 -0.0059302477 0.0035098235 -0.008869619 0.011108655 -0.0010159584 -0.004816711 0.009018583 0.002366209 0.0043226276 -0.010808123 0.004199491 0.00036383327 -0.00202939 0.00507096 -0.0059645018 0.0014660934 -0.0030741324 -0.008614289 -0.011189875 0.0011017482 0.0028923713 -0.0025028167 0.0020951314 -0.013311083 -0.0023190218 0.004731269 0.0013777893 0.0048457207 -0.00020466282 -0.00072887796 0.009787497 -0.0016890483 -0.0076930677 0.0057400865 -0.0063952645 -0.0055473973
com 0.0028174608 0.0019893087 -0.00028166507 0.0031760973 -0.010569486 0.003350252 0.0033168413 -0.0018841559 0.0034338476 0.00058457453 -0.0029084904 -0.003171174 1.1201792e-05 -0.0035573668 0.016025193 0.002713835 0.013629222 0.0023706842 -0.004621515 -0.007000709 0.00091120915 -0.0020727804 -0.0021660945 -0.0016278988 -0.0070980494 0.0054873484 -0.010273139 0.012853415 -0.006513442 -0.007256277 0.0011563092 0.007265616 0.0071694595 0.001311163 -0.0008793446 0.007457425 -0.00311849 -0.0034071635 0.009585847 0.003234224 0.010093449 -0.0042722397 0.0001482135 0.0019952361 -0.004299746 0.009706459 -0.0028647517 0.0060155327 0.00084478466 0.0013118414 -0.0025617809 0.003912581 -0.0014751349 0.0071608163 0.001360193 -0.00054159504 -0.0039115543 -0.014233705 -0.003851151 -0.0009775452 0.0043523107 0.010016987 -0.0013249449 -0.0041924347 -0.00016012101 0.0036363027 -0.0059446343 -0.0024985606 0.0044020014 -0.006497044 0.010630542 0.0012228215 0.006943588 0.007132783 0.0034571853 0.004154572 0.0030321735 0.00439402 -0.003111926 0.0039983173 -0.0031900702 -0.0013880837 0.013121537 -0.0028272031 -0.0037706 0.00089326716 0.003566137 -0.0016892074 0.012143382 0.0045525334 0.0013437786 0.0021359266 0.0005369601 -0.00659685 0.0028665918 0.0032897769 0.002017582 0.006818387 0.00999018 -0.008705223 -0.0011087868 -0.009921413 -0.006779298 0.0040776846 0.012689029 -0.0029338673 -0.001405308 -0.009703307 -0.0070143812 -0.0064508896 0.0115525015 -0.001787531 0.0009848288 -0.0023949575 0.0007739934 -0.0025259703 0.0048219375 -0.0028616018 0.0043723215 0.0067482996 -0.0026099575 -0.0005104565 0.00020174487 0.0029479596 0.0095048 0.0018988774 0.00041092347 0.011722688 -0.0017036438 0.005385088 0.0018202125 -0.0022693528 0.0041178754 0.0027303773 -0.0068124295 0.008160832 0.008731809 0.005679078 -0.0038344085 0.0064020697 -0.002295184 0.0038963328 -0.0063770902 0.0020940246 -0.0006750372 -0.0077668834 -0.0060188305 0.0048640114 1.1259444e-05 0.0014036206 0.0029474958 0.005838422 -0.0027111943 0.006220519 0.00060797203 0.0077602062 -0.0024193577 0.0077894954 0.0039048118 0.0025417085 -0.0058216834 -0.0017047902 0.0030268861 0.01573091 -0.008134775 0.003666303 -0.008076601 0.009802018 -0.005536434 -0.0015756978 0.010431907 0.004922268 0.0040301797 -0.0069868057 0.0061816415 0.002291789 0.0007049866 0.0019028472 -0.0041598696 0.0016461599 -0.004254981 -0.0111267315 -0.012070316 -0.0030346478 0.0033157477 5.1701623e-05 -0.0018600207 -0.015509547 -0.0045856657 0.0017580551 -0.0020501646 0.0070931045 0.00177937 0.0010076723 0.009908363 -0.0028298325 -0.009186865 0.0051763356 -0.004205732 -0.0011056841
comida 0.00071293203 -0.00142921 -0.0019450446 0.0027739955 -0.0067202053 0.0035454473 -0.0005016448 -0.00078549644 0.0017670601 -0.0009415369 -0.0017149113 0.00010516249 -0.0029615816 -0.00285492 0.016495401 0.0012661831 0.010810854 0.004364522 0.000685652 -0.0019965707 0.00507558 -0.003749338 0.0003483811 -0.00037724996 -0.003638189 0.0062462464 -0.0064547886 0.0075664474 -0.006833178 -0.007180086 0.0015173361 0.008959064 0.0053226925 -0.00038453972 -0.0016046466 0.009132552 -0.003556623 -0.0031145085 0.0039032025 0.0045444085 0.008430679 -0.004527528 -0.0035318676 0.0020740535 0.00083431567 0.010039384 0.00021683135 0.0069004158 0.0038160428 0.0009586267 -0.0004918807 0.0006985154 -0.0007950758 0.004674945 0.0015182893 -0.00036115694 -0.0013970691 -0.011026848 -0.00038243807 0.0029769028 0.003932069 0.007699461 -0.00436446 -0.001662243 -0.003251783 0.0035135539 -0.006689233 -0.0035182738 0.0024021445 -0.007332879 0.008836234 -0.0015336794 0.006278732 0.007066884 0.004162784 0.0041763512 0.004340416 0.0017879508 -0.00037184454 0.0047853473 -0.002194444 -0.002251269 0.008179896 0.00015315982 -0.0011479903 0.0009590763 0.0010146254 -0.0008889599 0.00858054 0.003269163 -0.00042808597 0.005270704 0.0027440551 -0.0068590078 0.0017756906 0.00060485734 0.0008955782 0.0052488507 0.0049846177 -0.009812732 -0.0038491 -0.0069710445 -0.004356056 0.001777107 0.009276398 -0.0052832416 -0.004943692 -0.0050001363 -0.0051092072 -0.0054178266 0.013543333 -0.0025612947 -0.0011429021 -0.0063904827 0.0021084277 -0.0010000098 0.007837376 -0.0029373958 -0.0006031977 0.0061358092 -0.0051996754 0.0010350945 0.0004386819 0.0057957857 0.004079697 0.0032380493 0.0036781097 0.007090201 -0.0019452032 0.0058384575 0.0011524061 -0.0031050798 0.0035662253 0.0017977922 -0.0077825813 0.0051844507 0.008349895 0.0060053403 -0.002206983 0.007882485 -0.0030932175 0.0014195227 -0.005958852 0.0019614215 0.002435109 -0.0060553234 -0.003865967 0.0011367731 -0.0016268762 0.0010350884 -0.0011736162 0.006273141 -0.0027603153 0.0010145714 -0.00021911705 0.0061378237 -0.0026624294 0.0053664814 0.0036144063 0.0030349293 -0.0025406312 -0.0004831268 -0.00066123676 0.016058592 -0.008038082 0.0019004131 -0.005644625 0.010085508 -0.00042613767 -0.0017023474 0.007611921 0.0031744384 0.003061397 -0.007773324 0.004466924 -0.00026701373 -0.0011710115 0.0049502673 -0.004876209 0.0038869558 -0.0039636423 -0.011100187 -0.0071072145 -0.0027319894 0.003148728 0.00048262824 0.00034353478 -0.012677492 -0.000854484 0.0030361433 0.0007215332 0.003954395 -0.0012548194 0.00040492302 0.009938796 0.00049349637 -0.0074042752 0.0057793753 -0.0034608257 -0.0003708803
ambiente 0.0021388477 -0.0017125654 -0.0017282969 0.0006073695 -0.0073920977 0.0031639438 0.0019069789 0.0006815888 0.0032396736 0.0014263093 -0.0023158118 -0.00074288814 -0.0005062809 -0.0022926857 0.01140141 0.004124012 0.011445437 0.0029608454 -0.003023806 -0.0051674945 0.0033642028 -0.0023232922 -0.002611716 -0.002471824 -0.0055939197 0.004399026 -0.005417691 0.009654582 -0.003246223 -0.0022814763 0.00055008946 0.0087876655 0.0068234634 -0.0014368491 -0.0002977418 0.005006284 -0.0043140105 -0.0031408055 0.005228831 0.004510888 0.00762611 -0.0018331879 0.00071027566 -0.0015234962 -0.0015723138 0.005510647 0.0018224244 0.0051432992 0.0023168898 0.0016951729 -0.00069297524 0.003750412 1.2276721e-05 0.0027338336 -0.00075178646 -0.00097476365 -0.002318281 -0.0109567335 -0.0021001315 0.0013399752 -6.52693e-05 0.003902678 -0.00295796 -0.0030581225 -0.0035351343 -0.00019237337 -0.0021449025 -0.0019310827 0.0035783139 -0.0050109876 0.0038679298 -0.00046823602 0.0037018298 0.0034583756 -8.737519e-05 0.0019002134 0.0021648274 0.0016765554 -0.0015453675 0.003835459 1.1806062e-05 -0.00043917395 0.00893132 -0.00148079 -0.0030967754 0.0026387195 -0.00031607779 -0.0023807203 0.010106332 0.0041045193 6.14721e-05 0.0039823237 0.0017284713 -0.006361527 0.0036027606 0.0028982055 0.00012706517 0.002028584 0.0047656484 -0.0067416625 6.907198e-05 -0.005724312 -0.0042337566 0.002121646 0.009568747 -0.0014490414 -0.002342444 -0.0039793774 -0.0068198186 -0.005188219 0.0089504 -0.003395022 -0.0014388921 -0.0016096457 0.0004126097 8.976306e-05 0.0072290744 -0.0005584395 -0.00037077625 0.0038079964 -0.002667127 0.001205482 -0.0007152699 0.0012907471 0.007609837 0.0018095488 0.0013223705 0.0043330006 0.00015559045 0.0031627172 0.0039339378 -0.003698191 0.0025452906 0.0005406685 -0.003539368 0.0045720325 0.005005444 0.0041356385 -0.0019575055 0.004892675 -0.00081940956 0.0013846135 -0.0052793855 2.070368e-06 0.0022255732 -0.0067206146 -0.00044748606 0.0024370253 0.0005816071 0.0014714134 -0.0010392776 0.004806271 -0.0027149427 0.0032167379 1.4196618e-05 0.004734412 -0.00027263208 0.0026410867 0.004274934 -0.00017109468 -0.0018003276 0.0021445858 -0.0016580112 0.01269979 -0.007826912 0.0043527703 -0.007982625 0.007595908 -0.0031429923 -0.003987975 0.0071650553 2.184953e-05 0.0024545733 -0.006388318 0.002200524 -0.0015506988 -0.0010673081 0.00079042104 -0.004854161 0.0012410705 -0.0058504664 -0.0071641225 -0.00915767 -0.0028579966 0.003217846 -0.0028009578 -0.0014798809 -0.011233577 -0.002694133 0.0017083292 -8.423544e-05 0.005496147 -0.0028798168 -0.0014908403 0.008258516 -0.0030074406 -0.0044049714 0.003991467 -0.0028096219 -0.002105118
para 0.0025650235 -0.0005498633 -0.002378063 -0.0009099712 -0.011174024 0.004309548 0.0015261591 0.0020149264 0.0039336416 0.00029129194 -0.00013457841 -0.00031602487 0.00175367 -0.005579299 0.023657346 0.0046754866 0.014329704 0.0024856152 -0.0026967474 -0.005136008 0.0019788768 -0.00018645012 0.0017316868 -0.0029620985 -0.009838597 0.004939332 -0.011645382 0.014427791 -0.0075949784 -0.0060254876 0.001716867 0.013492502 0.009994209 -0.0017756637 0.0027744323 0.009100847 -0.0059840847 -0.0044260104 0.010061774 0.003103794 0.007589429 -0.0039786566 -0.0013198978 0.002206453 -0.0023963472 0.011841404 -0.0028021457 0.009459949 0.0044669434 -0.00068323937 -0.0015423473 0.002585518 -0.0011102142 0.0069819414 0.00032843486 0.0028812645 -0.0040160497 -0.016356513 -0.0033438771 -0.0015067494 0.0015430539 0.009929336 -0.0025965488 -0.0028236702 -0.0046014944 0.0027917344 -0.0068933987 -0.006668232 0.0026953311 -0.009831436 0.0076037333 0.0018156916 0.00759451 0.004958963 0.0019184445 0.0002711342 0.004246897 0.0065406663 -0.0059767785 0.0064143124 -0.000938754 -0.0009625146 0.014569574 -0.002219621 -0.002626353 0.0036873494 -0.00020898355 -0.0032375779 0.012809937 0.005208317 -0.0023212016 0.0055652177 0.0009847325 -0.008356442 0.003965992 0.0049582412 0.0018037548 0.004282748 0.008729799 -0.013094962 -0.0021703981 -0.009522246 -0.007787394 0.0026794695 0.013786662 -0.0037433035 -0.0035777588 -0.0102020865 -0.008080476 -0.0041381707 0.014805024 -0.002325405 0.002774637 -0.0034408113 -0.0015232185 0.0019483141 0.01069433 -0.001055094 0.001639387 0.0056998376 -0.0019008238 0.000521318 0.0015473041 0.005237366 0.009947441 0.002827349 0.0037276994 0.013573889 -0.0022450206 0.0070764003 0.0033642366 -0.0056212223 0.0010072021 0.0020364707 -0.005812749 0.0067303684 0.009373709 0.0039958204 -0.0056222933 0.008168882 -0.006519289 0.002815661 -0.00586402 0.0015271474 -0.00032942125 -0.009607785 -0.0049924385 0.004956146 0.0016076202 -0.002008438 -0.00017067102 0.004866456 -0.004007255 0.0066969157 0.0010910544 0.011997883 0.0003298675 0.010771931 0.0057808845 0.0035345159 -0.0073132417 -0.0014199803 -0.0010142389 0.018736023 -0.009918723 0.0063019237 -0.011571071 0.012027049 -0.002709143 -0.0020792163 0.011796462 0.0019285484 0.0045903735 -0.012000119 0.0065396945 5.08307e-05 -0.0011793013 0.0057802857 -0.008382775 0.004532214 -0.005022682 -0.013043116 -0.014194825 0.00047794482 0.0041514644 -0.0013491437 0.0023287325 -0.014787165 -0.002783204 0.005009187 -0.0005433134 0.0097948285 -0.0017658789 -0.0006543304 0.0098715555 -0.00393591 -0.0105979005 0.008011606 -0.003435625 -0.002383976
lugar 0.0014693761 0.00091556343 0.0017980905 0.0004733965 -0.0086604385 0.0001115323 0.0018589253 0.0014920173 0.0050023342 5.523698e-05 -0.0019454414 -0.001160182 0.0006144876 -0.002176724 0.012634156 0.0028035233 0.0113170585 0.0010820011 0.00022883638 -0.0037452537 0.0018476534 -0.0035193725 3.3799162e-05 -0.0021364267 -0.0034205886 0.002732618 -0.007302268 0.011004287 -0.0053329766 -0.0038123303 -0.00060165353 0.009254769 0.005531581 -0.0006075573 -0.0015909811 0.008820208 -0.000687217 0.000358188 0.006986939 0.0013991799 0.005991305 -0.0032753986 8.9134366e-05 0.00071351056 -0.00012118813 0.010026645 -0.0010396503 0.004609629 0.0022347851 0.0009291049 0.0007261966 0.0021155148 -0.0037387006 0.0058417944 0.00056654564 0.0018286211 -0.003908074 -0.009192981 -0.0035070425 -6.903899e-05 0.0019974834 0.004281789 -0.00044272628 -0.0006893545 -0.0038230508 0.001954373 -0.0064254594 -0.0027087284 0.00024370514 -0.0029714701 0.006534165 0.0016140465 0.001847879 0.0053731264 -0.00024860064 -0.0002148728 0.0008748376 0.005351813 -0.004270592 0.0047138296 -0.0041193287 -0.00081954733 0.008122252 0.000254864 -0.00405765 0.0027285942 0.002063004 -0.0010613861 0.009050583 0.0011152104 -6.0794955e-05 0.004281287 0.0037034778 -0.0068133995 0.005414899 0.0036971075 0.0007069743 0.0015289896 0.0037682247 -0.00535436 -0.0025563715 -0.005335616 -0.002349803 0.0025725167 0.008759533 -0.0049645454 -0.00081098994 -0.007900339 -0.002908799 -0.005126347 0.0122252535 -0.004215475 -0.001320073 -0.0027579716 0.0014718963 -0.000455411 0.0067934887 -0.0027386574 0.0018305222 0.0056181564 -0.003327398 -0.0006198476 0.0021970863 0.0010613858 0.006635141 0.0019372301 0.002171124 0.0072174007 -0.0020215588 0.0027498044 0.0015523863 -0.0030144244 0.0022261192 0.00088340114 -0.0062208115 0.002747369 0.0044409027 0.0029729716 -0.005584015 0.004943066 -0.0012556223 0.005185361 -0.0032734685 -4.4938715e-05 0.0016445031 -0.005627684 -0.004494544 0.0014805194 -0.00048368087 0.0008140617 0.000335944 0.0023062406 -0.0020102868 0.0012772416 0.0001358086 0.004315045 -0.0026113987 0.0044100056 0.00036900077 0.0010293291 -0.0030464116 0.00138662 0.0023581535 0.014037288 -0.0053739673 0.0008338277 -0.008078119 0.0060348124 -0.0036448808 -0.001125207 0.005982373 0.0015357102 0.0031436167 -0.005248054 0.003715033 -0.0015024428 9.953063e-05 0.003669882 -0.0033510278 0.003989349 -0.005405707 -0.006951497 -0.010815642 -0.0005379689 -0.0007796433 -0.0024818922 -0.0016342237 -0.01139525 -0.0007657291 0.0038532482 0.0017274567 0.0070242574 0.0018131224 0.00020712367 0.0073732524 -0.00096307276 -0.008412632 0.0057177097 -0.0032455313 -0.0045596263
boa 0.0020394803 0.0007757114 0.0014299568 0.0021122808 -0.004436061 0.0027054148 0.0036724387 0.001709669 0.0058251293 7.5787706e-05 -0.00082794303 -0.00070651935 8.1448015e-05 -0.002131611 0.013314977 0.004115164 0.008683097 0.0019823564 -0.0022112115 -0.0050724586 0.0030194656 0.0009933346 -0.0024890478 -0.0011608258 -0.003665113 0.005061935 -0.0047954335 0.007893492 -0.0021097984 -0.004475526 -0.0021521798 0.003625429 0.0045353957 0.001687923 0.00066184846 0.008405444 -0.0030268303 -0.0034946492 0.0024341638 0.0052457955 0.0045833415 -0.00251059 -0.0013472084 -0.0010756516 -0.0009064685 0.008458246 0.0014559453 0.002902686 0.0035791083 -6.559739e-05 -0.0035080991 0.0019476897 -0.0030882503 0.0027823932 0.0017241836 -0.00054554315 -0.0036937816 -0.008060527 -5.751308e-05 0.0004505763 0.002588241 0.0049337526 -0.0018039601 -0.0015281473 -0.0020667287 0.0017110221 -0.0067819874 -0.004147974 0.0015361723 -0.0024796773 0.0040684952 -0.0012356873 0.005458758 0.005815552 -0.00050464156 0.0029663746 0.0019976217 0.0011524074 -0.0025492152 0.0031671717 -0.0018001181 -1.4098394e-05 0.009308748 -0.00082700746 0.0007829848 0.0034117245 -0.0008312104 -0.0020349803 0.009487626 0.0033106746 0.0017188861 0.004308966 -0.00078996265 -0.0019111552 0.0028982167 -0.00022742963 0.0012806783 0.003931547 0.0030675565 -0.0058450243 -0.0031094078 -0.004374985 -0.0016127827 0.0035798256 0.009022728 -0.0034525301 -1.350307e-05 -0.0060366667 -0.004839424 -0.004384814 0.00712698 -0.0036600053 0.00031140225 -0.004975641 -0.0013060215 0.0019233588 0.0067622084 -0.0013879058 -1.097427e-06 0.0055138646 -0.0015980523 5.998829e-05 -0.0006142481 0.003069284 0.0064047216 0.0038989105 0.0019308332 0.0068463646 -3.0108764e-05 0.001813835 0.0037783834 -0.0016415066 0.002899908 -0.001184988 -0.0037999554 0.0038668243 0.0035079636 0.002337508 -0.0017226898 0.006344173 -0.0031225348 0.000922036 -0.0024280658 0.0009885214 0.0010580968 -0.005243896 -0.0010141623 0.003308515 -0.001985889 0.000574196 0.0026689908 0.0040968712 -0.0043304707 0.0025835664 -0.0024183912 0.007502209 -0.0023123526 0.0042102328 0.002426953 0.0027052509 -0.0046187164 -0.00093771087 0.0028519186 0.010057035 -0.0035406204 0.002529161 -0.005773155 0.0060102567 -0.0018813447 0.0003282385 0.005973091 0.0013660456 0.0051528113 -0.005445357 0.0023973738 0.00053608237 0.0005508053 0.0029234462 -0.0044129337 0.004198641 -0.0053868187 -0.007443939 -0.008019897 -0.0026928596 0.0030963675 0.0016487442 0.002391009 -0.0078063942 -0.0029997265 0.0018876789 -0.002287827 0.0029909455 -0.0014887815 -0.0022969265 0.00790587 0.0012683779 -0.006549971 0.0025510916 -0.0031703732 -0.0033007655
preco -0.00078057585 0.002360341 -0.0011825192 -0.00091881846 -0.007045303 0.00010344476 0.0037473748 -0.000741285 0.006135808 0.0019612499 -0.003216728 -0.0004323004 0.0012431463 -0.0024992328 0.013205372 0.0023610916 0.011499841 0.0021640963 -0.003989269 -0.0047751414 0.0032560164 -0.0024347443 -0.0028352512 -0.0028340775 -0.0026117575 0.003123742 -0.007834964 0.0099294195 -0.003053985 -0.005250914 -0.0024523684 0.006622545 0.0029963613 -0.0014747934 0.0010016814 0.008095388 -0.003894355 -0.00040358305 0.0034236 0.004599396 0.0068021035 -0.0037983686 0.001272034 0.0023588666 -0.0034802551 0.008122374 -0.0002850967 0.0028966255 0.0023582613 -0.0015504621 -0.00028697154 0.0044801338 -0.00034323687 0.0061593293 0.0018174488 0.002701802 -0.0026930508 -0.011444937 -0.004276237 0.001553304 0.0009820875 0.007748361 0.0003433373 -0.0049396646 -0.0017700677 0.000533783 -0.0024034732 -0.0025715923 0.0019881784 -0.005094097 0.0069931177 6.0904247e-05 0.00547271 0.0048001567 0.0007069984 0.0013253953 0.001990343 0.0034277067 -0.0022155594 0.0064935293 -0.002408522 -9.317163e-05 0.007522142 0.0018003691 0.00012325995 -1.3641629e-05 -0.0004652124 -0.0026448425 0.008885552 0.0016539562 -0.0020742323 0.0055637234 0.0018382601 -0.0049743773 0.0021927266 -0.00039238564 -0.0022703437 0.0029265443 0.0073178564 -0.008183015 0.00014620036 -0.009023202 -0.0040031024 0.0009126516 0.008341493 -0.0028800822 -0.004350876 -0.0071399864 -0.0050182315 -0.002011205 0.008900953 -0.002907795 -0.0010451862 -0.0029539051 -0.0009498933 -0.0022195368 0.0071816253 -0.001915427 0.0006077494 0.0053571137 -0.0041726464 0.0034726937 -0.0008786848 0.0047040572 0.007515724 0.0039119576 -0.00037728093 0.005426708 -0.0019600359 0.00287705 0.0025588395 -0.0034887355 -0.00043889097 -0.00060752896 -0.0029881618 0.0020895207 0.005804872 0.0047175 -0.0014098922 0.0031766347 -0.0011260455 0.00092168903 -0.005434728 0.002525889 0.0019589923 -0.0052922904 -0.002520368 0.0051532406 -0.002745575 -0.0022352808 0.0010622499 0.004968283 -0.0035383767 0.0042085457 7.6785866e-05 0.005517629 -0.0019817953 0.00528786 0.0043650763 0.0012720447 -0.0050736945 -0.0017568317 0.002865604 0.01400827 -0.0062930644 0.0034473806 -0.009038571 0.0064805746 -0.0013813097 0.00015724933 0.005091715 0.0016920455 0.0034517082 -0.0082362825 0.0024401136 -0.0014909353 0.0005576982 0.002438153 -0.004550112 0.0027319288 -0.0046687326 -0.008410158 -0.009736791 -0.0012364179 -0.0008345137 -0.0016861308 0.00028866544 -0.011666712 -0.0039902064 0.0047077513 0.0007969511 0.007189066 0.00020152729 -0.0012082452 0.0081884805 -0.00036903785 -0.005960111 0.0048376285 -0.0021851873 -0.003751687
otimo -0.0012796802 -0.00016161594 0.000259988 7.515468e-05 -0.005630255 0.00196862 0.003542505 0.0015604844 0.0035163995 -0.00022304268 0.001927393 9.157728e-05 0.0004755374 -0.0042824256 0.013067603 0.00085330865 0.0066602034 0.00072805135 -0.0015786466 -0.005139091 0.0015239543 -0.0032472229 -0.0010132153 -0.0028780948 -0.0017888545 0.0005044843 -0.0060215625 0.005845369 -0.00159288 -0.002357564 0.0017917057 0.0067668282 0.0054136924 -0.0023796402 -0.0008470661 0.0039943024 -0.002614571 -0.0028230667 0.004867053 0.0034905355 0.006571363 -0.002490463 1.257811e-05 0.0017194548 -0.0013610373 0.006001934 -0.0029131486 0.0058131544 0.0025545687 0.0023465783 -0.0014900906 -5.7631467e-05 -0.0018210973 0.0037029434 -0.0021400715 0.0021264136 -0.0025810865 -0.007063926 -0.00020265776 0.0022102706 0.0010334231 0.0036523384 0.0003621495 -0.0012866287 -0.0013988398 -0.0013047834 -0.0055719456 -0.0015772879 0.0003075542 -0.0036206516 0.0045278952 0.001271797 0.002220149 0.006142502 -0.0008493619 0.0035414104 0.003755948 0.0014842999 -0.0040367106 0.004217423 -0.003500756 0.00092467904 0.006280009 -0.0025567997 -0.003819529 0.001465235 0.0034885167 -0.00096255506 0.0064716036 -0.0007619216 5.3807125e-05 0.0040500113 0.0011568378 -0.0046283184 0.0010213787 0.0030721435 0.0024705683 0.004390088 0.0045205713 -0.006395767 -0.002239283 -0.0042199073 -0.0017995134 -0.00056992914 0.005712845 -0.005068896 -0.0014294611 -0.0038569048 -0.0013791267 -0.0008100617 0.0059920023 0.0006486558 0.0013071002 -0.00086888665 0.0013341324 -0.0009532041 0.0048790528 -0.00014138193 0.0006852623 0.0041608196 -0.00012946136 0.0003055626 -0.0013371069 0.0026101961 0.00278717 0.0042307447 -0.0002206876 0.008114676 -0.0020781022 0.0006494007 -0.0008463993 -0.0018469541 0.0020862853 -0.0006293839 -0.0041278084 0.005374374 0.0050139986 0.0025187617 -0.003719285 0.0040555065 -0.0032346246 0.000659864 -0.00068749406 -0.0017935671 0.0013092635 -0.0029553724 -0.0036937795 0.0044316608 0.0011116436 0.00015655378 0.0016401148 0.0013541161 -0.0020527667 0.0029195943 -0.0022406012 0.0024813397 -0.0007121544 0.0027069696 0.0028399392 -0.0012451555 -0.0035841556 0.0018818877 -0.001156053 0.009434322 -0.004755934 0.0041213883 -0.006329054 0.0053245174 -0.0013382628 -0.0022756357 0.0033632682 0.0032064258 0.00041110188 -0.0074031637 0.003409856 0.00025922738 0.0016608888 0.0014241025 -0.00095691637 0.0026062534 -0.0045482167 -0.005605272 -0.0060897074 -0.0023275628 0.002502823 -0.0007892458 -0.000949688 -0.005760783 -0.0015588462 0.0021841654 -0.00045719265 0.006759975 0.0012891395 -0.0022389041 0.0054567596 0.00061146345 -0.004520963 0.001387412 -0.0045527807 -0.00056777283
bem -0.0020015729 -0.00014075983 -0.0026724664 -0.0012040356 -0.009875946 0.0031864285 0.0028299019 -0.0001516705 0.003947525 0.0014322668 -0.0027377293 0.00035221095 -0.0017965402 -0.0010183728 0.0130345 -2.483257e-07 0.0092161605 0.0032739856 -0.0035640348 -0.0055640666 0.0046963175 -0.0010747825 0.00068141904 -0.0026716853 -0.0021320719 0.0044951416 -0.007524329 0.009999737 -0.0042994814 -0.005532855 -0.0014524221 0.0044589397 0.004355106 0.0019578768 -0.0009553658 0.008638955 -0.005266727 -0.00093293155 0.0064660716 0.0017258963 0.007936149 -0.0006404839 -0.0027206547 0.0028885654 -0.0028759309 0.009024781 -0.0023168877 0.004918176 0.0021162452 0.0002509275 -0.0007265521 0.0046514175 -0.003512857 0.0062849536 0.0008909469 0.0029566863 -0.0010916669 -0.011576316 -0.0040098773 0.0028054127 0.0038429466 0.008036888 0.00068392506 -0.004025226 -0.0035548145 0.00030734387 -0.0043910937 -0.005245953 0.0041582803 -0.0046821446 0.006283443 0.00041518357 0.0055575655 0.0035946295 0.0006631945 0.0017305665 0.0012463955 0.0041183536 -0.00022650993 0.0067856587 -0.00024202302 0.0002112324 0.010890181 -0.0018455477 -0.00092737126 0.0025586814 0.003288657 -0.0004462421 0.008931412 0.0009834898 0.0011634383 0.0031878953 0.0035764151 -0.0024445488 0.003185325 0.0017771306 -0.0003588551 0.0036566071 0.0072056237 -0.0063711507 -0.0015943483 -0.008191998 -0.0013095016 0.0024332167 0.007628049 -0.0041510575 -0.0017219591 -0.004953202 -0.005262438 -0.0046176002 0.011159 -0.0015809936 0.0007767972 -0.003846159 0.00020172264 -0.0026698112 0.0063885115 -0.00090084784 -0.0006701437 0.0024610376 -0.0009255222 0.002795245 -0.0019051955 0.0038448775 0.007183835 0.0049436307 0.0039554285 0.007753799 -0.002716707 0.0010120872 0.0013118479 -0.003201372 0.0036210958 0.00089709595 -0.002297169 0.002751382 0.007119165 0.0026322543 -0.00488778 0.0029281906 -0.005107028 0.0009758901 -0.0032902106 0.0015155287 -0.0024068707 -0.0035739362 -0.0004561583 0.0043230588 -0.00016374957 -0.0025082515 0.0031035822 0.0026093756 -0.0057203197 0.0055672857 0.00044222764 0.006454014 -0.0017482905 0.0063018664 0.0027843704 0.00039552673 -0.0029811554 0.0019115085 0.0013030485 0.01012944 -0.0052526286 0.0040510744 -0.0075450395 0.0070747356 -7.367612e-05 -0.002339689 0.007516018 0.0043438813 0.0015925965 -0.007217022 0.0014734835 0.000116055715 -0.0028611885 0.002118607 -0.002742815 0.0023236547 -0.002073762 -0.008412626 -0.008435939 -0.0009006921 0.0005682508 -0.00210484 -0.0019073817 -0.011188081 -0.003753029 0.0024695913 -0.00034806255 0.006991671 -0.0018927347 -0.0032119092 0.009382802 -0.003228261 -0.0046013203 0.003744951 -0.0019583697 -0.0022873867
excelente 0.0016608753 0.00078937836 -0.001403584 0.0006035287 -0.0046547884 0.0002985642 0.0016431988 0.0018129745 0.002941846 -0.0014004656 0.0003731648 0.0006207411 -0.00023671273 -0.0034157522 0.0077003604 0.0014497809 0.006296354 -0.00036693024 -0.0014767858 -0.0019978527 0.0019835976 0.001318318 0.0008117375 -0.0028187423 -0.004957013 0.000181044 -0.0036330384 0.006966741 -0.0013273566 -0.0031911675 -0.0015192517 0.005852217 0.004809883 -6.423281e-05 -0.0019354526 0.005409828 -0.0042822203 0.0011190004 0.0023378246 0.0024326765 0.00237233 -0.0031084334 0.00016296956 6.390603e-05 -0.003227847 0.00454626 -0.00047762122 0.0039573307 -0.0007988384 -0.0021235666 -0.0029377681 0.0023156458 -0.0026561255 0.0024661424 -0.0011014919 0.0023541672 0.0005962612 -0.008319411 -0.0025638929 -0.00019835812 0.000869676 0.0032590537 0.0006150542 -0.0016916689 -8.351856e-05 -0.0006984209 -0.0047968826 -0.004346454 -0.00042705727 -0.0043870904 0.0060380264 -0.0017525256 0.00038113497 0.0021950563 0.002950116 0.0027747042 0.00261873 0.0035855041 -0.0007996703 0.0011032223 0.00027341596 -0.0031758226 0.0065655843 -0.0024360246 0.0009379973 -0.00017450092 0.002054896 -0.0024376395 0.0045231422 0.00037856438 0.000686103 0.0011527038 -0.0005171178 -0.00084228214 0.0034734113 0.0029113514 -0.0008269188 0.0020009389 0.0047035124 -0.0029477351 -0.0008294044 -0.004222152 -0.0025493992 -0.0009471093 0.007156613 -0.0020547218 -0.000963607 -0.005282859 -0.0024425806 -0.0005176445 0.0064037167 -0.00037682362 -0.00054259354 -0.0034195816 -0.00035022144 -0.00023958406 0.004052572 -0.0004969171 0.00074746314 0.004691088 -0.0031336318 0.00054350955 7.073362e-05 -0.00013138632 0.004054196 0.0012320649 0.0015422457 0.0052945223 -0.0022658196 0.0006427936 0.00349951 0.00045099374 -0.00048259587 0.0010686886 -0.004954975 0.0009739343 0.0059593976 -3.2471293e-05 -0.0032883247 0.0036972682 -0.0004561475 0.00061072205 -0.0043049357 0.0025816178 0.00030103393 -0.004895769 -0.0011771205 -0.00043773296 0.0013141613 0.0016235914 0.0030833299 0.0047365017 -0.0033011443 0.0014499215 -0.0018212186 0.0019482631 -0.0003573043 0.0013461405 -0.000653141 -0.0010692951 -0.00051573216 0.00048869255 0.0005714433 0.0069950023 -0.004234272 -0.00036181582 -0.005023226 0.005781903 -0.00077833765 -0.002626395 0.0023426325 0.0033396531 0.0025273724 -0.003542271 0.002272908 -0.0002548402 -0.0027757476 0.0037218293 -0.00094157987 0.0018196285 -0.0021571838 -0.004300014 -0.0046906057 0.00010813843 2.6618181e-05 0.0016986646 3.548035e-05 -0.007497528 -0.0012240295 0.0037701412 0.00016199425 0.0022756646 0.001845374 -0.0013310561 0.005453338 0.0006686348 -0.004512838 0.00403409 -0.0011878103 -2.083824e-05
sao -0.00031470144 -0.0011940021 -0.0026025448 0.0030292755 -0.0061690575 0.00036761115 0.004243034 0.0027710153 0.0050852043 0.002178245 0.0011791718 0.0010850003 -0.0023421221 -0.0025338489 0.015524572 0.00017247356 0.012583803 0.0021374007 0.00056105654 -0.0031072248 0.004534385 -0.0029718997 -0.0024214897 -0.0030482477 -0.0055903825 0.004933771 -0.006712304 0.007062088 -0.00519049 -0.0032681096 0.00022020942 0.005597868 0.006710776 0.0014964142 0.00095783995 0.009436455 -0.003519562 -0.0007178255 0.004846417 0.003938389 0.006999758 -0.0024046777 -0.00036751697 -0.0015358762 -0.0021968328 0.006343639 -0.0027886003 0.0058386377 0.0033147747 -0.0011774488 -0.0036668242 0.001447608 0.0004351246 0.005058533 -0.0016726275 0.00065225887 -0.0027621062 -0.011766374 -0.0012886642 0.00018504995 0.0046240822 0.004458181 -0.0030877688 -0.0007692498 -0.0007681183 0.0023807988 -0.002766666 -0.0041820197 0.0012765639 -0.0064179623 0.007887895 0.0028573296 0.00338556 0.0054588015 0.0013470555 0.000104225604 0.00022112543 0.004069642 -0.0025699749 0.005193762 -0.00021477808 -0.0026924992 0.010406371 -0.00021460404 -0.0027276468 0.003231364 0.0014428141 -0.00048023727 0.009738268 0.0011356333 -0.002007982 0.002761409 0.0039406004 -0.0074259737 0.003911299 0.0037635863 -0.0018618677 0.005364484 0.007910523 -0.008654022 -0.001480509 -0.007195365 -0.0022080154 0.0035527078 0.010746604 -0.0018253552 -0.0038550836 -0.00337083 -0.0026737435 -0.0043428466 0.012522313 -5.3532836e-05 -0.0010343306 -0.004866794 -0.00040410884 -0.0013238476 0.003830718 -0.00062468677 0.0013746052 0.0051331045 -0.0020806184 0.0022698224 -0.000107729364 0.0059003644 0.0063513233 0.004600459 0.00054817804 0.0065298546 0.0011439467 0.0024024886 0.00036161148 -0.003705912 0.0013564203 0.00042969186 -0.0033718613 0.004445328 0.004101799 0.0033849245 -0.0056322734 0.007846768 -0.0020670674 0.0040207296 -0.005489062 -0.00023257283 -0.0009234584 -0.005440604 -0.0043700673 0.004259929 -0.0016956606 0.0013980203 0.0027218827 0.004115463 -0.0037406213 0.0024983876 -0.0026684427 0.005754651 0.0013565795 0.0066239536 0.0021832287 0.002961953 -0.005183263 0.0004495313 0.00270473 0.015697202 -0.007201989 0.003955307 -0.008601728 0.006604152 -0.0014309458 -0.0010079257 0.006563317 0.0010354419 0.0060090893 -0.006845952 0.0051709465 -0.00084080524 -0.00022766179 0.00449475 -0.0013525828 0.0026368457 -0.0053948658 -0.008858955 -0.008667071 -0.0030520158 0.0005869426 -0.0028344875 -0.00059352105 -0.0083445115 -0.00055552466 0.005486809 -0.00030753104 0.006899383 0.00019352559 -0.0014964167 0.008115945 -0.0007800526 -0.004432748 0.0032813232 -0.0027633174 -0.004208985
do 0.0015520728 -0.0005814991 -0.0019216841 -0.0017128255 -0.0056908987 0.00026841706 0.0037820372 -0.0019340226 0.0020614518 0.0012239482 -0.0024124747 0.0014059601 -0.0017268287 -0.0027896091 0.009507784 0.002971699 0.0074765687 0.0045378287 -0.0020529544 -0.0059596007 -0.00034944844 1.3128515e-05 0.0017367654 0.0007338736 -0.001816479 0.0049592587 -0.004335617 0.0070304144 -0.0020979713 -0.003071641 0.001504389 0.007820742 0.0066074636 -0.00020163604 0.002064987 0.0040425523 -0.0013065255 -0.0018470036 0.0024761106 0.00305497 0.0029996592 -0.0038508836 -0.0015685873 -0.00053949765 -0.00012320765 0.007930862 0.0018012977 0.0042106877 0.0037247746 -0.0025014442 0.000868658 2.4038238e-05 -0.003857788 0.003915641 -0.0019669225 -0.0009017884 -0.00033957194 -0.009942872 -6.577539e-05 -0.00062370586 0.0013295661 0.007820557 -0.0037932883 -0.0042493283 -0.0036645322 0.0012153424 -0.005726167 -0.0029085143 0.0006731283 -0.0021675606 0.0062669683 0.002748567 0.0033406906 0.003672216 0.0013231698 0.0021696175 0.002524942 0.0027575702 -0.001004927 0.004103136 0.0007055074 -0.0026514854 0.007593854 -0.0011048428 0.00088289526 0.0009866833 0.0014020958 -0.00046897994 0.008355598 -4.7041263e-05 0.0014817206 0.0038637794 0.003310037 -0.006647737 0.005170721 0.0032473416 0.0018204344 0.0038235383 0.007454062 -0.007860273 -0.0013908318 -0.0057393014 -0.0013132095 -0.0008675654 0.0064353645 -0.00044106308 -0.0028751695 -0.0030684 -0.0031387962 -0.0013738542 0.00914979 -0.0032597047 -0.0009939944 -0.0040200986 0.001141654 -0.0013973509 0.002801452 0.00015358192 0.0035618863 0.004305548 -0.0028723546 -0.00024860507 0.0021336358 0.0016495661 0.002942406 0.003621183 0.0036482231 0.0055991574 0.0001989707 0.0033579355 0.0034156311 -0.004054307 -0.000976596 0.0033403235 -0.0053732153 0.0016624293 0.002683136 0.0027619598 -0.0019482658 0.003001639 -0.004294612 0.003250221 -0.004608665 0.001454933 -0.0011417734 -0.0022508749 -0.0029967644 0.0026107884 -0.0001343434 0.00070322905 0.002769008 0.005258602 -0.00421561 0.0030429962 0.00081056106 0.0075971135 0.00059649406 0.00676283 -0.000423566 0.0028007682 -0.0038771632 -0.0024632001 0.00155713 0.013292887 -0.006135264 -0.00012562412 -0.005815936 0.005727521 -0.0042584664 -0.0020604767 0.004066925 -0.00021248082 0.0010762406 -0.0037950827 0.0035541109 -0.00033526527 -0.0031514897 0.0026664587 -0.0032612344 0.0037505901 -0.0017529235 -0.009013241 -0.0058364295 -4.9480237e-05 4.0284e-05 0.00010723618 -0.00040909357 -0.009493421 -0.0010726249 0.0017348031 8.879466e-05 0.0042998022 -0.00019433459 -0.0032747188 0.0049630166 0.0016626619 -0.006765902 0.0047197714 -0.004090203 -0.00066535297
uma -0.0003727808 0.0022504393 -0.00085385435 0.0027826775 -0.007828361 0.0019001225 0.0025424617 -0.00071866054 0.0071384762 0.0008114815 0.0004200404 -9.5783646e-05 -0.00042067675 -0.005805177 0.01666758 0.0011420965 0.013453243 0.0032834208 -0.004040524 -0.007032076 0.0030342948 0.00010190331 -0.00018533897 -0.00245333 -0.003225619 0.004994414 -0.0073591103 0.010806119 -0.008434772 -0.0038234326 -0.00054738345 0.00928071 0.0074327597 0.0023217644 0.002044965 0.008397155 -0.0015208337 -0.0007299769 0.007824874 0.001815689 0.009819535 -0.0026796786 -0.0021282143 0.0009333568 -0.0023723627 0.010910419 -0.0006605786 0.006250473 0.0014428248 -0.0012711536 -0.00011409541 0.00065162743 -0.0004630037 0.007134979 0.0015942692 -0.0014051858 -0.0047933003 -0.013662243 -0.0035208361 -0.0017835314 0.0049698455 0.0078864815 -0.0045156437 -0.0034605958 -0.0025555221 0.003303723 -0.0068061254 -0.002107542 3.7574366e-05 -0.0068043796 0.009865916 0.0001100398 0.0050563533 0.0047304733 0.0034973621 0.00026688026 0.0047726207 0.0037071477 -0.003855193 0.0037418841 -0.004729382 -0.0015931346 0.012629238 -0.00025433974 -0.0034686525 0.001567786 -0.00033696718 0.00066479866 0.01097498 0.0036152676 -0.0021252295 0.0033755081 0.002844147 -0.0073497514 0.004546789 0.004739059 -0.0019499774 0.0025497053 0.0066238167 -0.008688744 -0.0047694077 -0.008135343 -0.0024149474 0.0007118002 0.012147171 -0.0026329919 -0.005429359 -0.00492029 -0.004082342 -0.0012935195 0.013069186 -0.0025975977 0.0010702979 -0.0044551115 -0.000671686 -0.00237344 0.0069725313 -0.0026374205 0.004130005 0.0050113 -0.004886628 0.00023229704 0.0024937287 0.0042251297 0.008493576 0.0032286071 0.0043811174 0.008235171 -0.00034415227 0.0039421567 0.004031169 -0.0047860956 0.0032949608 0.0005379613 -0.0054535354 0.0042864955 0.007894099 0.0022551054 -0.0020781555 0.0068803206 -0.006265742 0.0015940868 -0.00440117 0.00072616653 -0.0012353179 -0.004719515 -0.0061823023 0.0046749273 -0.0029547345 -0.0024793306 0.00020425406 0.004090514 -0.005160876 0.005334307 -9.3695526e-05 0.010119109 -0.0018047307 0.0057452805 0.004137401 0.0030346909 -0.00433532 -0.00022566564 -0.00023569677 0.016854972 -0.008902472 0.0030186193 -0.008827943 0.0065298104 -0.0042431834 -0.0016476655 0.0057481807 0.0025147444 0.003517845 -0.009117007 0.004456508 0.0013239142 -0.0010787543 0.0013329269 -0.0031641077 0.0025909895 -0.0055107004 -0.011495175 -0.0110994615 0.0009914687 0.003660503 0.0010282167 0.0028755146 -0.01434425 -0.004029085 0.0024475886 -0.002834572 0.007883563 0.0009058151 -0.0022087586 0.011173421 -0.00034566742 -0.009637433 0.005553484 -0.0063366117 -0.0055467356
agradavel 0.0017504166 0.0014133563 0.0005130267 -0.00029761443 -0.0077286395 0.0041886666 0.000152683 -0.0018292527 0.002920651 -0.0016389213 0.0018507176 -0.0010824642 -0.0015789588 -0.0046783653 0.012393018 0.0017695333 0.006136502 0.0023811508 -0.00052432704 -0.00082966173 0.0034207152 -0.0031820321 -0.0017815041 -0.00075134996 -0.0045581455 0.002311931 -0.0058412277 0.0059242086 -0.0037997828 -0.004727893 0.0014409497 0.0032806743 0.003465701 -0.00094474555 0.00092829147 0.004479324 -0.0012997417 0.00022213414 0.0046904646 0.0048377924 0.0040060137 -0.0042456747 -0.0019865816 -0.0019459606 -0.00087836373 0.005218206 -0.0015805925 0.0044093756 -0.00058269734 -0.002307774 -0.0011654164 0.0003463915 -0.0028598565 0.0044624563 0.0011805116 -0.00034391024 -0.0021663452 -0.006659016 -0.0033114876 -0.00015686492 8.760346e-06 0.0029268241 -0.00086261355 -0.00031416665 0.0006746081 -0.0010633431 -0.004556691 -0.002184202 0.0030134912 -0.005962452 0.004177014 -0.00085106114 0.0030947728 0.004424817 0.002471204 -0.00043588082 0.0026604442 0.0035302562 -0.0010604806 0.004535439 -0.002417261 0.0007172494 0.0055159084 -0.0027020737 -0.004038661 0.0013508482 0.002596159 -0.00051493634 0.0059443354 0.0031558988 -0.0018836157 0.00028239778 -0.0005083186 -0.0057366122 0.0010601671 0.0020758652 -0.0012180307 0.0017703024 0.0062763286 -0.0039693206 0.00031638198 -0.0077597797 -0.00035710074 0.0025085555 0.004596564 -0.004038971 -0.0042836037 -0.003836731 -0.0060201404 -0.0021373546 0.0089168 -0.0020367692 0.003016957 -0.0030138171 -0.000850751 -0.0014408189 0.005307496 -0.0029464122 0.0008833706 0.003143289 -0.0036387234 -0.00072311016 0.00015907761 0.0047934996 0.0022892994 0.0040291846 0.002860545 0.005402105 -0.0012080634 0.00061685644 0.00043581642 -0.004333022 0.0022131416 0.003503189 -0.0030298345 0.0016123032 0.0052610002 0.005082955 -0.0017871989 0.0034378178 -0.003457711 0.0003084299 -0.0013401621 0.00075111224 -0.0017397065 -0.0014516532 -0.0017226002 0.0044248044 -4.7870577e-05 0.0012301318 0.002705455 0.002001322 -0.0011838411 0.0031136924 0.0014747782 0.002491724 0.0009237126 0.005306492 0.0022303585 -0.00070623145 -0.00048127183 0.0009717449 0.0022367642 0.009437869 -0.0069845244 0.00019483041 -0.0048511024 0.0048072115 -0.0022930296 -0.00046954275 0.003538236 0.0001296155 0.0033042151 -0.0074620578 0.0019796132 0.0013254018 -0.0015270241 0.0012162375 -0.0005095314 0.001810262 -0.0025079348 -0.008388752 -0.0042553274 0.0015288399 0.0028920553 0.0010452091 -6.7987035e-05 -0.005506471 0.0002659487 0.0026240093 0.002060459 0.0048944596 -0.0022417873 -0.0004905947 0.0059976648 -0.0014816487 -0.0044038454 0.0018235645 -0.0012552411 -0.00068150903
que -0.001621008 -0.00035285542 -0.0010353858 -0.0004512232 -0.006247806 0.0039994074 0.0026596577 0.002030852 0.0054540634 0.0013375165 -0.00039974475 -0.0034290222 0.00070048426 -0.003028485 0.013767498 0.0029477037 0.011077826 0.0030778516 -0.0018438391 -0.0044677006 0.0037457962 -0.0019458003 5.7617857e-05 0.00051574636 -0.0031756337 0.004568984 -0.0034885244 0.008099029 -0.004949185 -0.002354449 0.0010772368 0.008925175 0.0043650176 -0.0010831712 -0.0009434477 0.0036901655 -0.0048748846 -0.0001583666 0.004996277 0.0024213276 0.0035850331 -0.002662905 -0.0019476522 3.604961e-05 -0.0010161537 0.0064681047 -5.076723e-06 0.00679878 0.0005475323 -0.0014430309 -6.278119e-05 0.00024275205 -0.004045487 0.005141593 -0.00043355985 0.0022722778 0.00044105714 -0.010735841 -0.0037290961 -0.0007039495 0.0031065838 0.008397595 -0.00073607446 -0.00028528742 3.539656e-05 0.000112481146 -0.002831538 -0.0038910804 0.0012683102 -0.006767952 0.0060399827 0.002044145 0.005697708 0.0065829842 0.0029053786 -0.00063186133 0.0021518979 0.0048508355 -0.0047016814 0.0056222016 -0.0014693044 -0.001357527 0.008067883 0.0011761028 -0.003070919 0.0005147523 0.0020818524 -0.0011051651 0.009578314 0.0012506052 0.0006962428 0.0030774022 -5.9623817e-05 -0.002995402 0.0050745485 0.0018785555 0.0003504531 0.00538608 0.0056411866 -0.006160317 -0.0039950446 -0.006195515 -0.0020475355 0.0011050628 0.006090522 -0.00057792943 -0.0018303324 -0.0027408712 -0.0039716703 -0.00077860284 0.011419078 -0.0045555816 -8.915421e-05 -0.0038853744 0.0025420936 -0.00077534927 0.005273096 -0.003410188 -0.00014863675 0.0046835947 -0.00073810003 0.00047580973 -0.0006315381 0.005253123 0.007498098 0.0009455004 0.0040861317 0.006876619 0.00033476955 0.003648965 0.001017944 -0.00087928434 0.0013527483 -0.0011796538 -0.006235014 0.0035139306 0.006306471 0.0014535284 -0.0009221307 0.0033962063 -0.0046252613 0.004243101 -0.0056576757 -0.0012522357 -0.0009218258 -0.0064821336 -0.0019864647 0.0017077317 -0.00018184716 -0.0013932884 -0.00017576638 0.004902804 -0.0041735456 0.0050302106 -0.0006844169 0.007873086 -0.002047635 0.0025956596 0.0037225205 -0.0003396873 -0.0014312987 0.0004501383 0.0012377423 0.010540102 -0.004155818 5.738516e-05 -0.005319938 0.00644717 2.683296e-05 -0.0037488167 0.0061686537 0.0034700981 0.0031915714 -0.006488528 0.0010033342 0.0023982122 0.00073430943 0.0026913057 -0.0042686053 0.0041969516 -0.0043031233 -0.007443756 -0.004953058 0.00014473879 -0.0013109542 -0.00072536984 0.00025372184 -0.009126824 -0.0022327225 0.0040513948 -0.00018495353 0.007035936 -0.00035625676 0.0007396758 0.006906336 0.00014852473 -0.0031555928 0.0015725475 -0.0033759882 -0.00196509
os -0.0014923621 -0.0009479918 -0.0026919574 0.00061582803 -0.006694923 0.0029945406 0.0036634037 0.0011756837 0.0045867357 -6.0219223e-05 0.0016239842 0.00088585983 -0.0029624624 -0.004006285 0.017009914 0.002811466 0.012740085 0.0050573214 -0.0016132302 -0.0062903925 0.0045792554 -0.0012122184 -0.0004582423 -0.0028691457 -0.0027103345 0.006340772 -0.0068870657 0.009185031 -0.006042056 -0.00713676 -0.0025408613 0.009261223 0.0069624707 -0.00071486883 0.0029147048 0.006462284 -0.0054590306 -8.642664e-05 0.008474188 0.0037249906 0.0061544874 -0.004496248 -0.0010038173 0.0018588747 0.00059280737 0.01067101 0.0015931376 0.0051038377 0.0025060552 0.0014715851 -0.0042349147 0.0015115215 -0.00013655667 0.0075372597 -0.0009457812 0.0002855864 -0.0038586964 -0.008921468 -0.0017192652 0.0028525137 0.0024535574 0.008161395 -0.0038620636 -0.0037466146 -0.0011642766 -0.0010478487 -0.0073097204 -0.003766676 0.0026195005 -0.007473635 0.006834271 -0.0002167846 0.003936878 0.0065943813 0.003993818 0.00033175826 0.00032438088 0.0051222597 -0.0024377122 0.0054234834 -0.00061192375 -0.00073711964 0.011609657 -0.0014615164 -0.003419908 0.0018443066 0.0032968752 0.0015100092 0.010575739 0.0020113948 0.0015045895 0.0027143154 0.0018552288 -0.005188722 0.0024560138 0.0025910398 0.0022426946 0.003934235 0.0077377344 -0.006438561 -0.0020599815 -0.006168551 -0.0015472443 0.0031265877 0.008969484 -0.0016182527 -0.004492386 -0.008491239 -0.005141187 -0.0014048881 0.011292879 -0.0033732348 0.0024050202 -0.0041386075 0.00053757546 0.0020219286 0.0066164224 -0.0028853824 0.0017492325 0.0067466022 -0.0030617274 0.0012473429 -0.00016997487 0.005837295 0.006369826 0.001821128 0.0025949974 0.0056426963 0.0013605059 0.0030641716 -0.000120406476 -0.0036833151 0.0018150234 0.0016710121 -0.0037173887 0.0056022373 0.005822847 0.0040551866 -0.002977446 0.008495665 -0.002478316 0.0009189258 -0.0054713716 -0.0012477495 -0.002071523 -0.005736904 -0.004341536 0.005009835 -0.002472018 0.0019021557 0.0021119902 0.003470751 -0.004819388 0.0058764517 0.0013006172 0.005504433 0.00093223574 0.0063907746 0.00055766996 0.00113616 -0.002020101 0.00087111286 -0.0005148221 0.014957185 -0.008141298 0.003825495 -0.010032949 0.0095649185 -0.0010312095 -0.0027316036 0.008320431 0.0038326653 0.004917721 -0.008817312 0.005651329 0.0015999535 -0.0005301309 0.0043294416 -0.0036249592 0.002660047 -0.0045025013 -0.007009193 -0.010908641 -0.00049454096 0.0016096575 -0.0014186489 0.001305542 -0.012115934 -0.001790646 0.0009905874 -0.0018024741 0.0084412 -0.0025945292 -0.002569845 0.005905568 -0.001198676 -0.0076097287 0.0060366997 -0.003940591 -0.002260284
mas -0.0005589985 -0.00053716346 0.0005605196 0.002887639 -0.0050050523 0.0013534566 0.0026850833 1.6073305e-05 0.004718101 0.0017945113 -0.0017964173 -8.781215e-05 -0.00078635296 -0.0014023581 0.00854551 -0.00021766953 0.009202365 0.003428806 -0.003108668 -0.002355887 0.0031275952 -0.0014226834 0.000664125 -0.00068204594 -0.002342158 0.0017828092 -0.0048303977 0.00602874 -0.0015361791 -0.0042888075 -0.0024342663 0.004254065 0.0012906054 0.0009854471 0.0026426082 0.004613056 -0.0016680565 -7.177896e-05 0.0017839693 0.00234677 0.004738374 -5.4245106e-07 -0.0008536819 -0.0007442305 -0.0025807347 0.00427928 -0.0007269325 0.0042793807 0.00035389513 0.0023803632 -0.0031604508 8.4896354e-05 0.00096666045 0.0050981757 -0.0018319192 0.0012941967 -0.002759927 -0.00490928 -0.002944192 0.0015665572 0.0009643173 0.005043132 -0.0031340942 -0.0016597625 -0.0028565745 0.00027560326 -0.0030573027 6.373688e-05 0.00026034054 -0.0013595899 0.0019154734 0.0020075794 0.0006695162 0.0023284007 0.0018352579 0.0012469606 0.0022828425 0.0039623855 -0.0037193645 0.0024694796 -0.0030890591 -0.002888363 0.004280837 -0.0028388572 0.0007422455 0.002543529 -0.0003341354 0.0007039101 0.003826798 0.0032058542 -8.89267e-06 0.0024475288 0.0028965352 -0.0019507053 0.0006925548 0.0025627557 -0.0015251599 0.0025739504 0.004544383 -0.0050622188 -0.0032561 -0.00664717 -0.0028477684 0.0034668057 0.0036615236 1.7968316e-05 -0.00025386005 -0.0036960286 -0.004489517 -0.0027232864 0.0076054074 -0.00027329507 0.0010688889 -0.004252894 -0.001961534 0.00027555987 0.005340887 -0.0014780781 -0.00082666177 0.0022695963 0.0005049886 -0.00088258146 -0.00041858747 0.0024224613 0.005879327 0.0024710658 -0.00044473165 0.00549854 -0.0019794018 0.0035666071 0.0020899174 -0.002246383 0.0030813536 0.0022945206 -0.005937657 0.0038872838 0.0037517853 0.004645646 -0.0037889935 0.00505307 -0.001954428 -0.00051666907 -0.0033104774 0.0003416338 -0.00013450636 -0.004630897 -0.0008418024 0.0014978889 0.0011549074 -0.0008132648 -0.00084452116 0.005415627 -0.0025093534 0.003917354 0.0005268446 0.003957561 -0.0005746595 0.003137003 -0.0003249286 -0.0018647114 -0.00074962113 -0.0012764453 -0.00039676842 0.010968425 -0.0061647054 0.0019944198 -0.004348558 0.0068977526 -0.0038639745 -0.0020398516 0.0065463004 0.000556098 0.0044965763 -0.0070456644 0.00034812593 -0.0009206778 -0.00075991167 0.0019831904 -0.002964781 0.0016708354 -0.0019406398 -0.005419532 -0.004425747 -0.0004945228 -0.0011392082 -0.0028925352 -0.00049849844 -0.005127771 -0.00027810596 -9.537691e-05 -0.0018161711 0.0041396134 0.0017815201 0.0015828772 0.0046331417 -0.0014954065 -0.0033199964 0.0013779316 -0.0013208479 -0.0009903794
em -0.0012222185 0.0030326135 0.0012608682 -0.0007060664 -0.0100003015 1.5972973e-05 0.0017922436 0.0026022734 0.003248355 0.0023307872 0.0017534697 -0.0018210682 0.0011238845 -0.004860924 0.013961867 0.0047753104 0.011798464 0.0041910517 -5.0146282e-05 -0.0033269576 0.00079844566 0.00090188347 -0.002464513 0.00013836834 -0.0059737517 0.0025195305 -0.007407217 0.011167231 -0.0049610115 -0.0026686084 -0.001403594 0.005258854 0.006364675 0.0021410652 -0.0002726278 0.006324499 -0.0010717225 -0.000698254 0.007965232 0.005697745 0.0039146687 -0.0030211287 0.0012800819 0.001490069 0.0004411126 0.010086108 0.0017300816 0.0030341563 0.003805431 -0.00027734635 -0.0017838797 0.002672194 -0.0021768294 0.0061223553 0.0006708737 0.003010861 -0.0021223188 -0.011996864 -0.0043707043 0.00059894874 0.0015742613 0.005820729 -0.0004724095 -0.00030416183 -3.2273547e-05 -0.0010273369 -0.00780476 -0.00483083 -0.00047536084 -0.0038549646 0.005467217 0.0008371418 0.004819319 0.0037395086 0.0039342316 0.0017634607 -0.00018050385 0.004790012 -0.00066308444 0.0044999546 -0.0003390281 -0.002906103 0.0072588995 -0.0024804703 0.00020922195 0.0009513467 0.0005756048 0.0011211577 0.011041754 -0.0004329961 0.0018428244 0.0031244091 0.0022799552 -0.0047975997 0.0061634807 0.0014883486 -0.0021150606 0.0033335465 0.006730749 -0.008001406 -3.1002193e-05 -0.0074753496 -0.0018836431 0.0045645013 0.010400143 -0.00425654 -0.0027209867 -0.004168159 -0.007440554 -0.0026697952 0.012922414 -0.0019144228 -0.0007161005 -0.0017764888 0.0015824551 -0.000689241 0.0077006696 -0.0009072178 0.0022853848 0.00576566 -0.0014275394 -0.0011616565 0.0003349379 0.0022337786 0.00451187 0.002253502 -0.00042038798 0.010049585 0.0017123073 0.0045658723 0.0036073513 -0.0024969075 0.0009304424 0.003830556 -0.0067777555 0.005848608 0.0061198478 0.0029158208 -0.0038462833 0.0047870646 -0.0044953967 0.0040472588 -0.0020882662 -0.00032064156 -0.0007126174 -0.0030005595 -0.0031325126 0.002213597 -0.0029723395 -0.0012125871 0.0024546683 0.0049836216 -0.005978696 0.0040558404 0.0010674018 0.0057770386 -0.0007512747 0.006296412 0.0018759232 0.0017728067 -0.001990599 0.001678018 0.00031539839 0.01585985 -0.0072782882 0.0026544896 -0.00902 0.009160355 -4.5524084e-05 -0.0015907289 0.006844295 0.004348729 0.005078785 -0.008434676 0.0034908575 -0.0010456472 0.00054705545 0.00379407 -0.0045535653 0.0008600514 -0.0052413815 -0.00618539 -0.00718989 0.0010401264 0.0025306055 -0.0018462497 0.0013643941 -0.011393864 -0.00035423032 0.0053190165 -0.0026500707 0.0042691543 0.000102036625 0.0005807064 0.0080105495 0.00048525335 -0.0076650344 0.0056867246 -0.0012306276 -0.0011964424
as 0.0013264071 0.0019810607 9.905378e-05 0.0018513881 -0.009555842 0.0024183858 0.00044601198 -0.0007555853 0.0021321739 -0.0007686546 -0.0011026721 -0.0026748076 -0.00051534653 -0.005793642 0.012953312 0.0037700285 0.009183545 0.0012875602 -0.0009404967 -0.006818652 0.0035863942 -0.0040059597 -0.0013992767 0.00091482536 -0.0062010516 0.00442133 -0.007139146 0.011849005 -0.007932415 -0.0035330856 -0.0022167796 0.009549596 0.004148118 0.0008677214 0.0012292124 0.0066509116 -0.0035312804 -0.004511914 0.0065083914 0.002398579 0.0053828917 -0.0028601445 0.0009618275 0.0031909829 0.00021219233 0.0075718053 0.001458057 0.004418228 0.002231048 0.00021961164 -0.0028022076 0.0033144376 -0.004508894 0.008113308 0.00054265594 0.0031256469 -0.0011372679 -0.010103188 -0.0029106266 -0.0008368893 0.003844958 0.009875798 -0.00191812 -0.0047480767 -0.000532375 0.0009251926 -0.0039754724 -0.0047114813 0.0012936915 -0.005329525 0.007010841 0.00074980635 0.0061162086 0.0041506714 0.0005809188 0.0019271185 0.00086977176 0.003400826 -0.003161003 0.005165683 -0.0027362278 0.0009365174 0.011600781 -0.002669795 -0.0040459195 0.0020632646 0.0021224972 0.00088187045 0.008038333 0.00040453143 0.0021740098 0.003889346 0.0021899154 -0.005967313 0.0031944623 0.0001620376 0.0016158292 0.0031912285 0.0055795303 -0.00889857 -0.004814509 -0.0057384903 -0.001854213 0.0012711388 0.0114501165 -0.0048095775 -0.004222096 -0.0059607252 -0.0049135154 -0.0028450235 0.0108925 -0.004860057 -0.0013223209 -0.003885899 0.0015576492 0.00045412855 0.0040354924 -0.0023641963 -0.00038764635 0.0073113097 -0.0033791456 0.0004321141 0.00060731586 0.0035168158 0.008824647 0.00088917656 0.0024275943 0.0059105293 -0.0013982101 0.0048984555 0.0015407492 -0.005588412 0.0033489421 0.0031897898 -0.006529201 0.006907519 0.0076382724 0.00452811 -0.003119281 0.0077998117 -0.0023935616 0.0037661353 -0.005025889 0.00074704975 -0.0025146315 -0.0058476464 -0.0023049605 0.0017314435 -0.00055832433 0.0019167964 0.0001832754 0.0023120383 -0.004695204 0.005790326 0.0004484199 0.0055605383 -0.00045526898 0.0054243538 0.0012105835 -0.0013279333 -0.0031774568 -0.00061373465 -0.000594637 0.012920408 -0.0051372186 0.0018083634 -0.009456 0.007481719 -0.0027425666 -0.003096994 0.005620553 0.0040741684 0.0056881905 -0.006476796 0.004459009 0.0018942555 0.0013054914 0.0018483867 -0.0023846093 0.0037819054 -0.0029823065 -0.011329641 -0.0088344645 -0.0010591827 -0.00025435552 -0.00028965954 0.00064265344 -0.008964703 -0.0018194474 0.0044112527 -0.0010825539 0.0050111343 -0.0020285163 -0.0010776267 0.0061265435 0.00083480397 -0.0058088754 0.0019908645 -0.0019501761 -0.0025821866
nao -0.00016665563 0.0027927367 -0.0031157902 0.0014438445 -0.012757955 0.0051246113 0.0041211024 0.0018852348 0.007576376 0.0028511973 0.00090291974 -0.0032269799 0.00086718576 -0.0057235872 0.020606255 0.004606806 0.012409697 0.0034305768 -0.00044913197 -0.0031150996 0.0017776561 0.0003706786 0.0006556857 9.831228e-05 -0.007886331 0.006328079 -0.00991422 0.011832792 -0.004840081 -0.008629334 0.00021740339 0.011055108 0.008142621 -0.002045639 -0.0020203604 0.009616047 -0.0022494837 -0.002471195 0.00754905 0.0048051225 0.010229071 -0.00466439 -0.00023044167 5.5123513e-05 -0.00087313424 0.008963132 0.00011516331 0.0074200258 0.0026493955 0.00032764842 -0.003676203 0.003454528 -0.0020166365 0.009621247 -0.0010892579 -0.00019565974 -0.0013939326 -0.014513254 -0.0013242943 -0.00019997887 0.0003477289 0.009917761 -0.0047000386 -0.0035300371 -0.0030070185 0.0014023514 -0.006887294 -0.0019003031 -2.706341e-06 -0.004623623 0.008821815 0.0009325623 0.002841516 0.007939563 0.0032258478 0.0032911724 0.0028190592 0.0040488467 -0.0020330187 0.005180087 -0.0029594766 0.00023299275 0.011555976 -0.00012613664 -0.0025847517 0.0043461346 0.0030930333 0.00036248597 0.012275345 0.0032502587 0.0020536263 0.0053079966 0.00437672 -0.005485848 0.0066902186 0.00234062 0.000948527 0.006404828 0.0060730167 -0.008522378 -0.0041340953 -0.010077153 -0.0068246485 0.003128266 0.011241999 -0.005076445 -0.001637107 -0.0076073697 -0.008643576 -0.006323242 0.014587473 -0.0020912073 -0.00079982064 -0.0034678283 -0.00014002467 -0.0017384802 0.0049850107 -0.0024774282 0.00071389804 0.0055298526 -0.0056395205 0.0003445245 0.0013087385 0.0065893284 0.0075315596 0.0019539315 0.0010874574 0.01132492 -0.00014712001 0.0035789385 0.00068059145 -0.0027305493 0.0022261373 0.0027236692 -0.0045280573 0.007520751 0.0055829994 0.006592908 -0.002405009 0.0077684596 -0.0065449565 0.005714092 -0.0053274767 -0.0003276693 0.0020388926 -0.0078895725 -0.0051749246 0.0035307945 -0.0015268101 -0.0025603962 -6.076734e-05 0.004249611 -0.005269478 0.0068107825 0.00016634657 0.00986088 -0.0022572363 0.009453019 0.0023559474 0.0006852804 -0.0050845128 -0.00010581286 0.0012360729 0.019826453 -0.007128166 0.00226796 -0.009868759 0.009663457 -0.004399839 -0.0016132611 0.010166452 0.0022821024 0.0043779146 -0.00913605 0.0056386744 -0.0010682533 0.00024204486 0.0020944208 -0.0030689614 0.0051146373 -0.0061947796 -0.0102178315 -0.0118474765 0.0011668509 0.002609499 -0.0025769589 -0.0007695921 -0.013018233 -0.003990699 0.0025483922 -0.0022956652 0.0056306804 0.0019272518 -0.0014879965 0.01079954 3.6614332e-05 -0.0060540093 0.005722512 -0.0021604626 -0.0011456313
tem -0.0019589798 0.000613232 -0.0010527357 -9.344155e-05 -0.004398774 -0.00061037415 0.00036288693 0.0007130919 0.0028961457 -0.0010210659 -0.00047109125 -0.0020485146 0.0015592804 -0.0025989602 0.012697618 8.0271784e-05 0.0081909085 0.0034213744 -0.0020849057 -0.0039246227 -8.475664e-06 -0.0011555112 0.0008820216 0.0015865354 -0.0048841643 0.0055163205 -0.007802418 0.0065688216 -0.0040469863 -0.0058287843 -0.0020689897 0.008321081 0.0021843568 4.7523274e-05 -0.001237889 0.007441991 -0.0043875235 -0.0030168425 0.0065396647 0.0013049808 0.0029799072 -0.00403928 2.9567804e-05 -0.0012509051 0.00071462686 0.009075858 -0.0005208762 0.004184553 0.001284385 -0.00096016476 -0.0037084604 -1.512042e-05 -0.003157537 0.00566289 0.0020606876 -0.00049708446 -0.002665401 -0.00870645 -0.003772711 -0.0007828656 -0.00018171016 0.0061608437 -0.00017442984 -0.0031782887 0.00026003527 -4.7841677e-05 -0.0028144144 -0.004327704 -0.00032868335 -0.0018939925 0.003098218 -0.0008182207 0.0039640893 0.0041114045 0.0021329145 0.0020174258 0.0032414815 0.0039252294 -0.0018978954 0.0030420858 -0.0041152844 0.0014063288 0.009677274 0.0009429361 -0.002530046 1.3847285e-05 0.0015754986 -0.0025323157 0.00944551 -0.0008984069 -0.00086447276 0.0025146648 0.0020096235 -0.0066188723 0.0015359541 0.0021319427 -0.001935061 0.0044884863 0.004072761 -0.0046319137 0.00019994643 -0.007631486 -0.0031118335 0.002769398 0.008968357 -0.0047751935 -0.002432759 -0.0054421443 -0.002005151 -0.0014805439 0.010124008 -0.004027759 0.002452371 -0.0014583884 0.0022646894 -0.0017805968 0.0026588384 -0.00059397327 0.002622777 0.00498105 -0.0013797077 0.001573736 0.0013182064 0.004489828 0.0054161767 0.00028610128 -0.0004202904 0.00603114 -0.0029697581 0.0035293812 0.0037524323 -0.0013845558 0.0016887661 0.00095801486 -0.0048946603 0.0030463126 0.00525537 0.002942292 -0.003999578 0.0053675794 -0.0032806739 0.003849425 -0.0018895689 -0.0018996334 0.0019605502 -0.002327404 -0.002529 0.0011979043 -0.0011276251 -0.0025899992 -0.00046612523 0.005857205 -0.0046448223 0.0013358799 0.0013920175 0.004284878 0.0017357069 0.004972612 0.00010876468 0.0020271142 -0.0024700286 -0.0023640792 -0.0016125996 0.013523145 -0.0061170133 0.0030384203 -0.0049517034 0.005187848 -0.0043380405 -0.0027929817 0.004863597 0.0007790619 0.004544767 -0.006066198 0.005111288 0.0027644907 -0.0005722211 0.0012615888 -0.00090867566 0.0038916855 -0.0012220289 -0.0070290207 -0.008827203 -0.00011357314 0.003216011 -0.0010558558 -0.0012671457 -0.008454829 -0.0037606002 0.0040623043 -0.0004378306 0.004130359 -0.0016376877 0.0015299112 0.0065505896 -0.0026637597 -0.007569817 0.0035114058 -0.004443763 -0.004473766
pratos -4.9789913e-05 0.0021179407 0.0021542448 0.00039025163 -0.0065021133 0.0022512877 0.00031144463 0.002318873 0.004675808 0.0001259711 -0.0017103557 -0.001981728 -0.00040517567 -0.001853456 0.009240847 0.0003217441 0.006097873 -0.0007745435 -0.003147131 -0.00021785012 -0.00089567516 -3.436877e-05 -0.001139982 -0.0018393416 -0.0028384663 0.0032284574 -0.0025402314 0.0038769997 -0.0039675827 -0.0033467833 -0.002560305 0.0024381098 0.001743935 0.00091155403 -0.0019929518 0.0028322265 -0.0024275573 0.00016790112 0.0031608508 0.0031202962 0.0009829754 -0.0010307456 -0.0020283463 0.0020301768 -0.0006403188 0.004100409 -0.0012507213 0.00080809987 0.0016571219 4.240133e-05 -0.0028088002 -0.00015329858 0.001140014 0.002216624 -8.026629e-05 -0.00026189422 0.000916379 -0.007846063 -0.0010732409 0.00028368377 0.002464275 0.0062503587 -0.0030592517 -0.002789676 0.00018345479 0.00031086899 -0.0043497905 -0.00011676908 0.0020803784 -0.0036619564 0.0036060365 0.0028023724 0.0006724116 0.00048324777 -0.00081923907 0.001285661 -0.0004934442 0.0025151172 -0.0037188607 0.001013914 -0.0007843353 -0.0024868576 0.0038575255 -0.0012244197 -0.00091326603 0.0013062309 0.0011649637 -0.0010270972 0.0039187516 0.00057721476 -0.00018069588 0.0017612943 0.002915045 -0.0017615398 0.0011028439 0.0010072782 -0.00035741567 0.004347848 0.004616441 -0.005113349 -0.0003758189 -0.0060596783 -0.004391092 0.0023960767 0.006361962 -0.0025061918 -0.0007171982 -0.0052166884 -0.0032662796 0.0002477512 0.0075477897 -0.00368121 0.002422859 -0.0030018035 -0.0018876487 0.002265429 0.0020747192 -0.002467771 0.0015888257 0.0018496718 -0.0015023497 0.00127993 0.00033511955 0.0013900672 0.0053424854 0.002416441 0.00043430875 0.0049296063 -0.00064416585 0.0021906206 0.001817403 -0.0009727381 0.0009053425 0.0026987644 -0.005153551 0.005003051 0.0022924696 -0.0004446548 -0.001993802 0.0040194592 0.00044527446 0.0010390175 -0.00023923695 -0.0011181782 -0.0010191632 -0.0034275225 0.000293993 0.00059665134 -0.00044459372 -0.0012990423 0.002965889 0.0033355877 -0.0021062104 -0.00047279467 -0.002391209 0.0038267137 -0.0024748824 0.000941229 0.0017028261 -0.0016493205 -0.00026976765 -0.0016831317 0.0008395149 0.00859141 -0.0016891643 0.001957188 -0.004398458 0.005562621 0.0005364458 -0.0015938609 0.0044561746 0.0003021058 -0.00025343976 -0.00599153 -0.00037360538 0.0019242481 -0.0024178308 0.0005565244 0.00018508702 0.0010210797 -0.0034168526 -0.0070777955 -0.0045064366 0.00011222793 0.0022325725 -0.002493046 0.0012916378 -0.006874221 -0.00040509176 -0.0005914891 -0.000279664 0.0030749696 -0.00015226116 0.0015024377 0.0058515295 -0.0013352653 -0.0023156356 0.002811753 -0.0036028014 0.00067516137
restaurante 0.0020268096 -0.0014899668 -0.002506421 0.002177452 -0.006123341 0.001307248 0.0027199131 -0.001260194 0.002539013 -0.00080174167 -0.0024720966 -0.0017204022 -0.0024890017 -0.0040809587 0.00847519 0.002298442 0.004440855 0.0035325394 0.0007842481 -0.0037427037 0.0034930587 0.00061473757 -0.0016726153 -0.0017541804 -0.0025565496 0.0007619119 -0.0057806 0.005502931 -0.0046322765 -0.0024778459 -0.00059392536 0.005975934 0.0015563641 -0.0011361057 0.00087194773 0.0045346413 -0.003827312 0.0010828231 0.005411775 0.0005709464 0.0018063815 -0.00062094297 -0.0021719707 -9.559344e-05 0.0016594391 0.005799841 0.0010038425 0.004840317 0.0011200785 -0.0023892142 -0.00060658343 0.0016200038 -0.0013861657 0.0027818757 0.002051484 0.0010041331 -0.00309829 -0.006362863 -0.0018690334 0.0015462073 0.0027232536 0.0059012603 0.0007662924 -0.0021347697 -0.0005657033 0.0017862187 -0.0014149526 -0.0015163829 0.0016259486 -0.0036098908 0.0045284634 -0.0016464103 0.0039735767 0.0040091113 -0.0007175383 -7.201589e-05 3.7052694e-05 0.0036271976 -0.002048746 0.0034570454 -0.0018878194 -0.0007921063 0.0043199575 -0.0016550334 -0.0023429561 0.003386394 7.040167e-05 -0.0013158338 0.004852859 0.001960698 -0.0014075836 0.00045709772 -0.00066887203 -0.003537948 0.0034231595 -0.0006602442 -0.0016813389 -2.3389042e-05 0.004878988 -0.0020789593 -0.00081517536 -0.0048499187 -0.0010114332 0.0012299018 0.0038900005 0.0002631025 0.0009557899 -0.0019312169 -0.00028465886 -0.004016702 0.004870897 0.00024424357 -0.0012483279 -0.00047311388 -0.0004931128 -0.00049179763 0.004613999 -0.0021469842 0.0025397956 0.0039839195 -0.0009386465 0.0016947738 0.0021485586 0.0030953202 0.00437185 0.0017069619 -0.000798658 0.0049127145 0.0019325626 0.002732586 0.0032233126 -0.00018132392 0.00033198184 0.0014961616 -0.0037528602 0.0037585595 0.0043007014 -0.00020029164 -0.001582638 0.0011818742 -0.0036034456 0.0006572735 -0.00231385 -0.0010325324 0.0021000034 -0.0014369568 -0.0012315558 0.0027113596 -0.0005268506 -0.00087444927 0.0020014392 0.00068765646 -0.0026831378 0.004271194 -0.0011813606 0.0025007478 0.0015652025 0.002802601 0.0029503696 0.0016932823 -0.0035971417 0.0016224046 -0.0017523704 0.009496505 -0.0019211096 0.00092645787 -0.0048772115 0.0027551323 -0.00046159167 -0.0023766984 0.0054145157 0.0018550048 -0.0006392209 -0.0027781427 0.0025275762 0.0015142296 -0.0015472533 -0.0004734604 -0.0031904406 -7.285689e-05 -0.004035685 -0.005198564 -0.004841875 -0.0026390473 -0.0013325256 -0.0010554745 0.0008919319 -0.0062645148 0.000585802 0.0038258196 -0.0023699906 0.0038707291 0.0015679833 0.0008278047 0.0063205576 -0.00045600673 -0.0029867247 0.004022033 -0.0029645027 0.00030654515
da -0.0012173142 0.0028525377 -0.0002974024 0.0003217769 -0.006820751 0.0015292986 0.003192353 -0.0011336771 0.0023230992 -0.00013418912 -0.0005910552 0.00081922195 0.00026857897 -0.0027771557 0.013204984 0.0032780315 0.009125751 0.0034095251 -0.0032111171 -0.002621909 0.0036579906 -0.00095345435 -0.0026826684 -0.001157535 -0.0043628807 0.005165492 -0.006913166 0.008151976 -0.0045591574 -0.005938632 -0.00016902435 0.0075707003 0.0019551702 0.0018337533 -0.0007591 0.004714502 -0.00060774595 -0.00058380736 0.006586947 0.00060676626 0.0045290245 -0.0018776469 -0.0031203334 -0.0004851329 -0.0013513931 0.004664608 -0.0015173067 0.0027576901 -0.00023466721 0.0013662745 0.000461149 0.0011836141 -0.002138569 0.0035206415 -0.0024028274 0.0032481912 -0.0016142699 -0.008763371 0.00018069084 0.0020531442 0.0042057317 0.0050690207 -0.001422135 -0.0029917357 -0.0040921844 -0.00045215376 -0.0056813112 -0.0017009146 0.0021237805 -0.0058700684 0.003050459 0.0024673354 0.0028879656 0.003061872 0.0035928115 0.003420408 0.0035227078 0.001947895 -0.00427688 0.0029382065 -0.00312762 -0.00032981086 0.009672274 0.0008686029 -0.0015002688 -0.000112550464 0.0010697553 -0.002422918 0.008964214 0.002870237 -0.0022703924 0.0017885965 0.0014001464 -0.0041087205 0.0009914937 -0.0006984289 -4.3929198e-05 0.0051796352 0.004732549 -0.0047252965 0.00075654476 -0.004535281 -0.0021801372 -0.00024155577 0.00566224 -0.00524379 -0.0024605528 -0.0044738846 -0.002535564 -0.0027176386 0.0082085 -0.0036209573 -0.0018741939 -0.0027578077 -4.043011e-05 0.0013968766 0.0068826596 -0.0019447209 -0.001251775 0.005040602 -0.003212926 0.0025564462 -2.2555143e-05 0.0029788567 0.0049375785 0.0038328348 0.002629228 0.0046110665 -0.0016963405 0.004836182 0.0028134591 -0.0015139966 0.00233185 -0.0010077126 -0.0062499396 0.0020562606 0.00453971 0.003558052 -0.00227384 0.006603121 -0.00476121 0.0007084248 -0.0046840454 0.002717402 0.00031847012 -0.0025026458 -0.0027139785 0.0033119824 -7.587421e-05 -0.0016913285 0.00067583524 0.0034376665 -0.004242851 0.0036091532 -0.0007614666 0.0055671893 -0.0004034367 0.0039641624 0.004556422 0.0018706068 -0.0002923219 0.001867493 0.00105465 0.010940272 -0.0030315397 0.0026732595 -0.007402996 0.0050949277 -0.0034247348 -0.0029527112 0.0032827011 0.0007272015 0.0022083549 -0.0037601988 0.0010951834 -0.0018476251 0.00031936675 0.0010492941 -0.0045689386 0.00042310383 -0.0054895002 -0.0052132825 -0.006840998 -0.0020102642 -2.9162438e-06 3.00522e-05 0.002720122 -0.007674127 -0.0022167563 0.004294216 -0.002399772 0.002748216 0.00012570713 0.0004169848 0.0077507356 0.0016445444 -0.003493465 0.0038424989 -0.00440632 -2.7860342e-05
amplo 0.0019099561 0.0009426321 0.00040323893 0.00047930467 -0.009051109 0.0028967094 0.0022849021 0.0011529875 0.0055001383 0.0028227833 0.000920169 0.00080083334 0.0010606991 -0.0011879654 0.0111527145 0.0023039384 0.0071610804 0.00048278534 0.00032239233 -0.0020656334 0.0048189485 0.0009738184 -0.0022324785 -0.0002492188 -0.0032824015 0.0026674727 -0.0076135187 0.008433987 -0.003402494 -0.0046401136 -0.0018200198 0.0063847853 0.005284219 -0.002169352 0.0027229849 0.008275227 -0.0038385983 -0.0017732957 0.0033864893 0.0027587202 0.0046284315 -0.0030405165 -0.0029808492 3.7053e-05 4.7005065e-05 0.0076880595 0.001867245 0.00456099 0.0034443696 -0.0019873937 -0.0029306505 0.0015296987 -0.0016623186 0.0077302186 0.00071348035 0.0025172178 -0.002717136 -0.009288049 -0.0008830228 -0.0015771502 0.0021494022 0.005596175 -0.0025866234 -0.0027700025 -0.0018235061 -0.00012358061 -0.0023368448 -0.0047123083 0.0019232968 -0.0054467027 0.0076799146 0.001380743 0.0059605394 0.0065898914 0.002255732 0.0008911878 0.0025305373 0.0011097236 -0.0026913828 0.003337631 0.00033006247 -0.0009415935 0.0097542545 0.0011384569 -0.0041002664 0.0004499117 0.0024063552 -0.0016752157 0.008692739 0.0018585225 0.00021802317 0.004927787 0.0017407646 -0.0034721196 0.004470244 -0.00012070754 0.00014196464 0.001984814 0.0073337005 -0.00421502 -0.00049137423 -0.007919037 -0.0018620024 0.00014331102 0.0088517675 -0.00493736 -0.0015467661 -0.0077214744 -0.0055738958 -0.0013092655 0.007988124 -0.0026129978 0.002865769 -0.0059471624 0.0024587403 -0.0007391445 0.0030795322 -0.0026817569 0.002870475 0.0041542132 -0.0015336439 0.00096203294 0.0029114087 0.0040411945 0.0058544464 0.0011925991 0.0007693557 0.0065007657 -0.0022629844 0.004931279 0.002633182 -0.0025318854 0.0019372038 0.0033797524 -0.0023364958 0.0038968453 0.0067036883 0.0017066267 -0.004498255 0.0065778703 -0.0035592807 0.0011678404 -0.0022504504 0.0017103736 -0.0003658631 -0.004785281 -0.00301651 0.0010145523 -0.0015648686 -0.0019036545 -0.0013421703 0.0062545952 -0.0029187026 0.0011012609 -0.0010865618 0.0074352305 -0.0026086175 0.0074685905 0.0021146194 0.0023276422 -0.0027923794 -3.2882497e-05 -0.00036231734 0.013630434 -0.0042460416 0.00045899305 -0.0065761195 0.008420611 -0.0009384827 0.00016951706 0.0036788536 0.0037448856 0.002129348 -0.007144225 0.0025970456 -0.0001551609 0.0010195862 0.0030003781 -0.004466788 0.0018492906 -0.0036440124 -0.0077261897 -0.008552575 -0.0017598438 -0.0009169709 -4.0165276e-05 0.0023083063 -0.008423123 -0.002151376 0.0053067347 -0.0021497472 0.0066674114 -0.0021455688 -0.0008523482 0.007183044 -0.003002178 -0.006471977 0.0022582028 -0.003886129 -0.0046526035
local 0.0019047275 -0.0007805852 0.00032229428 0.0031660376 -0.0068431017 0.00095461047 -3.627471e-05 4.4423665e-05 0.0019389736 0.0028101183 -0.00078370125 0.0006713377 -0.0006334827 -0.0038896499 0.008708782 0.0033118592 0.008356751 0.0026245737 -0.0020291617 -0.0004945964 0.00032577896 0.0010701506 0.0020231395 -0.0008621578 -0.0013305233 0.0025605892 -0.0069639273 0.007819964 -0.003178469 -0.0034130628 1.2108163e-05 0.006684108 0.004935177 -0.0018196666 1.3496688e-05 0.004142647 -0.002959752 -0.003105543 0.0015934106 0.004975919 0.0064471955 -0.0006884098 -0.0003124898 -0.0014422904 -0.0034782316 0.006097056 -0.0002706051 0.0045522805 0.0005575707 -0.0015038591 0.00064310664 -0.0006472627 -0.00036038813 0.0056687263 -0.0019396516 0.0027302671 0.00017856853 -0.008418429 -0.002589007 -0.0020539754 0.0033300526 0.004966595 -0.0015109289 -0.001082969 -0.0025926293 0.0026879052 -0.0061178845 -8.1876264e-05 0.0011867821 -0.0052534156 0.0033235445 0.002142781 0.0035598816 0.004444148 0.00012822948 -3.1417258e-05 0.00012283494 0.0012766024 -0.00013662536 0.0030332513 -0.002029594 0.0005904953 0.0054993355 -0.0019008479 -0.0025126261 0.0019228434 0.0015486486 0.00038121192 0.005628347 0.00063731894 0.00073551317 0.0024957762 -0.00040839307 -0.0022237878 0.00238331 0.002499513 -0.0015577308 0.002717217 0.0061359294 -0.006282147 -0.0025630912 -0.0052682795 -0.004872852 0.0037231413 0.004541212 -0.004060559 -0.004123149 -0.0027639691 -0.0029283531 -0.004576133 0.009049074 0.00086100947 0.0020920238 -0.0036166545 -0.00042039706 0.00086278387 0.006009476 -0.00094824977 -0.0011792183 0.0047823554 -0.0038211495 0.0015282435 0.0006748137 0.0031518089 0.0055555054 0.00051083707 0.00021664548 0.0058473307 0.00019372963 0.00083202583 0.00044639924 -0.0011375285 0.0014459116 0.0016445369 -0.005439954 0.0020204023 0.0028137509 0.0044723465 -0.0036726403 0.004081265 5.7249083e-05 -0.00047348154 -0.0018308484 0.0001522808 0.00015349098 -0.0039248676 -0.004651597 0.0011484228 0.0011885444 -0.0021716412 0.0002609848 0.005036705 -0.003857618 0.0031627915 -0.0012938096 0.0034273553 -0.0020507525 0.006081038 0.0007821744 -0.00082463626 -0.0039950525 -0.0012920937 0.0030793748 0.008408755 -0.003402169 0.00061855285 -0.0025195866 0.005906363 -0.0038311358 -0.002003572 0.0028436745 -0.0007532444 0.003812843 -0.0056319125 0.0014248363 0.0027560466 -0.000216169 0.001797019 -0.0012675204 0.0025277953 -0.003632101 -0.004366794 -0.007834025 -0.0011006246 -0.0011682553 -0.0020910124 -0.00014047664 -0.008578963 -0.0030865602 -0.00016098774 -0.002770778 0.0029122783 0.0014777398 -0.0008113804 0.0068309074 0.0018137164 -0.006492106 0.003389861 -0.003649987 0.0004070986
no 0.00033191708 0.0032762156 0.00045665755 0.0021771654 -0.0057929074 0.0005075837 0.0020377687 0.0022922466 0.0058230953 0.0013900605 0.00041410953 -0.0018161674 0.00019383524 -0.0044635395 0.014487072 0.0040225643 0.010627546 0.0046353997 -0.0007438889 -0.0050554853 0.0021568583 -0.001195284 0.00077682984 0.00019803457 -0.0050615263 0.0016212626 -0.005935535 0.0074487473 -0.0050621172 -0.0045755203 0.00067927956 0.004154718 0.0067882137 0.002106172 0.002099928 0.006680579 -0.0024864157 -0.0015937897 0.006807636 0.0042072576 0.007794574 -0.0008061037 -0.0008388488 0.0031951834 -0.0036735144 0.0095075285 -0.00012796091 0.0067320536 0.00012432298 -0.00032527914 -0.00060574355 0.004689453 -0.0014483336 0.0060060085 -0.0011366046 -0.0017109164 -0.0009917762 -0.009528958 -0.00023340217 0.0023600229 0.00071891147 0.006792337 -0.00091930176 -0.003316689 -0.0041111005 0.0033555515 -0.006906143 -0.0035917815 0.0022604843 -0.005664493 0.0051449304 -0.0012359628 0.005169095 0.00365587 -0.0005858364 0.0019047512 0.0036337818 0.004638963 -0.0047222595 0.0044865473 -0.0007627362 0.00030710018 0.010202369 -0.002547297 -0.0020036746 0.00027208938 0.001416407 0.0014338885 0.009671292 0.0019912207 -0.0009925803 0.0025581145 0.0032364249 -0.00293481 0.00494598 0.0014129191 0.0006681506 0.0012775337 0.0057570906 -0.005384298 0.0001398006 -0.0054042605 -0.0050740293 0.002421251 0.0061034327 -0.0019775215 -0.0018633282 -0.0052968394 -0.004161933 -0.00056308135 0.00821312 -0.0028043415 0.0025440077 -0.0038821811 0.0005577683 -0.000141712 0.0052593146 -0.0035630406 0.0031258613 0.004469815 -0.0016606675 0.0020305822 0.0016336715 0.0036194653 0.0037420413 0.0015561867 0.004070412 0.0054093087 0.00044529856 0.0020728754 -0.00021039881 -0.0027299027 9.4230934e-05 0.0024709934 -0.0068967743 0.0065037883 0.005612483 0.0040431796 -0.0049272785 0.002456321 -0.0043638786 0.004074027 -0.0041474137 -0.0017272455 -0.0018855778 -0.0047139414 -0.0023897935 0.0015310604 -0.00061678665 0.0018544511 0.0031143334 0.0037094343 -0.0026493545 0.0021342612 -0.00077593664 0.0061435164 0.0009952486 0.0068250224 0.0003736926 0.0031223204 -0.0043674614 -0.001177508 0.00062496867 0.013983673 -0.007419553 0.0006343607 -0.0074449796 0.006641721 -0.0045138905 -0.00053441816 0.0073599406 0.004119693 0.0050368803 -0.007432138 0.0028426552 0.00027119395 -0.0012922105 0.003989376 -0.0010680964 0.004634295 -0.003229627 -0.008717695 -0.006917822 0.0013307052 0.0011490022 -0.0028665462 0.0021239205 -0.0115208505 1.2477005e-05 0.0041616033 -0.0014873841 0.0052741254 -0.00030474932 0.0007882075 0.00840137 -0.003199594 -0.008241021 0.004125942 -0.0048524262 -0.0002795001
tambem -0.00047527457 -0.0017573549 -0.0028539586 -0.0013315917 -0.0076375995 0.0020887475 0.0011707692 0.0009377633 0.0029499216 -0.00037947547 -0.00026705666 -0.00015740871 0.00080462924 -0.0006595789 0.010986001 0.0039566522 0.00918095 -0.00031586553 -0.0031325615 -0.003987041 0.00032761274 -0.002934658 -0.0008597633 -0.00095280603 -0.0016436267 0.0034754225 -0.0030831532 0.003734909 -0.0049326452 -0.001330318 -0.0009920163 0.0062942244 0.0037333707 0.0020078376 -0.0005189084 0.0053123147 -0.0006337345 -0.0019769012 0.0055920333 0.0027283642 0.0057290453 -0.004045761 0.0017751968 -0.0008888596 -0.0029178972 0.007284046 -0.0014235262 0.0052702525 0.002031549 0.0016741247 -0.0012827613 0.004033161 -0.0004633707 0.0032071804 -0.0021094999 0.00011611507 -0.0016007697 -0.0062803905 -0.0031656178 7.9181125e-05 0.002975708 0.006094056 0.00024153665 -0.0034813157 -0.0033675316 -0.00023247991 -0.0027104428 0.00033487685 0.0015904446 -0.002943007 0.0036949676 0.0010253874 0.0041704583 0.0024338914 0.003495124 0.0027137995 -0.00021803868 0.0044976636 -0.0036186806 0.0006280839 -0.00055114174 -0.0030562317 0.003647309 0.0017503874 -0.00021992973 0.002831013 0.0014085198 0.00073572836 0.0052869353 0.0018185466 -0.0013746518 0.0007333109 -0.0006089451 -0.0029107577 0.0045387754 0.00020173418 0.0001888244 0.0048489333 0.0057779243 -0.006194867 -0.0022240703 -0.002753816 -0.000453396 0.0023690718 0.0069349157 -0.0036752766 -0.0022544404 -0.0052366625 -0.0012249284 -0.00067928445 0.008638669 -0.0006966095 0.002798917 -0.0023815236 0.0023464363 -0.0007268244 0.0019259108 0.00018841794 -0.0006449896 0.0020408304 -0.0029711751 0.0016717624 0.00079274207 0.0032642314 0.0027815008 0.001412151 0.001332274 0.0042474894 0.00056431507 0.003411871 0.0020924904 -0.00032741542 -0.00019706515 0.0022835801 -0.0016394092 0.0016747828 0.0026965172 0.002380722 -0.004043752 0.003437464 0.0002118639 0.0039147753 -2.1234893e-05 0.0017916237 -0.0010648284 -0.004650463 -0.0011998931 0.00027594453 0.0005700334 0.0009206012 -0.00078596134 0.0024602178 -0.0021254255 0.00425457 -0.0018804468 0.0035212704 0.0012581792 0.0032779134 0.0018878867 0.0018220001 -0.00011787089 0.0019312929 8.2791776e-05 0.0108457245 -0.0058427076 0.0038404083 -0.0021952211 0.0030112874 -0.0032828427 -0.0016609686 0.0025014684 -0.00023190535 -0.0001781634 -0.0053423163 0.0034990557 0.00034386633 -0.0019292342 0.00038629363 -0.0042640087 0.00015494243 -0.0020593603 -0.004214583 -0.0043738773 -0.00053549634 0.0015114034 -0.00044875062 -8.27572e-05 -0.008154513 0.0010149942 0.0030959523 0.00042388416 0.006082161 0.00015187143 -0.0018083312 0.006378172 0.0004077738 -0.0027335018 0.0039406964 -0.0040598703 -0.00089378003
pena 0.0016487297 0.000105068306 -0.0015528139 0.003120255 -0.0040271278 0.0010613177 0.00017471412 0.002392648 0.004948239 -3.4344437e-05 -0.0027908052 -0.0034141315 0.0017657463 -0.00048566528 0.009440384 0.0010016281 0.0048090843 0.0022284857 -0.00025581766 -0.0023060667 0.0032251587 -0.0031980523 0.0013515146 -0.0015893624 -0.0032409886 0.004032567 -0.002731675 0.0059000063 -0.004672647 -0.0011905463 -3.891274e-05 0.005652569 0.0045405356 -0.0021217694 -0.0010027748 0.0039834366 -0.00088334817 0.0008973163 0.0036956987 0.004387383 0.004911272 -0.0014940228 -0.0019374354 -0.001295209 -7.0791524e-05 0.005628286 0.0018731955 0.004021307 -0.00015468865 -0.0016450663 -0.0020420274 0.000893027 -0.0027960788 0.0015287653 0.0004214243 -0.0016614841 -4.305337e-05 -0.007524892 0.0008715502 0.0024279996 0.002368116 0.005836888 -0.00034282505 -0.0010505898 -0.0023851984 0.0017072451 -0.00083810906 -0.003325341 -0.000108952154 -0.0023071226 0.0015375888 0.0011079627 0.0017855451 0.0010849142 0.0030075936 0.0022193163 0.0027872242 0.000181977 0.00085522817 0.005226567 -0.0019732208 -0.0013081183 0.0032371245 -0.001986154 -0.0015489404 0.0035623105 0.0029463812 0.00012556813 0.0060955845 0.00022876801 0.0019420118 0.0037916768 0.00044905583 -0.0053610066 0.0031172952 0.0023100253 -0.00043616872 0.00029167562 0.0050025396 -0.0017521788 -0.0007613401 -0.0023385584 -0.003980151 0.0011329886 0.0071053444 -0.003462021 -0.0023943183 -0.004375774 -0.004673794 0.0004334116 0.0053193206 -0.0016977413 0.002341765 -0.0033441524 -0.0016891309 0.0019386971 0.0021606 -0.0021720163 -0.00045274195 0.0023642594 -0.0022957565 0.00041077452 -0.00063248654 -0.00030961866 0.004651719 -0.00065607374 -0.00128722 0.0063783783 -0.0021041322 0.0026950527 0.0030229683 -0.0016533543 0.0011674855 0.0015157191 -0.0025088177 0.0027150735 0.004215996 0.001722141 -0.0033138238 0.003013908 -7.2316994e-05 0.0034986837 -0.004475662 0.0021589182 0.00076854485 -0.0036047616 -0.0037258095 -0.0005266966 -0.0002897536 0.00071301206 0.00030101446 0.0026375006 -0.0021779435 0.0015419138 0.0021405402 0.0038638175 -0.00063109846 0.0049200305 7.1290124e-05 -0.0006577804 0.00040128038 0.0014240633 0.0015973764 0.0075562573 -0.0058030644 0.00021156686 -0.0042058895 0.002028925 0.00083156774 0.00018077697 0.0061200256 -0.00074994616 0.0019460903 -0.004278166 0.0016819403 -0.0006874879 0.0017064688 0.0025030712 -0.00097124174 9.4708725e-05 -0.000775261 -0.005143911 -0.0039976398 0.0015312206 -0.0017413645 -0.0018652054 0.000408869 -0.0059387255 -0.00217477 0.0028151292 -0.0007193723 0.003421812 -3.0718194e-05 -0.002789322 0.0025261152 0.0010718547 -0.0048607066 0.000112875634 -0.0014926634 -0.00077508745
