882 200
e -0.6402753 -0.046304528 -0.7166916 0.13821128 0.39130703 0.20904823 -0.10916707 -0.48470888 0.22439742 0.12531902 0.044644363 0.3709408 -0.13023219 -0.2101437 0.02935719 -0.14866325 0.23854578 -0.23308244 -0.92109424 0.488078 -0.3676433 -0.68633634 0.38235545 0.62418795 -0.13954881 0.97257507 0.8358784 -0.06557689 -0.41766623 -0.09280498 -0.641295 -0.18087406 -0.81045085 0.16776145 0.2898205 -0.31458837 -0.35970458 -0.07799405 0.086070314 0.18053761 0.36991298 0.25823885 0.53923744 0.20211539 0.30380544 0.011964155 0.19184561 0.25957164 0.8480674 -0.40176702 0.48233947 -0.83186054 0.15528 -0.29802513 0.4470864 -0.009713679 0.43002304 -0.13689029 -0.3162118 0.3039947 0.09598414 -0.26373777 -0.36492252 -0.23737407 -0.0029846537 -0.28407004 0.013598658 0.3081976 0.021212248 0.20190285 -0.029483471 -0.4251438 -0.30630016 -0.57878053 -1.2088104 0.27105075 -0.050959192 0.19648571 -0.57742083 -0.46825698 -0.27013546 0.35370317 0.34898552 -0.2134293 -0.6302931 -0.22057106 -0.4324916 -0.34931543 0.5370431 0.055991482 -0.014685342 -0.906342 -0.3306706 -0.44495368 -0.55570734 0.43338948 -0.586327 -0.12439585 0.655608 0.29768166 0.20200887 0.30051744 -0.16098325 0.051714208 -0.6289256 0.063413106 -0.3230246 0.10613577 0.062258147 -0.042571567 -0.2743596 -0.08150024 -0.250536 0.09630245 0.29984552 0.06739789 -0.093525924 -0.25455797 0.01757909 -0.74723953 -0.37470573 -0.26974693 -0.07549959 -0.10218886 -0.044712946 0.76258403 -0.35037282 0.027682977 0.20017491 0.04696362 -0.09469875 0.20898403 0.2695262 0.88402474 -0.37526563 0.11377577 0.5365963 -0.55388933 -0.2583785 0.5475584 0.21360701 -0.45649832 -0.03029449 -0.27779916 -0.6427557 -0.36681652 0.30595857 -0.55646026 -0.5372652 0.26643202 -0.726566 -0.09250916 0.7500774 -0.16292655 0.0029232414 -0.28753173 0.06426577 -0.83733886 0.27283746 0.5801698 -0.36641487 0.09101477 0.44242597 0.9364279 0.13675821 -0.2961301 0.36461958 0.3107962 -0.049954463 -0.043624155 0.46379158 0.29327342 0.18343014 0.40253362 -0.9870508 0.097665414 0.0924692 -0.23605391 0.032755256 0.42871353 -0.18507175 -0.4126244 0.03897205 0.10753672 -0.2942057 -0.49857897 -0.8280343 -0.23614311 0.5220655 0.29922828 -0.55725753 -0.15304218 -0.16158192 -0.45117977 0.52280796 0.30255535 0.24575686 -0.2733205 -0.30823967 -0.16765009
a -0.58841854 -0.041967522 -0.66159326 0.12861712 0.36188656 0.19077179 -0.10165629 -0.44653744 0.21129474 0.11227987 0.04449238 0.34541622 -0.119720675 -0.19208625 0.025101522 -0.13701218 0.21758763 -0.21469325 -0.8521956 0.450081 -0.33940208 -0.6310934 0.35266826 0.5775647 -0.12879498 0.8976274 0.7742876 -0.05789421 -0.38504592 -0.08534375 -0.59008086 -0.16747113 -0.7460656 0.15497294 0.26888898 -0.28884065 -0.33287922 -0.070666276 0.07710323 0.16544646 0.34209856 0.23902845 0.4948634 0.1833538 0.27924925 0.011120541 0.17659986 0.24010621 0.7792228 -0.37331545 0.44725773 -0.7676169 0.14599511 -0.27299097 0.41211185 -0.010897696 0.39302257 -0.1269388 -0.2953225 0.2803384 0.08726571 -0.24194092 -0.3349175 -0.21922915 0.0017299969 -0.26126394 0.014383728 0.2869858 0.018450296 0.18543904 -0.023284152 -0.39238414 -0.28387198 -0.530019 -1.1161865 0.25035658 -0.046411067 0.1767971 -0.5339672 -0.42850587 -0.24962413 0.32735276 0.32047388 -0.19721822 -0.5846991 -0.20201689 -0.39721283 -0.32296997 0.4945733 0.050701506 -0.016349467 -0.84130096 -0.3039841 -0.40926105 -0.5136401 0.3975539 -0.5430055 -0.11761241 0.60407895 0.2705847 0.18443103 0.27631947 -0.14860341 0.04462525 -0.579142 0.05811236 -0.298929 0.099125564 0.058152918 -0.04026927 -0.250338 -0.076015234 -0.22977597 0.088431284 0.27570832 0.05867344 -0.086818986 -0.23350415 0.01208009 -0.6908261 -0.34603313 -0.25293663 -0.068832405 -0.09475414 -0.0376724 0.7046698 -0.32133836 0.024152173 0.18402041 0.04343117 -0.08490883 0.19280669 0.2509159 0.8148274 -0.34800506 0.105777234 0.49691293 -0.5089275 -0.23948477 0.5054554 0.19785342 -0.4240518 -0.027227545 -0.257578 -0.5917154 -0.33615005 0.2828973 -0.51487917 -0.4935785 0.2452751 -0.67055327 -0.084375545 0.6938286 -0.14672203 0.0011636601 -0.26597625 0.057235304 -0.77163357 0.24984932 0.5339866 -0.33879536 0.08421634 0.4084979 0.86370116 0.13024323 -0.27488607 0.33838496 0.28845015 -0.048318144 -0.03873442 0.4270761 0.2734279 0.17065197 0.3729075 -0.90969217 0.09109168 0.08445908 -0.21748614 0.030208737 0.3967518 -0.16973902 -0.38153124 0.034031227 0.09821197 -0.27154958 -0.46066266 -0.7621628 -0.21417268 0.48109573 0.2795116 -0.5158373 -0.14347215 -0.14935836 -0.4184529 0.48091877 0.28022036 0.2280645 -0.25175244 -0.28674614 -0.15578447
de -0.5420669 -0.037757043 -0.6075958 0.11753105 0.333956 0.1768495 -0.08962181 -0.41352108 0.19441204 0.107277066 0.03953604 0.31603017 -0.109825246 -0.1776673 0.024712417 -0.1246515 0.20019375 -0.19749399 -0.7795771 0.41272104 -0.30779776 -0.58052987 0.3236185 0.53136915 -0.11863681 0.82494646 0.7103273 -0.055827945 -0.35480857 -0.079016924 -0.54455525 -0.15613002 -0.6840838 0.14198153 0.24848452 -0.26461026 -0.3034887 -0.06300073 0.070864536 0.15096404 0.31617245 0.2192244 0.45721313 0.17037584 0.25621504 0.010146744 0.16027518 0.21876816 0.7171423 -0.34266582 0.40946347 -0.70209384 0.13346393 -0.25035352 0.37730134 -0.009970306 0.3619955 -0.11325467 -0.27064097 0.2561306 0.080170944 -0.21926704 -0.30500495 -0.20389023 -0.0006430203 -0.2399497 0.00883957 0.2626661 0.014852184 0.16997057 -0.021784268 -0.36018094 -0.26039296 -0.48878393 -1.0230422 0.22766435 -0.043069508 0.16420346 -0.48921603 -0.3954822 -0.23027207 0.29980573 0.29558733 -0.18336296 -0.5377822 -0.18411376 -0.3628575 -0.29450506 0.45500988 0.046441566 -0.015747005 -0.76932013 -0.2802984 -0.37523717 -0.4740632 0.36915246 -0.4948591 -0.10424531 0.5546939 0.24785022 0.1687977 0.25671422 -0.13453265 0.04118338 -0.5296184 0.052699327 -0.27137876 0.09407105 0.056441247 -0.034816384 -0.2301699 -0.06594138 -0.21058789 0.083282724 0.25594464 0.057078283 -0.08144315 -0.21168154 0.012321976 -0.6327011 -0.31809574 -0.23151584 -0.064347595 -0.09048777 -0.038847703 0.64492077 -0.2961847 0.025075935 0.16917233 0.038757287 -0.0815813 0.1748528 0.23098427 0.746658 -0.3181279 0.093989134 0.45647824 -0.4680642 -0.21969795 0.46144435 0.17966934 -0.38766813 -0.024170006 -0.23461203 -0.54282314 -0.3107112 0.25895807 -0.46984994 -0.45141777 0.22575532 -0.615481 -0.07733444 0.6367601 -0.13493887 0.0036113306 -0.24087228 0.054137696 -0.7063709 0.23033078 0.49285084 -0.3129436 0.07778402 0.3756518 0.79440975 0.11867458 -0.2512028 0.3099494 0.26651078 -0.044843163 -0.039516043 0.39256123 0.2516761 0.15464337 0.3417013 -0.8352431 0.08398381 0.07727928 -0.20315433 0.02698373 0.36747545 -0.15450265 -0.35023737 0.035263736 0.08817012 -0.24958667 -0.42674968 -0.7006372 -0.19870476 0.4435535 0.2562419 -0.4735497 -0.13361765 -0.13456309 -0.3799344 0.44089356 0.25343016 0.21082671 -0.23446944 -0.26057938 -0.14213371
o -0.61885506 -0.04658864 -0.69163734 0.1303707 0.37894937 0.20031744 -0.10392178 -0.47053003 0.21628512 0.11792436 0.047655705 0.3619659 -0.12381185 -0.2019697 0.029185953 -0.14136721 0.2284529 -0.22286534 -0.89023024 0.466836 -0.3539749 -0.6595448 0.36981472 0.6049457 -0.13379538 0.9353247 0.80712456 -0.059704956 -0.40545994 -0.08690035 -0.61676025 -0.17745781 -0.7823077 0.16275448 0.27951735 -0.30055577 -0.34573793 -0.074707754 0.08330566 0.17560434 0.35621396 0.24958217 0.5177239 0.19542977 0.29361093 0.01059256 0.184079 0.24848394 0.81584823 -0.389522 0.46372402 -0.7999551 0.15188645 -0.28818166 0.43126753 -0.009468151 0.41415662 -0.12820697 -0.30420265 0.29164857 0.09218235 -0.25307086 -0.3524558 -0.23140335 -0.0020326944 -0.27167326 0.012043486 0.29719484 0.020028295 0.19565248 -0.02624528 -0.40846664 -0.2948187 -0.5583725 -1.1640387 0.25968206 -0.050957445 0.18640506 -0.5588232 -0.44924814 -0.257689 0.34253642 0.3359461 -0.20589648 -0.61032164 -0.21271883 -0.41277736 -0.3355899 0.5210806 0.053343374 -0.015402701 -0.878128 -0.3155612 -0.4283843 -0.5371766 0.41634288 -0.5649517 -0.123246916 0.6326652 0.28713685 0.19384375 0.2909714 -0.15561385 0.047847316 -0.60728604 0.058997706 -0.31303403 0.10684467 0.063658476 -0.038458467 -0.26432756 -0.08045847 -0.23811431 0.091988675 0.2910446 0.06161523 -0.09272203 -0.24549241 0.012416275 -0.72394 -0.3571478 -0.25989762 -0.06946591 -0.10219062 -0.04112015 0.7364984 -0.3370609 0.027012233 0.19576806 0.04353293 -0.0928681 0.19781569 0.26422492 0.85203755 -0.36472595 0.107585415 0.5167184 -0.53267753 -0.25145602 0.52989346 0.20829946 -0.44093427 -0.028598795 -0.26897427 -0.61817884 -0.35258672 0.2959446 -0.53875995 -0.51788384 0.25986192 -0.7020185 -0.08876735 0.7248988 -0.15680711 0.003253359 -0.2787162 0.05951862 -0.81031585 0.26137942 0.5578825 -0.35271493 0.087823756 0.42525518 0.9032783 0.13233376 -0.28623506 0.35256523 0.3041081 -0.048535276 -0.041580755 0.44752133 0.28432736 0.17664187 0.38832816 -0.95115983 0.09265578 0.08901546 -0.23068355 0.029100953 0.41556904 -0.17842264 -0.39678365 0.039024882 0.1012673 -0.28387284 -0.48470396 -0.7996895 -0.22456639 0.50282896 0.2894733 -0.53909993 -0.1500404 -0.15323512 -0.43650958 0.5020976 0.29278356 0.23959944 -0.26603732 -0.3007334 -0.16315496
muito -0.3947736 -0.03068726 -0.43777594 0.08275429 0.2434987 0.12977573 -0.068018004 -0.29691452 0.13686414 0.07701479 0.028355442 0.22951598 -0.07690273 -0.13023753 0.020233043 -0.08821633 0.14601327 -0.14377646 -0.5668513 0.29971662 -0.22493762 -0.42199254 0.23677169 0.38506973 -0.08239606 0.5960106 0.51515293 -0.03963498 -0.25749928 -0.056820124 -0.39333045 -0.11448807 -0.4965338 0.1049501 0.17684443 -0.19218728 -0.22145587 -0.049133208 0.05013901 0.10976866 0.22994208 0.16011998 0.3307438 0.12198115 0.1893782 0.0052028866 0.11608834 0.15784521 0.51973283 -0.24635497 0.29502803 -0.5112219 0.09652738 -0.18463477 0.27334878 -0.006273967 0.26411498 -0.084910065 -0.19576417 0.18720718 0.059243686 -0.16075328 -0.22042072 -0.14957017 0.0013409392 -0.17234504 0.005381247 0.18970051 0.013836568 0.12514764 -0.018326677 -0.26122048 -0.18565802 -0.35577253 -0.74148065 0.16669571 -0.03333385 0.11902923 -0.35142368 -0.28781724 -0.16626185 0.21527764 0.21247347 -0.13202201 -0.38863534 -0.13740844 -0.26665917 -0.2152566 0.32973483 0.034226503 -0.010280182 -0.5594833 -0.20413843 -0.2717333 -0.3425274 0.26683596 -0.36075976 -0.079273306 0.4035509 0.1833025 0.12255606 0.18695757 -0.09693066 0.032707397 -0.3878415 0.0375519 -0.19876328 0.06419366 0.037930414 -0.026217708 -0.16932714 -0.050039336 -0.15374017 0.05752811 0.1869285 0.038914066 -0.060735635 -0.15537865 0.009631915 -0.46039414 -0.23099792 -0.1690029 -0.046673067 -0.06341131 -0.028631143 0.46885553 -0.21723269 0.018570619 0.12443855 0.02823319 -0.057841096 0.1267131 0.16612688 0.5437202 -0.23143701 0.06990402 0.3296841 -0.34038335 -0.15684743 0.33785665 0.13251427 -0.2827147 -0.02067536 -0.1725853 -0.39362308 -0.22635783 0.18581167 -0.34215772 -0.32771662 0.16335931 -0.44542196 -0.056766618 0.45917562 -0.096777335 0.0012123219 -0.1748692 0.03946174 -0.51436245 0.1654387 0.35664648 -0.22557797 0.0522616 0.27221987 0.5716462 0.08522258 -0.18104804 0.2213 0.19281241 -0.031535096 -0.026537534 0.2841652 0.18197007 0.11396763 0.2434922 -0.6051551 0.059508886 0.056913283 -0.14401144 0.017961461 0.26389462 -0.11374185 -0.25123486 0.023423534 0.06419866 -0.18224755 -0.30730027 -0.50873274 -0.14322588 0.3181771 0.18714704 -0.34292224 -0.09694263 -0.0993875 -0.27588266 0.31909332 0.18655618 0.15002881 -0.1714554 -0.19224958 -0.10380948
tv -0.45219532 -0.031224478 -0.50570935 0.09467454 0.28002644 0.14438017 -0.07898287 -0.34195635 0.1611709 0.088685036 0.0333435 0.26151264 -0.0908504 -0.14643191 0.022924175 -0.10654683 0.16600156 -0.16136187 -0.65213543 0.34169093 -0.25800925 -0.4844679 0.27013844 0.44330722 -0.0982911 0.6877629 0.58962166 -0.047422215 -0.29796344 -0.06646348 -0.45414174 -0.12901711 -0.5726117 0.11895584 0.20692697 -0.22153793 -0.25298595 -0.056780536 0.05755138 0.12865646 0.2648055 0.18386602 0.38083372 0.14507948 0.21684295 0.009207776 0.13832463 0.1854476 0.6002136 -0.2830503 0.3417308 -0.58609414 0.11256314 -0.21213415 0.31414083 -0.009428775 0.30482218 -0.09344495 -0.22542818 0.21640895 0.065591946 -0.18378186 -0.2542192 -0.17229605 -6.305679e-05 -0.20009308 0.008555156 0.21639442 0.0118608065 0.14349602 -0.02016095 -0.2978002 -0.21610536 -0.40508667 -0.85223854 0.19217841 -0.036580592 0.13508554 -0.40971115 -0.33019307 -0.19299951 0.2496415 0.24292971 -0.15471807 -0.44783613 -0.15654439 -0.30406114 -0.24582699 0.3796811 0.036216736 -0.01275522 -0.6427768 -0.23256081 -0.31459495 -0.39147386 0.30525792 -0.4152915 -0.08762351 0.4666436 0.20743674 0.14245954 0.21469183 -0.11207736 0.034991886 -0.44483113 0.041702855 -0.22584571 0.07655032 0.04765334 -0.0319479 -0.19368458 -0.057277028 -0.1753768 0.069068536 0.21098569 0.045950916 -0.065807566 -0.18066812 0.009612525 -0.5307664 -0.26170683 -0.19353718 -0.053040147 -0.07633267 -0.03301159 0.53765243 -0.24766378 0.018768305 0.14224435 0.032923635 -0.06848917 0.14494546 0.19306755 0.6258166 -0.26778287 0.07816534 0.38021216 -0.3915174 -0.18198459 0.38451675 0.14987646 -0.32421127 -0.020107877 -0.19508125 -0.45267656 -0.25953412 0.2168661 -0.3944478 -0.3792176 0.1878612 -0.51272434 -0.06543746 0.527861 -0.11573718 0.00035337167 -0.20414001 0.043528296 -0.59122884 0.19110088 0.4100947 -0.25753325 0.06204655 0.31210542 0.66107285 0.096369185 -0.21097633 0.2556012 0.2237304 -0.03668299 -0.033124734 0.328724 0.21044594 0.1269212 0.2816849 -0.69749516 0.07097148 0.068473235 -0.1658771 0.022861646 0.30706042 -0.12934205 -0.29321784 0.027344981 0.075273335 -0.20851865 -0.35600272 -0.58661425 -0.16678098 0.3700094 0.21258083 -0.39507124 -0.10832296 -0.11236652 -0.3178326 0.36711138 0.2110904 0.17752942 -0.19595562 -0.22025089 -0.116871074
que -0.5561046 -0.03940807 -0.62368613 0.11867113 0.3413439 0.18313499 -0.09633595 -0.42617086 0.20000893 0.11051003 0.042331453 0.32661334 -0.113084026 -0.18562971 0.024805585 -0.12901884 0.20761478 -0.2021153 -0.804677 0.4233473 -0.31985053 -0.598324 0.33299103 0.5435262 -0.121522434 0.8490384 0.7295129 -0.055569656 -0.36435455 -0.081787355 -0.55697733 -0.15947789 -0.7044374 0.14856963 0.25412753 -0.2724077 -0.31311676 -0.0661103 0.07482031 0.15741168 0.32514957 0.22585425 0.4670363 0.17680569 0.26732057 0.00791092 0.16950029 0.22618988 0.7396528 -0.35190868 0.42312935 -0.7227643 0.13892299 -0.25943676 0.38870034 -0.0061708204 0.3718248 -0.11912512 -0.2785823 0.2635477 0.081254706 -0.22814214 -0.31574336 -0.20828909 0.0011173732 -0.24583292 0.011734527 0.2723322 0.01570064 0.17784777 -0.025085187 -0.36731705 -0.26649085 -0.500663 -1.0552741 0.23823914 -0.043341674 0.17064591 -0.5056863 -0.40453663 -0.23667687 0.31163883 0.30116743 -0.19035262 -0.55009246 -0.19050199 -0.37404028 -0.30565113 0.4719245 0.04594801 -0.013846284 -0.7949382 -0.2873976 -0.3858376 -0.48706642 0.37570372 -0.51224583 -0.10833369 0.5740443 0.26058507 0.17473799 0.26158166 -0.14022885 0.04620817 -0.5458858 0.051529523 -0.27940956 0.092967995 0.05417531 -0.03552199 -0.23896101 -0.07215642 -0.21848585 0.08279722 0.2636429 0.05537607 -0.08103805 -0.21988764 0.013882159 -0.6520112 -0.32447338 -0.23556672 -0.06764215 -0.0885665 -0.03805398 0.6633636 -0.30680668 0.025237968 0.17681074 0.04292742 -0.079838075 0.17991088 0.2376364 0.77087474 -0.3288085 0.09816443 0.46700338 -0.48191407 -0.22685692 0.47547343 0.18593337 -0.40009463 -0.02678366 -0.24074134 -0.5591402 -0.3178297 0.26732117 -0.48592213 -0.46553746 0.23023562 -0.6346319 -0.08200459 0.6527111 -0.14291234 0.0012017677 -0.25211504 0.057137273 -0.7305989 0.23768528 0.50813216 -0.32248202 0.07601453 0.38305745 0.81430197 0.11971821 -0.25855544 0.3190658 0.274011 -0.045011375 -0.041060742 0.4063804 0.25898612 0.16072285 0.3508861 -0.8620488 0.0841987 0.08266065 -0.20628554 0.027619334 0.37609902 -0.16099022 -0.36282438 0.034060523 0.08926361 -0.25865257 -0.43683022 -0.7212717 -0.20673878 0.45286375 0.26128748 -0.4860522 -0.1341199 -0.1413 -0.39098743 0.4570181 0.26459292 0.21559794 -0.24210349 -0.2709408 -0.145042
produto -0.35467446 -0.024303038 -0.39623466 0.07417519 0.21773335 0.11150097 -0.058821056 -0.26682207 0.12366378 0.066536404 0.02749098 0.2063758 -0.069045894 -0.116857424 0.015942499 -0.078964226 0.13089319 -0.12700067 -0.505811 0.26986167 -0.20329353 -0.37812904 0.21263061 0.34543395 -0.07446993 0.53424287 0.4596424 -0.03497494 -0.23298684 -0.04909162 -0.35375458 -0.099945955 -0.44797516 0.09313315 0.16151734 -0.17449507 -0.20112506 -0.04365407 0.047483917 0.10037045 0.20515469 0.14053679 0.29453143 0.11286266 0.16604272 0.0028291568 0.10526186 0.14224872 0.46452388 -0.22038755 0.26812726 -0.45836788 0.08504203 -0.1626534 0.2449418 -0.0055122 0.23357171 -0.07351258 -0.17225857 0.1699249 0.05244804 -0.14569552 -0.19689435 -0.13055868 0.0013651622 -0.15397927 0.0055857804 0.1708078 0.008113939 0.11403495 -0.01565456 -0.23437668 -0.16881217 -0.31656674 -0.666738 0.1508102 -0.027346822 0.10934238 -0.31910327 -0.2583887 -0.14725247 0.19426352 0.19128132 -0.119620584 -0.34892496 -0.12410304 -0.23960072 -0.19190802 0.298227 0.0296826 -0.011090236 -0.5007481 -0.17902476 -0.24336873 -0.30601513 0.23760678 -0.32327467 -0.06980422 0.36402878 0.16510612 0.110863335 0.1642229 -0.08702016 0.02870501 -0.34645876 0.033036515 -0.17729945 0.06102462 0.03586916 -0.023395734 -0.14993468 -0.043916903 -0.13809592 0.05002405 0.1662584 0.036547553 -0.05073227 -0.1387013 0.0073264744 -0.4084593 -0.20498219 -0.1485767 -0.03975582 -0.057972588 -0.021761551 0.4214468 -0.19444849 0.015434099 0.11094387 0.02814718 -0.05209828 0.11664523 0.1512335 0.4880991 -0.20323677 0.06387443 0.29307133 -0.3058497 -0.1445669 0.298761 0.11564666 -0.25210738 -0.015954552 -0.15473047 -0.3547475 -0.19872911 0.16950415 -0.30422038 -0.2963708 0.1481753 -0.400288 -0.052755293 0.4128185 -0.088820815 0.0022829368 -0.1601758 0.035324052 -0.46270463 0.14808527 0.32068336 -0.2017405 0.04754807 0.24322022 0.5130347 0.07604035 -0.16544214 0.19797525 0.17438824 -0.026855676 -0.023142083 0.2540958 0.16063866 0.10115746 0.21978857 -0.54539686 0.05075274 0.049180016 -0.13334617 0.015279105 0.23579842 -0.10219866 -0.22892457 0.020426651 0.056390356 -0.16023336 -0.27322474 -0.45554292 -0.12827347 0.28517154 0.16801542 -0.3094778 -0.08332046 -0.089178145 -0.25012434 0.28759247 0.16600151 0.13848409 -0.15378824 -0.17229107 -0.09344171
do -0.4319446 -0.029240664 -0.48664585 0.09289252 0.2654062 0.1425333 -0.076320924 -0.33046168 0.1523843 0.082756035 0.031230202 0.25330904 -0.08521304 -0.14273429 0.021016564 -0.10088469 0.16037484 -0.15714642 -0.62390715 0.32837957 -0.2498411 -0.46579972 0.26078635 0.42462423 -0.09145592 0.65875673 0.56588054 -0.04431992 -0.28410327 -0.06325774 -0.434616 -0.12219921 -0.5492817 0.11513121 0.19759242 -0.20981868 -0.24254143 -0.051954214 0.057764784 0.12255076 0.25101137 0.17515892 0.36640042 0.13474107 0.20533505 0.0051600407 0.13137321 0.17738672 0.57480985 -0.27446893 0.32854635 -0.56208056 0.10556231 -0.20371513 0.3045177 -0.005471575 0.29225886 -0.09384562 -0.21746618 0.20765907 0.0610542 -0.1777059 -0.24747863 -0.16207652 0.00069984316 -0.19459696 0.008911625 0.20727251 0.013202597 0.13904692 -0.01782975 -0.28791207 -0.2069314 -0.38902426 -0.8209455 0.18219821 -0.037774473 0.1333992 -0.39285004 -0.318545 -0.1816444 0.24245638 0.23556282 -0.1435211 -0.427872 -0.15012737 -0.29489774 -0.23827235 0.36447597 0.035358608 -0.012375128 -0.6172482 -0.22450021 -0.30309469 -0.3780258 0.29711303 -0.39857057 -0.08749718 0.44445115 0.19953495 0.13797641 0.20474342 -0.11244945 0.032884456 -0.42666066 0.040986817 -0.21913412 0.07108365 0.04218918 -0.031689268 -0.18485531 -0.056189742 -0.16929108 0.06634553 0.20513393 0.042625323 -0.06502062 -0.17241758 0.013710829 -0.50448036 -0.2500808 -0.18586129 -0.05035181 -0.07346664 -0.026533164 0.5159213 -0.23645894 0.02052676 0.13587976 0.03219412 -0.06277044 0.14126611 0.1856261 0.60019326 -0.25051937 0.07753163 0.36105004 -0.3741077 -0.1765831 0.3722066 0.14174989 -0.31185207 -0.023473574 -0.18663868 -0.4358265 -0.2474568 0.21087487 -0.3733134 -0.36595297 0.18143952 -0.4913515 -0.06461041 0.5059 -0.10740964 0.00032454537 -0.19571805 0.041445006 -0.56833345 0.18455182 0.39279017 -0.24671236 0.060409304 0.3006011 0.63556236 0.09624213 -0.20100904 0.24459697 0.21197438 -0.034562685 -0.028113386 0.31685132 0.1979786 0.121622354 0.27360895 -0.6703416 0.06343145 0.06421528 -0.16327201 0.023073755 0.2914427 -0.12503172 -0.28203177 0.029422877 0.073352806 -0.19720596 -0.33769202 -0.5590053 -0.16022772 0.35426846 0.20471485 -0.3766717 -0.1020734 -0.109034225 -0.30605218 0.35504907 0.20534384 0.16910928 -0.18796128 -0.21191491 -0.11414732
recomendo -0.35434625 -0.02450556 -0.3919437 0.07685413 0.21726368 0.11575819 -0.06042289 -0.26699707 0.12595613 0.07009639 0.026735844 0.20781478 -0.06947507 -0.11631483 0.018325092 -0.082810216 0.13335294 -0.12599471 -0.5088475 0.26751179 -0.20300385 -0.37637985 0.21036181 0.3411968 -0.07689317 0.53482264 0.46244448 -0.032758396 -0.23248821 -0.049744133 -0.35390255 -0.10157019 -0.44667754 0.09168508 0.15763018 -0.17377664 -0.19960229 -0.04217447 0.045738164 0.101320475 0.20512748 0.14344141 0.29766566 0.11133087 0.16663367 0.005873114 0.10622769 0.14261049 0.4655027 -0.22054972 0.26559436 -0.4562127 0.08652056 -0.16236159 0.24503826 -0.003837626 0.23636535 -0.07309814 -0.17543063 0.16894269 0.051837336 -0.14169502 -0.19838479 -0.134395 -0.001407141 -0.15576386 0.0068037156 0.16739969 0.012668554 0.11360758 -0.017146066 -0.23055208 -0.16989824 -0.31771648 -0.66198915 0.14841102 -0.029558143 0.10621136 -0.316997 -0.25548816 -0.15029792 0.19584908 0.19151191 -0.11988199 -0.34738815 -0.12195491 -0.2369862 -0.19485664 0.29653922 0.028533299 -0.010611727 -0.50130075 -0.17993116 -0.2411369 -0.3037224 0.23977754 -0.3237006 -0.06870795 0.35992187 0.16088815 0.11161332 0.16363162 -0.089089416 0.026705977 -0.3469609 0.03648811 -0.17657727 0.05933456 0.036936525 -0.024488145 -0.15262315 -0.04221181 -0.13755912 0.052795514 0.16799082 0.03544643 -0.054146808 -0.14073041 0.010126907 -0.4084282 -0.2067337 -0.15059862 -0.040575046 -0.055884156 -0.02320349 0.418296 -0.19508809 0.013570514 0.11219735 0.025138149 -0.050711095 0.1116094 0.14974004 0.48267525 -0.20614792 0.06424176 0.29450947 -0.30331504 -0.14268209 0.3024007 0.1143455 -0.25464845 -0.01489791 -0.15391602 -0.35456106 -0.20190537 0.17078497 -0.30642638 -0.29460186 0.14427932 -0.3982542 -0.04878198 0.41065577 -0.086863086 0.001983848 -0.15936841 0.03731849 -0.46139374 0.14871807 0.31681633 -0.20329149 0.04749187 0.24476127 0.5114714 0.077223726 -0.16400966 0.19969946 0.17457972 -0.029909609 -0.025971455 0.25269794 0.1604379 0.10066778 0.22206251 -0.5440373 0.055696946 0.052804433 -0.12916479 0.01627987 0.23982249 -0.10362453 -0.22837254 0.023364564 0.05586601 -0.16190822 -0.2774767 -0.45659453 -0.12819284 0.2873879 0.16359535 -0.30749467 -0.085845776 -0.087147124 -0.24741404 0.2863058 0.16650182 0.13434425 -0.15233761 -0.17140569 -0.09256507
nao -0.5622499 -0.041451965 -0.6265535 0.11980366 0.3468677 0.18403411 -0.09413933 -0.4291609 0.2004802 0.111663975 0.041103687 0.3275527 -0.11175896 -0.18596007 0.024682593 -0.13118437 0.21063349 -0.20212038 -0.81038177 0.42965594 -0.32168007 -0.6033672 0.33716246 0.5513896 -0.12291658 0.85504204 0.73545945 -0.054401703 -0.36557034 -0.07817811 -0.5649122 -0.16155812 -0.7142853 0.14673907 0.25734523 -0.27299458 -0.31540942 -0.070314884 0.07519369 0.15976039 0.3284984 0.2265823 0.47274387 0.17828883 0.2672985 0.009965247 0.17109482 0.2289453 0.7443965 -0.35560292 0.42333135 -0.7334586 0.13633701 -0.26017818 0.39168406 -0.010029491 0.3789784 -0.11844879 -0.27803594 0.26609033 0.084485166 -0.22877273 -0.3221772 -0.21074945 -0.0018479443 -0.25048915 0.011916002 0.27523807 0.019034123 0.1791233 -0.025658999 -0.3697487 -0.2711094 -0.50715804 -1.0634102 0.23613958 -0.046603337 0.16934729 -0.50501126 -0.4115278 -0.23456943 0.31392953 0.30619434 -0.19172838 -0.55841494 -0.193741 -0.37817302 -0.30956224 0.4738455 0.04685134 -0.01634054 -0.8003452 -0.28767192 -0.39097407 -0.48930612 0.3824884 -0.51458 -0.10865579 0.57887983 0.25726688 0.17867972 0.26535952 -0.14388183 0.043141697 -0.549963 0.053663794 -0.284973 0.09698062 0.058510214 -0.03911892 -0.24156018 -0.06965379 -0.2160268 0.084096916 0.26336658 0.055680696 -0.084467985 -0.22239447 0.012002329 -0.66055983 -0.32797542 -0.24019793 -0.06468116 -0.0941442 -0.038564526 0.6719773 -0.30572096 0.026714282 0.17761822 0.03928478 -0.084527425 0.17962332 0.2409134 0.7745275 -0.33266413 0.09761631 0.4706203 -0.48376697 -0.22739303 0.479234 0.18570878 -0.40489948 -0.025599718 -0.24611296 -0.5668738 -0.3224498 0.27299947 -0.48914984 -0.4686548 0.23433344 -0.63841385 -0.07862676 0.6592085 -0.14286716 0.0046734153 -0.25172725 0.057024814 -0.7380504 0.24076807 0.5077805 -0.32034752 0.08029903 0.38788968 0.8249903 0.122116804 -0.26017562 0.32246414 0.27606192 -0.045069218 -0.0414134 0.4095278 0.2584912 0.16290106 0.35074773 -0.8659583 0.08770916 0.080493234 -0.20759706 0.028891042 0.37940225 -0.15910318 -0.36426333 0.032855954 0.09452667 -0.2559701 -0.4381567 -0.72462213 -0.20565541 0.45882517 0.26686257 -0.4936756 -0.13850735 -0.14085539 -0.39573196 0.46010408 0.26296467 0.21819195 -0.24340701 -0.2717417 -0.14595582
com -0.5654995 -0.038174275 -0.6337532 0.1223465 0.3491509 0.18241842 -0.096497215 -0.43392387 0.19958667 0.11193707 0.040832568 0.33068728 -0.113527976 -0.18620373 0.024998073 -0.13291763 0.21246368 -0.20660451 -0.8157898 0.4290777 -0.3249451 -0.6079786 0.34092474 0.5520438 -0.121882066 0.86148614 0.7405661 -0.05512441 -0.37155572 -0.079174265 -0.5663158 -0.16080101 -0.7178245 0.14636838 0.25853816 -0.274825 -0.31987908 -0.06622858 0.07540772 0.1618941 0.32733828 0.22982618 0.47795373 0.17699736 0.27057296 0.0068235565 0.16811548 0.2309302 0.74866515 -0.3566927 0.42798534 -0.73860747 0.14108957 -0.26436257 0.39904678 -0.006587036 0.37961861 -0.11952983 -0.28358606 0.27130878 0.08183393 -0.22939266 -0.32275712 -0.21444851 -0.003273363 -0.2520989 0.0114691695 0.27596977 0.015287795 0.17910932 -0.025559701 -0.37619486 -0.272091 -0.5132958 -1.0717645 0.24032861 -0.04343869 0.17100358 -0.5093141 -0.41299456 -0.24074085 0.31508023 0.30802417 -0.19324867 -0.56085473 -0.19223025 -0.38229734 -0.30949625 0.47603202 0.0474138 -0.017659126 -0.80396605 -0.29355848 -0.39345416 -0.4940027 0.38223943 -0.51996684 -0.10901583 0.5843577 0.2608533 0.1781608 0.26467595 -0.14377354 0.044706896 -0.5585888 0.05265641 -0.28351465 0.09663307 0.05917083 -0.03602086 -0.24264394 -0.072583586 -0.22131345 0.08567842 0.2646392 0.05956081 -0.08266819 -0.22598907 0.010665555 -0.6647063 -0.3323546 -0.23955433 -0.066320345 -0.09407843 -0.037299562 0.6730952 -0.30868012 0.024780797 0.17884953 0.04005829 -0.083341844 0.18069275 0.24099396 0.78452176 -0.33308437 0.097789474 0.4766129 -0.48843792 -0.22949305 0.48569328 0.18970513 -0.40958765 -0.028535824 -0.24759793 -0.5676215 -0.32427713 0.2739998 -0.49297938 -0.4741223 0.23593038 -0.64162934 -0.080711484 0.66219336 -0.1412508 0.0042884094 -0.25382194 0.05616137 -0.7438099 0.24187079 0.5161839 -0.32409677 0.08073832 0.3914876 0.8274103 0.12574738 -0.26258183 0.32031298 0.27648124 -0.04293668 -0.03963466 0.41190347 0.26118186 0.15965362 0.35571125 -0.8752994 0.08608812 0.08272088 -0.2123289 0.025546711 0.38436013 -0.16113102 -0.36749446 0.03485125 0.09433776 -0.25818697 -0.44666013 -0.7346416 -0.20793779 0.46041682 0.26958278 -0.4955668 -0.13955563 -0.14332077 -0.39757133 0.4608307 0.26552454 0.21868974 -0.24632697 -0.27645558 -0.14918476
entrega -0.30711663 -0.023117231 -0.34368584 0.06647893 0.18855727 0.09807232 -0.05338073 -0.23045234 0.10718905 0.060711324 0.022427617 0.17641822 -0.060845964 -0.09793155 0.015145835 -0.07072781 0.11341591 -0.11269048 -0.44140658 0.23350933 -0.17400998 -0.32683176 0.18472263 0.30041558 -0.06602909 0.46703282 0.40198576 -0.028517596 -0.20057148 -0.041272774 -0.30723858 -0.08762633 -0.38545558 0.081030376 0.13689081 -0.15025733 -0.17323592 -0.039567705 0.041788664 0.087250784 0.17683358 0.12132478 0.25945845 0.09699739 0.14615808 0.006013345 0.09359356 0.12621509 0.40670064 -0.19026652 0.23175937 -0.3962967 0.07301885 -0.14038052 0.21647386 -0.0026643134 0.20674644 -0.06321453 -0.14986548 0.1433612 0.044386175 -0.124816015 -0.17105815 -0.116775915 5.7572626e-05 -0.13387334 0.007568882 0.14416401 0.007854183 0.09881384 -0.015122529 -0.20319484 -0.14721355 -0.27511626 -0.5774252 0.1293256 -0.027393274 0.09416319 -0.2736125 -0.22346242 -0.12956423 0.17176741 0.16450186 -0.10318308 -0.3036402 -0.104285695 -0.20718738 -0.16590194 0.2596648 0.027057819 -0.0054290053 -0.43706775 -0.15532921 -0.2122662 -0.26741356 0.20671546 -0.2832372 -0.061355066 0.31676358 0.14138207 0.09623469 0.14488746 -0.08018172 0.025782997 -0.29864284 0.030250099 -0.15363398 0.053718574 0.030247834 -0.02312382 -0.13287437 -0.04101988 -0.11988268 0.04391725 0.14261079 0.03326942 -0.044921525 -0.11850931 0.008830545 -0.35833856 -0.17652598 -0.13186638 -0.036857508 -0.049715687 -0.017881598 0.3652331 -0.1682949 0.0124809975 0.09381281 0.02337463 -0.04511241 0.10013282 0.12844586 0.42352417 -0.17856312 0.052939307 0.25424704 -0.2648101 -0.121711634 0.26388568 0.09927228 -0.22097512 -0.014389861 -0.13402647 -0.30492923 -0.17616731 0.14965679 -0.26489303 -0.2554688 0.12688236 -0.347083 -0.04643527 0.36047935 -0.079394765 0.0037516893 -0.13801004 0.029962046 -0.4000111 0.13053448 0.27809072 -0.17686903 0.042843074 0.2133526 0.4458395 0.06784004 -0.14450298 0.17506593 0.1524898 -0.021633359 -0.020338796 0.22044067 0.14231548 0.086267434 0.19307372 -0.47412902 0.045914195 0.045928102 -0.11478792 0.012591913 0.20821257 -0.089754194 -0.20033164 0.020743625 0.052668773 -0.1382159 -0.23946162 -0.39523965 -0.11144522 0.24984579 0.14271004 -0.26928613 -0.07464474 -0.07926067 -0.21688439 0.24681342 0.14437509 0.12093965 -0.13043727 -0.1485412 -0.078420766
imagem -0.4021959 -0.030198976 -0.4502751 0.08469145 0.24836786 0.12731367 -0.066108614 -0.30617356 0.13985431 0.078727685 0.027079308 0.23574685 -0.08207489 -0.13405211 0.018043287 -0.09275338 0.14940898 -0.14471021 -0.57716155 0.30498105 -0.22788481 -0.42692706 0.24159127 0.39095587 -0.08695684 0.6103053 0.52089 -0.041122098 -0.26440153 -0.05957373 -0.39878282 -0.1155064 -0.5073746 0.10437408 0.1797545 -0.19399644 -0.2234254 -0.048363082 0.05144734 0.11245252 0.23081078 0.16089556 0.33394074 0.1266866 0.19126414 0.005586679 0.118718535 0.16343608 0.52896565 -0.25033945 0.3016145 -0.5214708 0.09749861 -0.18388048 0.2784354 -0.004993111 0.2688683 -0.08629161 -0.20094793 0.18866706 0.060876384 -0.16387522 -0.2293202 -0.14876896 -0.00024528243 -0.17838213 0.0071860966 0.19616787 0.010756852 0.1287429 -0.019649964 -0.26242188 -0.1907437 -0.36090446 -0.7565542 0.16785268 -0.033038154 0.12092206 -0.3626115 -0.29127684 -0.16984998 0.22077385 0.21574004 -0.1330943 -0.3928676 -0.13990836 -0.2721079 -0.2177278 0.33487242 0.034019712 -0.008341161 -0.57117754 -0.2043019 -0.27846113 -0.34655622 0.26896498 -0.3674298 -0.0813131 0.4082417 0.18408912 0.12503824 0.18950975 -0.09973706 0.029625494 -0.39484847 0.036210906 -0.20002064 0.067969315 0.03963974 -0.029209752 -0.17080449 -0.051248956 -0.15696146 0.061612748 0.1905594 0.03939727 -0.06148813 -0.16080202 0.009916279 -0.46557504 -0.23429579 -0.16793633 -0.046227895 -0.068067476 -0.027361833 0.4756665 -0.22091861 0.019840395 0.124727726 0.027810927 -0.05786136 0.12974852 0.17038248 0.5509039 -0.23580325 0.06807453 0.33425596 -0.347209 -0.15960418 0.3430895 0.13249259 -0.28792974 -0.019166801 -0.17522232 -0.40259027 -0.22998253 0.1924093 -0.34895304 -0.33465782 0.1655814 -0.45270985 -0.0575671 0.47024393 -0.10076934 0.002304726 -0.18072642 0.037331954 -0.5249303 0.1694903 0.3636276 -0.23091346 0.05819755 0.27544472 0.5874926 0.088526435 -0.1865103 0.23006736 0.19492596 -0.029161016 -0.026688656 0.29137576 0.18328762 0.11399168 0.25148913 -0.61811644 0.060297485 0.060169257 -0.14745821 0.021786468 0.2694384 -0.11241624 -0.259958 0.023082983 0.06813513 -0.18372919 -0.31081846 -0.51962405 -0.14466769 0.3272533 0.190467 -0.35205364 -0.09522302 -0.09850078 -0.28059268 0.32673305 0.18925671 0.15638167 -0.1744469 -0.19341981 -0.10350792
para -0.516669 -0.037609767 -0.5750493 0.11067473 0.31824398 0.16587748 -0.08930133 -0.3927919 0.18331479 0.09915126 0.037436016 0.29822785 -0.10434447 -0.17150116 0.025461625 -0.1168025 0.19350843 -0.1881901 -0.738938 0.38982403 -0.29421106 -0.553016 0.30515748 0.5041861 -0.1105621 0.77852285 0.6729988 -0.05059658 -0.3345393 -0.072872885 -0.5124121 -0.14603893 -0.6527809 0.13736145 0.23115149 -0.25103584 -0.2887546 -0.0627272 0.06602097 0.14778063 0.30054888 0.2066957 0.43289766 0.16408674 0.24323523 0.00823428 0.1539678 0.209795 0.67981505 -0.321483 0.38958433 -0.6659978 0.12826884 -0.23681286 0.35872436 -0.009216611 0.34536442 -0.11015967 -0.25747845 0.24259941 0.07579627 -0.21000329 -0.29286826 -0.1954285 -0.00057380804 -0.22646834 0.012343628 0.24923381 0.015674077 0.16154385 -0.024125285 -0.3400176 -0.24488723 -0.46416172 -0.97105646 0.21807715 -0.041083287 0.15498014 -0.4645313 -0.3749734 -0.21694031 0.28431547 0.28094584 -0.1735616 -0.5095968 -0.17490983 -0.34565514 -0.27872884 0.4319867 0.04338491 -0.014657928 -0.73125374 -0.26572427 -0.3579008 -0.44689393 0.3495265 -0.4735263 -0.09967779 0.52800584 0.23901257 0.16080786 0.24011084 -0.13140923 0.03951257 -0.5069858 0.050333083 -0.255995 0.08856536 0.05063227 -0.034325723 -0.22114123 -0.06356767 -0.1974785 0.07983316 0.24351178 0.05290583 -0.07699958 -0.20475481 0.011378898 -0.60020757 -0.30164272 -0.21808676 -0.060033523 -0.08265489 -0.03501913 0.61196506 -0.2814831 0.020395 0.16366461 0.037130244 -0.076686285 0.16576356 0.21696809 0.7073825 -0.30417016 0.08765753 0.43311962 -0.44586578 -0.20816106 0.43771854 0.17346784 -0.37073338 -0.024557533 -0.22525111 -0.5149963 -0.29160428 0.24748173 -0.44407153 -0.43082315 0.21607175 -0.5829478 -0.0755744 0.6050737 -0.13167523 0.0038750877 -0.22791554 0.048806667 -0.6714709 0.22169322 0.46616274 -0.29659882 0.073669784 0.35715604 0.7515255 0.11072238 -0.23554933 0.2908841 0.25431317 -0.04284851 -0.035532206 0.37536898 0.2351199 0.14619854 0.32192072 -0.7944747 0.08032593 0.072908945 -0.18929787 0.024790687 0.34745032 -0.14664836 -0.33069938 0.03248118 0.08243479 -0.23703472 -0.40322548 -0.66343206 -0.18855144 0.41856834 0.24471062 -0.44714886 -0.123112865 -0.12961736 -0.36201653 0.42153084 0.24471667 0.20027623 -0.22097462 -0.2510869 -0.13152422
qualidade -0.29090312 -0.019350164 -0.32116634 0.061346017 0.1789074 0.09358583 -0.049508892 -0.22037815 0.1011598 0.057968788 0.023146782 0.16780712 -0.060116503 -0.09341437 0.010918802 -0.068344854 0.10504129 -0.10606159 -0.4144914 0.22116743 -0.1659302 -0.30783176 0.1712019 0.28145948 -0.0626047 0.43892545 0.3795219 -0.026251122 -0.1869388 -0.040024277 -0.28997737 -0.08099432 -0.36637777 0.07598658 0.12833597 -0.14201811 -0.16460642 -0.036147837 0.039678194 0.079434894 0.16649489 0.11450781 0.2427579 0.09105353 0.13937609 0.0028417741 0.08447326 0.11567275 0.3823982 -0.17872575 0.21760918 -0.3762153 0.06822072 -0.13407058 0.2027902 -0.0060153827 0.1912217 -0.060690064 -0.14022934 0.13773613 0.041437775 -0.11875585 -0.16559118 -0.1104274 -0.0027977014 -0.12562561 0.004586966 0.13674346 0.0099241575 0.09276886 -0.013322014 -0.18858323 -0.13739392 -0.26163733 -0.54368824 0.12154946 -0.025135918 0.08797997 -0.2577832 -0.21253675 -0.12239057 0.16062813 0.15500404 -0.0980115 -0.28244507 -0.10165143 -0.19341576 -0.15533061 0.24421878 0.025537087 -0.007987263 -0.40872812 -0.14969338 -0.20167479 -0.24909724 0.19569154 -0.26173285 -0.05614623 0.29610243 0.13348594 0.09078082 0.13727424 -0.07259435 0.022261478 -0.284144 0.028015876 -0.14241716 0.048863955 0.02896513 -0.019135306 -0.1256483 -0.03759215 -0.10992993 0.042881697 0.13395499 0.031846546 -0.0434109 -0.11123066 0.009434084 -0.33559296 -0.16568066 -0.1222595 -0.03240431 -0.048581585 -0.02054654 0.34517133 -0.15630461 0.0140417265 0.0903145 0.020226855 -0.039786667 0.091296956 0.12301877 0.39530528 -0.16967742 0.048485454 0.23880346 -0.24675657 -0.11449778 0.24463713 0.09373765 -0.20913257 -0.012753256 -0.124166206 -0.28610218 -0.16404563 0.14054199 -0.2527866 -0.2387917 0.11816857 -0.32727042 -0.044182908 0.33690146 -0.075521655 0.0030449666 -0.1267944 0.028511232 -0.3759777 0.12006294 0.2617401 -0.16358608 0.04192662 0.1973152 0.42055914 0.062674046 -0.13392207 0.1651791 0.14069448 -0.020609658 -0.019250913 0.20829004 0.1331796 0.08261545 0.18254139 -0.44537392 0.041766357 0.044602122 -0.106576815 0.014614773 0.19587511 -0.081522234 -0.18452823 0.018753974 0.04914488 -0.13356756 -0.22713198 -0.3740212 -0.10361797 0.23240858 0.1375819 -0.24985848 -0.06805527 -0.07157718 -0.20002267 0.2331272 0.13797258 0.11160066 -0.12576236 -0.13908668 -0.07463758
prazo -0.2716231 -0.021008268 -0.30203456 0.057806022 0.16824883 0.08729452 -0.044617515 -0.2066873 0.093412034 0.050717693 0.021698996 0.15693872 -0.05332323 -0.087046064 0.013653339 -0.061183628 0.10257656 -0.09643227 -0.3912848 0.20436548 -0.15585938 -0.2899817 0.16301668 0.26234046 -0.05856503 0.40988734 0.35532367 -0.02828683 -0.17551096 -0.03997354 -0.27036276 -0.07903951 -0.3419548 0.07088961 0.12610756 -0.13115396 -0.15305337 -0.03526659 0.037422106 0.07779262 0.16019286 0.10933444 0.2269588 0.08580217 0.1298764 0.0034585723 0.08280389 0.11228591 0.3574029 -0.1716763 0.20493516 -0.35111532 0.067731544 -0.12818529 0.19260089 -0.004458137 0.18418288 -0.058805842 -0.13557827 0.12808983 0.037139725 -0.11119297 -0.15139592 -0.10119338 0.00051767763 -0.12311863 0.0074680382 0.12669468 0.0068428973 0.08601506 -0.012622532 -0.1791334 -0.13114785 -0.24464631 -0.515439 0.112373896 -0.023766775 0.084600314 -0.2463548 -0.19817546 -0.11632807 0.14900407 0.14531186 -0.091468066 -0.26923886 -0.09392203 -0.18115841 -0.14855966 0.23120639 0.024543695 -0.007949043 -0.38367927 -0.1397849 -0.18940584 -0.23803377 0.18528199 -0.25086188 -0.05410893 0.27974954 0.12774701 0.0855149 0.12876679 -0.071536765 0.020073857 -0.2662044 0.029169848 -0.13830037 0.04726373 0.025901923 -0.01811254 -0.11687978 -0.0344603 -0.10448153 0.039025947 0.12886159 0.02579042 -0.039175212 -0.10906724 0.008978604 -0.3178652 -0.15879273 -0.11432978 -0.032199517 -0.04420452 -0.016989697 0.32305726 -0.15061827 0.01170823 0.0850374 0.022901412 -0.038643666 0.0871843 0.11288943 0.37682164 -0.15538512 0.045686606 0.22823301 -0.23385632 -0.11065497 0.23003279 0.09005616 -0.19643861 -0.012751377 -0.117220365 -0.269308 -0.1520802 0.13200517 -0.23690346 -0.22952233 0.11482361 -0.30736747 -0.039138075 0.31644416 -0.06647617 0.0023121478 -0.12097142 0.027803948 -0.35602617 0.1157703 0.24644405 -0.15796259 0.034896135 0.18754092 0.39717874 0.05660565 -0.12612928 0.15445773 0.13289094 -0.018725403 -0.018879708 0.19730863 0.12460175 0.07899327 0.17098558 -0.41938427 0.03809788 0.040010653 -0.103365004 0.012476356 0.18164386 -0.07818465 -0.17398378 0.015417527 0.047403444 -0.12453331 -0.21388116 -0.35284376 -0.0998771 0.21904773 0.1298271 -0.23500429 -0.06719194 -0.06944725 -0.19304094 0.21845762 0.12965462 0.10639164 -0.1179948 -0.13290967 -0.07294658
uma -0.5076139 -0.03606125 -0.56414443 0.108649865 0.3118486 0.16335419 -0.08696022 -0.38297552 0.17918174 0.0965273 0.0381862 0.29766354 -0.100220576 -0.16728276 0.020694952 -0.11786536 0.1880932 -0.18454061 -0.7276541 0.38581365 -0.29091823 -0.54149663 0.3031279 0.49551654 -0.10948426 0.76646584 0.65984654 -0.0482173 -0.33252984 -0.07100433 -0.5045061 -0.14559388 -0.6418179 0.13358535 0.22931485 -0.24903233 -0.28548932 -0.058528367 0.0650921 0.14203197 0.29607934 0.20666681 0.42307988 0.1597485 0.23995246 0.0079508275 0.15433875 0.20585123 0.66763175 -0.31749904 0.38318378 -0.65607584 0.122077264 -0.23606375 0.3546386 -0.008820501 0.33760902 -0.108459175 -0.25083005 0.2381816 0.074610375 -0.20424426 -0.2853101 -0.190918 -0.000176439 -0.22446519 0.009196712 0.24356559 0.014764931 0.1605187 -0.020916162 -0.33226097 -0.23994793 -0.45751467 -0.95573175 0.21515165 -0.040277664 0.1558651 -0.45391917 -0.36699757 -0.21130666 0.27948216 0.27688977 -0.17227536 -0.5007174 -0.17271706 -0.34216428 -0.27582043 0.42508036 0.042448908 -0.014881277 -0.71833533 -0.25946635 -0.34799594 -0.44157356 0.3429601 -0.46602726 -0.0981992 0.5201704 0.2313008 0.158389 0.23777512 -0.12811674 0.04171889 -0.49871844 0.05086881 -0.2521166 0.085586295 0.051407047 -0.03316791 -0.21496452 -0.061509944 -0.19764668 0.07611357 0.23925248 0.051334094 -0.07382543 -0.19826743 0.011861645 -0.59356654 -0.29691982 -0.214391 -0.05840189 -0.08359804 -0.03679332 0.6025024 -0.27954844 0.02023592 0.15818688 0.03815266 -0.0747787 0.16478309 0.21413803 0.6957015 -0.29837707 0.09069744 0.42510444 -0.43720293 -0.20455396 0.43109712 0.16974597 -0.36294553 -0.025056481 -0.22244996 -0.5067533 -0.28775162 0.24499068 -0.4384147 -0.42061788 0.210613 -0.5733575 -0.074284494 0.59423125 -0.12852933 0.00027032683 -0.22665155 0.050310843 -0.6626525 0.2132172 0.45854867 -0.29061264 0.07318402 0.34771907 0.7409335 0.111250915 -0.23339397 0.28831026 0.25022247 -0.039535835 -0.03572321 0.36724 0.23234975 0.14630696 0.31527808 -0.77942145 0.07660432 0.07359262 -0.19001289 0.025812667 0.34285718 -0.14315322 -0.32690755 0.030174356 0.084121525 -0.23029596 -0.3970901 -0.6561163 -0.18617243 0.41204855 0.2407552 -0.44000196 -0.12159579 -0.12838143 -0.3583087 0.41029525 0.23823924 0.19426191 -0.2184146 -0.24636817 -0.13088109
um -0.43995404 -0.031349603 -0.48904017 0.091998465 0.27156463 0.1427594 -0.07511462 -0.33367133 0.15764405 0.08720039 0.032816775 0.25926507 -0.08646726 -0.14624758 0.02247278 -0.100286566 0.16592062 -0.16087452 -0.6323745 0.33317938 -0.25042853 -0.47051004 0.26224673 0.43088454 -0.09200526 0.6671729 0.5731877 -0.041081347 -0.28967592 -0.063620046 -0.43947992 -0.1234378 -0.55721104 0.11629391 0.1981831 -0.21666348 -0.24991475 -0.05208853 0.060032684 0.124718636 0.25768203 0.1803025 0.3706453 0.1376764 0.20832883 0.007261235 0.13199303 0.1799283 0.58274424 -0.27480802 0.3320005 -0.5708027 0.108983226 -0.20259869 0.30875188 -0.007931027 0.29513225 -0.09384298 -0.21916223 0.21077244 0.06544171 -0.17696312 -0.24956755 -0.16738507 -0.00045537515 -0.19326979 0.0078805 0.21614939 0.012694434 0.14069934 -0.016581148 -0.29019177 -0.21072154 -0.3954223 -0.8291991 0.18376172 -0.03327872 0.13555737 -0.39666703 -0.3182115 -0.18600667 0.24337117 0.23882563 -0.14918754 -0.43255067 -0.15041983 -0.29479802 -0.24241534 0.36916694 0.036743965 -0.01385523 -0.6237881 -0.22785103 -0.30266455 -0.38270488 0.2989079 -0.4038715 -0.084104285 0.4510559 0.20189327 0.13656461 0.2043999 -0.109921284 0.03357926 -0.4309225 0.043454207 -0.21863145 0.07546459 0.0439967 -0.029135257 -0.18591966 -0.053365897 -0.16914424 0.0684234 0.20476036 0.04582631 -0.063075215 -0.17199628 0.009224732 -0.5156413 -0.25647292 -0.18837376 -0.051251646 -0.06922187 -0.030326962 0.5245641 -0.23832537 0.020893844 0.1393261 0.032128632 -0.06549428 0.14401083 0.18934648 0.60811013 -0.26083446 0.0786464 0.3713711 -0.37786645 -0.17780586 0.3736632 0.14716104 -0.31536454 -0.022961667 -0.19329552 -0.43966556 -0.2490902 0.20936327 -0.38311788 -0.36803564 0.18481325 -0.49897105 -0.06472282 0.5139299 -0.10869852 0.0016691028 -0.19493495 0.04223126 -0.57711995 0.1880996 0.39875132 -0.253258 0.060399856 0.30431837 0.643028 0.093885586 -0.20294918 0.24961863 0.21280763 -0.032324754 -0.028895644 0.3164766 0.20119809 0.123436 0.2746572 -0.6747458 0.067018986 0.065526694 -0.16516797 0.021207374 0.2969724 -0.12338161 -0.2855677 0.024962703 0.07188332 -0.20179228 -0.34526438 -0.567452 -0.15887478 0.3594631 0.20863135 -0.38356897 -0.10820284 -0.11095251 -0.30914074 0.35716072 0.20612544 0.16744214 -0.18809575 -0.21071652 -0.112543054
da -0.4232075 -0.029693877 -0.4724045 0.0902246 0.25946152 0.13619542 -0.072420746 -0.3193316 0.14793882 0.079832666 0.033316538 0.24637958 -0.08596975 -0.14016546 0.019543765 -0.09721188 0.15852042 -0.1530047 -0.60664415 0.3200775 -0.23990951 -0.45298776 0.2523099 0.4111119 -0.08807907 0.638126 0.55228674 -0.043146446 -0.27450863 -0.05928807 -0.42125866 -0.117762625 -0.5342321 0.110572614 0.19083144 -0.20538943 -0.2352771 -0.049342766 0.054352958 0.11894627 0.2427245 0.1712132 0.3540695 0.1300994 0.20099814 0.00910267 0.12760246 0.1717351 0.5565649 -0.26604164 0.3156535 -0.54743207 0.10451279 -0.19656043 0.29538932 -0.004088204 0.28277898 -0.09072336 -0.20881167 0.20043194 0.060871016 -0.17145614 -0.23660973 -0.15984084 0.0014911294 -0.18384358 0.009063048 0.20478366 0.011620736 0.13441232 -0.016225304 -0.27913964 -0.2021386 -0.3772944 -0.7961389 0.17548175 -0.035328906 0.12816502 -0.38102832 -0.304944 -0.17774288 0.23222455 0.22733988 -0.14140314 -0.41800693 -0.14595126 -0.28254947 -0.23229975 0.35268316 0.036386184 -0.011230803 -0.5964956 -0.21811756 -0.29375273 -0.36649486 0.28650218 -0.38489652 -0.083057575 0.43365097 0.19375184 0.13188775 0.19831976 -0.10362905 0.034045473 -0.4126261 0.03883108 -0.20964958 0.07269527 0.04334667 -0.028830647 -0.1782516 -0.050836194 -0.16213505 0.0640382 0.19672683 0.04541139 -0.06402383 -0.16555671 0.0100176195 -0.4901101 -0.24629308 -0.17875637 -0.04903767 -0.07020771 -0.02939185 0.5007249 -0.23072551 0.018930025 0.1336511 0.03091141 -0.059495866 0.13538472 0.17848988 0.58223444 -0.24518934 0.07336011 0.35145825 -0.36195183 -0.17106488 0.35750577 0.13867329 -0.30384216 -0.023055539 -0.18501768 -0.4243777 -0.23797232 0.20272118 -0.36473617 -0.35388437 0.17523673 -0.4766054 -0.061430987 0.49122676 -0.107793845 0.0013095383 -0.18852443 0.039163273 -0.5518162 0.1819263 0.3833031 -0.24294649 0.05791684 0.29173675 0.6177796 0.089318454 -0.1945676 0.2381643 0.20687921 -0.033450957 -0.02750907 0.30478585 0.19428183 0.12136586 0.2637656 -0.6474634 0.06541715 0.06131849 -0.15857652 0.020777382 0.2843846 -0.12248217 -0.27236944 0.026996104 0.067371696 -0.19283716 -0.330669 -0.54235977 -0.15589313 0.3448011 0.19599468 -0.36829755 -0.10396987 -0.10738857 -0.29438788 0.3429519 0.19839741 0.16181277 -0.18170975 -0.20484494 -0.110334896
boa -0.23779216 -0.016374705 -0.2658023 0.05010507 0.1496673 0.077445365 -0.03820619 -0.18142888 0.08741166 0.048568998 0.016292356 0.14076214 -0.048100717 -0.08083679 0.008761092 -0.053309355 0.088187516 -0.0846124 -0.3460113 0.18388815 -0.13817565 -0.25763017 0.14275679 0.23668055 -0.050666183 0.36413553 0.3161034 -0.02319367 -0.15682165 -0.034765493 -0.23738864 -0.068356335 -0.30488932 0.06186085 0.107760556 -0.117707476 -0.13754494 -0.03129235 0.02970352 0.066984124 0.13714567 0.099075556 0.20067692 0.07497877 0.11588382 0.0020837775 0.072444476 0.09863636 0.31830716 -0.14925936 0.18203521 -0.31053737 0.05778895 -0.10912219 0.16911012 -0.005850479 0.16279541 -0.050605074 -0.11747224 0.11597797 0.036107477 -0.097897805 -0.1361724 -0.09122214 2.396424e-05 -0.107533045 0.0069820336 0.11852708 0.008996633 0.07507375 -0.009805359 -0.15853739 -0.11344146 -0.21877764 -0.45220444 0.10148985 -0.019394431 0.07265845 -0.21548553 -0.17715578 -0.10042087 0.13378581 0.13139068 -0.080319904 -0.23444673 -0.0831261 -0.1635999 -0.13327798 0.20386735 0.018775744 -0.004855335 -0.3418073 -0.12421742 -0.16448414 -0.21120481 0.16242383 -0.22026983 -0.0461716 0.24708217 0.10888415 0.077822275 0.112471834 -0.05877339 0.01641666 -0.23778787 0.021465207 -0.11787237 0.038943242 0.023244772 -0.017529866 -0.10053374 -0.02931748 -0.09545038 0.0355727 0.11206802 0.024497718 -0.035004094 -0.096987456 0.004587325 -0.28152403 -0.14198288 -0.100053884 -0.025517942 -0.037277475 -0.014174205 0.28609973 -0.13160723 0.011105789 0.07439258 0.018445307 -0.034268122 0.079604566 0.10318573 0.33320022 -0.14276184 0.0398519 0.20049791 -0.2067185 -0.09511658 0.20537104 0.07862165 -0.17287503 -0.013174131 -0.105231926 -0.23887442 -0.13793288 0.115156256 -0.21086644 -0.20126414 0.10033352 -0.27174157 -0.032723363 0.28270245 -0.061865967 0.0005241401 -0.10858156 0.022497851 -0.31267548 0.10317984 0.21840711 -0.13522351 0.0335159 0.16635853 0.34864816 0.05069901 -0.10966379 0.1378073 0.1199101 -0.020437343 -0.018749235 0.17446397 0.108821645 0.06679567 0.15172358 -0.36961192 0.03797316 0.0375449 -0.088599294 0.011967811 0.15963107 -0.06937151 -0.1544382 0.01710956 0.03698805 -0.11017747 -0.1899974 -0.31111947 -0.08853754 0.19352315 0.11363185 -0.21170114 -0.05790362 -0.057579797 -0.16714309 0.19652382 0.11101204 0.09364704 -0.10294559 -0.117776915 -0.06475408
antes -0.24937254 -0.018597268 -0.27646068 0.055569824 0.14904383 0.0775509 -0.041208692 -0.18626869 0.08574853 0.04865202 0.020266356 0.14376143 -0.049003523 -0.08051421 0.012655691 -0.054997697 0.08847963 -0.0880406 -0.35660273 0.18969296 -0.1402948 -0.26366958 0.14734827 0.23729172 -0.05210504 0.37062952 0.32479912 -0.024837807 -0.16073069 -0.032374367 -0.24840333 -0.07168683 -0.31310964 0.06582054 0.11358624 -0.123301044 -0.14053604 -0.03118453 0.03280672 0.069143526 0.1440962 0.09967331 0.20970064 0.07731279 0.11915252 0.0016714163 0.07475731 0.09728819 0.32524768 -0.15564686 0.18606403 -0.32030028 0.058667995 -0.1158772 0.17355217 -0.0011236357 0.16406162 -0.049647395 -0.120900966 0.11869951 0.038192257 -0.10013504 -0.13625555 -0.09033005 0.0012695539 -0.11073256 0.002769228 0.11543714 0.010022535 0.08008461 -0.012181697 -0.16275276 -0.11857704 -0.21956722 -0.4671783 0.1024922 -0.021924691 0.07760938 -0.22127187 -0.1794555 -0.10443164 0.13641123 0.13269265 -0.081201784 -0.24604507 -0.08640573 -0.16428348 -0.13490589 0.20607482 0.01894383 -0.006616364 -0.34737253 -0.12605543 -0.17000479 -0.21695516 0.16823764 -0.22613402 -0.047357652 0.25109693 0.11662607 0.07918704 0.11304899 -0.06270169 0.020213353 -0.24120569 0.027219493 -0.124100074 0.038665354 0.027643017 -0.016828991 -0.10685759 -0.02934683 -0.09493567 0.03484431 0.11683187 0.026976688 -0.033436112 -0.098169826 0.008966958 -0.2851442 -0.14263026 -0.10447525 -0.02900662 -0.042345773 -0.013903033 0.29548487 -0.134944 0.008724608 0.07624579 0.018826485 -0.036061995 0.07939294 0.102164276 0.3379194 -0.14107966 0.044764236 0.204948 -0.21473004 -0.09828629 0.20984115 0.08247306 -0.17644878 -0.014455431 -0.106452964 -0.24759014 -0.14043711 0.119063295 -0.21573286 -0.20647663 0.103333905 -0.2775855 -0.032815956 0.2895007 -0.06490822 0.0005445906 -0.107421756 0.025813252 -0.31943125 0.103536926 0.22483283 -0.13888118 0.03618749 0.17203349 0.35720408 0.05532476 -0.11388538 0.13998881 0.11806384 -0.018581241 -0.014826128 0.17778844 0.11231256 0.06947176 0.15248011 -0.3810074 0.0352776 0.036325164 -0.08901274 0.01085918 0.16844328 -0.0727711 -0.15794471 0.015771016 0.03963321 -0.113694556 -0.19318344 -0.31980994 -0.09011268 0.19893579 0.114932716 -0.21280016 -0.0582389 -0.06432846 -0.1716813 0.19968757 0.11449561 0.09625797 -0.10823919 -0.119774185 -0.06587761
bom -0.2968405 -0.022094617 -0.33075184 0.06299246 0.18033542 0.09431547 -0.050717726 -0.2268403 0.10376351 0.060108088 0.024378207 0.17521612 -0.060589664 -0.09542471 0.015438473 -0.06964264 0.10894441 -0.10626534 -0.4265852 0.22500671 -0.16822413 -0.31994677 0.17590863 0.2898807 -0.06152468 0.4509999 0.39021304 -0.030059379 -0.19397648 -0.04041554 -0.29717442 -0.086830534 -0.37674385 0.07810374 0.13581245 -0.14401148 -0.16820247 -0.03391259 0.03868906 0.08379289 0.17445673 0.11853505 0.24757384 0.09275752 0.13976058 0.003963923 0.08738904 0.12158239 0.3929957 -0.18545924 0.22300294 -0.3835572 0.07504343 -0.13942601 0.20974313 -0.003865637 0.20131063 -0.06378172 -0.14904606 0.14254065 0.045174945 -0.12115037 -0.16792662 -0.10875526 0.0010840152 -0.13360941 0.005877937 0.14286242 0.006925441 0.09357217 -0.010820555 -0.19433475 -0.14247692 -0.26968804 -0.56014085 0.12710857 -0.021960804 0.0918931 -0.2664018 -0.21908969 -0.1252594 0.16234182 0.15964091 -0.102684036 -0.29534203 -0.103219464 -0.20235178 -0.16259718 0.24882923 0.025789808 -0.00983698 -0.4209175 -0.15198047 -0.20568398 -0.259524 0.20342605 -0.27111065 -0.059910838 0.30708048 0.13748871 0.09300845 0.1395597 -0.07464125 0.021278562 -0.29051277 0.02717115 -0.14849399 0.05259092 0.032206833 -0.021426134 -0.1252938 -0.036977433 -0.11518559 0.043620553 0.14160654 0.032185674 -0.044656064 -0.11721985 0.0064312154 -0.34697676 -0.1742479 -0.12385224 -0.032436214 -0.048106488 -0.017990327 0.35432974 -0.1645299 0.013365301 0.09386517 0.01985925 -0.04510522 0.09851965 0.12716456 0.41119066 -0.17413539 0.052002054 0.24926361 -0.25766692 -0.118170165 0.2543677 0.09697182 -0.21080324 -0.015441674 -0.12873168 -0.29507184 -0.1685529 0.14268138 -0.26025772 -0.24882878 0.12155417 -0.3348564 -0.0453358 0.34499425 -0.074764416 0.00040015767 -0.13380215 0.026874725 -0.3888746 0.12663819 0.27035752 -0.1713301 0.039183874 0.2075625 0.43313277 0.06686134 -0.13873337 0.16961028 0.14513357 -0.021574177 -0.022127736 0.21724261 0.13559906 0.08442895 0.18437736 -0.4560058 0.04548242 0.045764085 -0.11074597 0.013195174 0.20157157 -0.0839667 -0.18921804 0.015834691 0.047533426 -0.13759528 -0.23269202 -0.38232377 -0.10632396 0.24051982 0.14116645 -0.2603959 -0.074470125 -0.07466176 -0.21074648 0.24222173 0.14080839 0.113173485 -0.13019139 -0.14600384 -0.079815164
excelente -0.2667542 -0.017657585 -0.2975731 0.05648463 0.16497728 0.087860905 -0.047163937 -0.20433472 0.09343243 0.049578145 0.021499936 0.1550032 -0.052715775 -0.08778146 0.010744561 -0.06184719 0.101618186 -0.094253704 -0.3854314 0.20095606 -0.15119818 -0.28748447 0.15747881 0.25905368 -0.05677104 0.40695265 0.35153368 -0.027508445 -0.17685708 -0.036620855 -0.26680872 -0.07642989 -0.3351623 0.07070641 0.1190368 -0.12981634 -0.15207446 -0.034257133 0.036390148 0.07327163 0.1554475 0.105901115 0.22566399 0.085971974 0.12960948 0.0041000824 0.079108335 0.10749182 0.35333025 -0.16784054 0.19958211 -0.34845066 0.06416963 -0.12281365 0.18804608 -0.004509263 0.18011884 -0.05655337 -0.13228026 0.12520008 0.04129163 -0.11110688 -0.15256527 -0.09899005 -0.00010885944 -0.119938724 0.00751315 0.12972075 0.008400339 0.08202519 -0.01328724 -0.17405447 -0.1277435 -0.24236181 -0.5046829 0.11386482 -0.02265519 0.07925428 -0.24278288 -0.19611306 -0.11404873 0.14880195 0.14453813 -0.090314016 -0.26176384 -0.0933552 -0.17979376 -0.1468678 0.22626668 0.023779672 -0.005547658 -0.38101512 -0.13705222 -0.18633868 -0.2330595 0.18354769 -0.24412447 -0.05106131 0.27230504 0.12291625 0.084436946 0.1253691 -0.06821873 0.022144297 -0.25982255 0.024699112 -0.13577282 0.04717891 0.027500618 -0.016988488 -0.114454485 -0.03491868 -0.10310929 0.04145552 0.12763159 0.027883753 -0.03981286 -0.10603862 0.0068111275 -0.3131773 -0.1560157 -0.11309856 -0.031207724 -0.045960464 -0.015257237 0.31858668 -0.14810908 0.009094751 0.08403699 0.01904026 -0.038985707 0.08390591 0.114741884 0.36733255 -0.15429635 0.046645876 0.2247359 -0.22939338 -0.1059466 0.2287114 0.090798676 -0.19128445 -0.012320024 -0.11448409 -0.26715708 -0.15299426 0.12760605 -0.23336713 -0.22489816 0.111618616 -0.3006215 -0.038802024 0.31228802 -0.067744516 0.0019783704 -0.11909856 0.027483646 -0.3505339 0.11279775 0.24184938 -0.1527067 0.03559784 0.1867359 0.38773885 0.059937872 -0.12559421 0.15054122 0.13277812 -0.022131769 -0.018184848 0.19432826 0.12514439 0.074513055 0.16922785 -0.40913185 0.04150302 0.03833448 -0.099641025 0.01040296 0.18175724 -0.07851988 -0.17061134 0.016315775 0.046162385 -0.12430484 -0.20983812 -0.3464012 -0.09982959 0.2175821 0.12457469 -0.23146506 -0.063504376 -0.06475462 -0.18662044 0.21917398 0.12656648 0.103782184 -0.113879755 -0.1313681 -0.06844983
chegou -0.26902622 -0.018300636 -0.30384502 0.059633598 0.16568507 0.086014576 -0.048234973 -0.20770098 0.09318416 0.052308958 0.021500325 0.15968356 -0.052506674 -0.08859734 0.0106379315 -0.06489866 0.1007121 -0.0986497 -0.39039594 0.20436716 -0.15605055 -0.2893606 0.16154365 0.26355407 -0.0567865 0.40982214 0.3552945 -0.024343789 -0.17789525 -0.036203574 -0.26847786 -0.07982415 -0.3442028 0.072780706 0.122126885 -0.13174619 -0.15381679 -0.03146409 0.034206454 0.07659808 0.15836512 0.110554375 0.22975333 0.085759826 0.12730509 0.0056774495 0.08265742 0.10807856 0.36009195 -0.17227076 0.2055664 -0.3504117 0.067006364 -0.12744604 0.18840559 -0.003519527 0.18017127 -0.058743272 -0.13231798 0.12797523 0.039700896 -0.111647286 -0.14991845 -0.10271663 -0.002322838 -0.122049384 0.0058193305 0.12879945 0.006344051 0.08420964 -0.01077274 -0.17912936 -0.13041002 -0.24539892 -0.5096363 0.11346581 -0.021327825 0.08218638 -0.24608046 -0.19887559 -0.11517785 0.15091297 0.14864603 -0.09185219 -0.26901764 -0.094749525 -0.18388328 -0.14945427 0.22738233 0.02284412 -0.0065012057 -0.38298082 -0.13678446 -0.18484603 -0.23664711 0.18463738 -0.24801414 -0.05618264 0.28041112 0.12759113 0.0868065 0.12543888 -0.06957566 0.022248778 -0.2644769 0.028522816 -0.13576509 0.045168445 0.02865388 -0.020018045 -0.11593691 -0.033357583 -0.10408894 0.04121008 0.12778032 0.029754873 -0.039362095 -0.104865626 0.007451675 -0.31272584 -0.15579836 -0.11540877 -0.029467802 -0.0462676 -0.019762028 0.32012576 -0.14913069 0.012429257 0.08275616 0.020794531 -0.039562248 0.08771195 0.11218666 0.3711041 -0.15499604 0.049245074 0.22461513 -0.23348993 -0.11114386 0.23340379 0.088321716 -0.19143224 -0.011430643 -0.119163714 -0.2731239 -0.1551004 0.12880465 -0.23335424 -0.22649752 0.11027919 -0.30655864 -0.039235897 0.31526175 -0.06892727 -0.00067519944 -0.12198781 0.025979744 -0.3526127 0.112765945 0.24713416 -0.15273926 0.034410276 0.18567239 0.39501077 0.05995073 -0.12542889 0.15482475 0.1349146 -0.019246265 -0.017901825 0.19805722 0.12682869 0.07507352 0.17005591 -0.4194715 0.039361123 0.040147357 -0.10242197 0.011155438 0.18345132 -0.076420285 -0.17375182 0.0147554595 0.045773372 -0.12416492 -0.21110748 -0.35031036 -0.10130554 0.22122711 0.12954403 -0.23675977 -0.06432291 -0.066302426 -0.18924567 0.22233352 0.127936 0.10653474 -0.1178826 -0.13267606 -0.069620274
otima -0.24526784 -0.018740328 -0.27568772 0.05346259 0.1510636 0.07728765 -0.03987112 -0.18410745 0.08801115 0.0457705 0.018246839 0.14165825 -0.048696503 -0.08271033 0.012168717 -0.057890225 0.091263264 -0.08653346 -0.35235968 0.18812734 -0.13934857 -0.2632353 0.14896302 0.24083503 -0.052684937 0.37251553 0.32136407 -0.02464785 -0.15847586 -0.03534299 -0.24560396 -0.068105586 -0.31075332 0.065439016 0.111796625 -0.11873458 -0.13906512 -0.029742263 0.03413019 0.068759486 0.14373319 0.09934013 0.20415227 0.07840942 0.11797032 0.0014383515 0.07433627 0.10086052 0.32178912 -0.15613133 0.18159607 -0.31717122 0.059449892 -0.115628645 0.17349856 -0.0021821447 0.16612318 -0.051064163 -0.12355286 0.115700275 0.037253015 -0.09872596 -0.14122283 -0.08950738 0.00041902254 -0.11013136 0.004451992 0.11975453 0.008152881 0.07879131 -0.008474701 -0.16051738 -0.11751621 -0.2217108 -0.45945743 0.104608834 -0.019057885 0.07633975 -0.2184084 -0.1789581 -0.10554969 0.13611743 0.1346797 -0.08367443 -0.2438104 -0.082088254 -0.16566041 -0.13440074 0.20416142 0.02273749 -0.006394306 -0.3461474 -0.12801008 -0.17004873 -0.21435632 0.16322279 -0.2259302 -0.049135726 0.25190517 0.11435223 0.07556587 0.11439395 -0.05899294 0.018263511 -0.24169426 0.022862254 -0.12415261 0.04172023 0.026206877 -0.016035438 -0.105337374 -0.031172121 -0.09360229 0.036161136 0.11566639 0.023183564 -0.03860155 -0.09661801 0.0068689985 -0.28630894 -0.14347363 -0.10649911 -0.027506832 -0.038828455 -0.014228015 0.29052946 -0.135805 0.011017394 0.07542757 0.016350036 -0.037968665 0.080450654 0.105166234 0.33571 -0.1434423 0.04543002 0.20626754 -0.21214834 -0.100655764 0.21160947 0.08041378 -0.17514318 -0.014413481 -0.10709373 -0.24399509 -0.14163853 0.11887927 -0.21183658 -0.20393138 0.10208569 -0.27759814 -0.03755464 0.2877408 -0.064374246 0.0024175015 -0.109817676 0.02605799 -0.32138708 0.1060609 0.21946733 -0.1415203 0.03601335 0.16847792 0.35964647 0.053827256 -0.1145341 0.1383919 0.11752409 -0.017111389 -0.018110208 0.17567423 0.115081064 0.06940798 0.15305962 -0.37525728 0.036874577 0.03784655 -0.09006671 0.013153187 0.16713691 -0.06911295 -0.15933827 0.014731625 0.04127409 -0.11237637 -0.19123551 -0.31657743 -0.08690737 0.20094576 0.11422039 -0.2155817 -0.058076993 -0.06345337 -0.1746517 0.19987166 0.11359575 0.09214972 -0.10776247 -0.118505366 -0.06274618
bem -0.3479172 -0.023510069 -0.38971177 0.073832765 0.21470912 0.11480196 -0.061231922 -0.26408902 0.12150883 0.06886816 0.026169008 0.20385943 -0.0691796 -0.115513906 0.014686448 -0.080482304 0.12908612 -0.12463511 -0.5005838 0.26329097 -0.19821478 -0.37180048 0.20788915 0.33631924 -0.07357294 0.52583945 0.4547206 -0.03620927 -0.22821547 -0.049332343 -0.3466014 -0.09715874 -0.43994436 0.093681015 0.15710665 -0.17155877 -0.19617659 -0.04074895 0.0442307 0.09840773 0.20382136 0.13824287 0.2901702 0.11067326 0.16645533 0.00702486 0.105547436 0.14137752 0.45706108 -0.22065125 0.26280105 -0.45137873 0.085958675 -0.15968154 0.24422666 -0.0027217676 0.23163036 -0.073404826 -0.17228357 0.16716215 0.051650923 -0.14224717 -0.19815964 -0.12795764 -0.002762531 -0.1532523 0.00639235 0.16538163 0.0078098075 0.11228069 -0.016666362 -0.23099339 -0.16792908 -0.31141832 -0.6566521 0.1485341 -0.028673286 0.104073785 -0.31427377 -0.25218076 -0.14720094 0.19426565 0.18729235 -0.114477366 -0.34296706 -0.11871845 -0.23325679 -0.18871674 0.29138204 0.02780518 -0.010590045 -0.49177283 -0.18029146 -0.2426733 -0.30178067 0.23352899 -0.3184948 -0.069043145 0.35838592 0.16199732 0.109938025 0.16414261 -0.08937295 0.030144244 -0.33930025 0.033319477 -0.17442846 0.059726495 0.0351125 -0.022382304 -0.14775424 -0.042754196 -0.13259861 0.052567903 0.16077384 0.035005342 -0.051016577 -0.1383274 0.0073253377 -0.4025968 -0.20059563 -0.14971036 -0.040434703 -0.057532735 -0.022974484 0.4127948 -0.19178167 0.013093305 0.10950987 0.025369607 -0.05108392 0.11089219 0.14882217 0.47958395 -0.20057872 0.058797386 0.29174137 -0.29948372 -0.1397827 0.29704288 0.116329655 -0.2511822 -0.018406278 -0.14845264 -0.34569627 -0.19660799 0.16590546 -0.2984155 -0.28825623 0.14302221 -0.3940564 -0.05101345 0.40359318 -0.08913002 -0.0011101158 -0.15424405 0.03548127 -0.45183843 0.1503246 0.31352717 -0.19861534 0.04711446 0.23722576 0.50912094 0.076857924 -0.16222462 0.19597483 0.16789003 -0.027743217 -0.025797438 0.25132754 0.1581476 0.09650325 0.21765423 -0.5339144 0.053102702 0.05019162 -0.12993115 0.018773584 0.23414907 -0.09934387 -0.2248595 0.023550417 0.059296902 -0.15885468 -0.2706613 -0.4501084 -0.12872374 0.2837795 0.16530141 -0.30449882 -0.08551613 -0.08616143 -0.24560618 0.28400627 0.16183047 0.13629505 -0.14922756 -0.16975111 -0.092169
som -0.35224247 -0.02516036 -0.39068237 0.077472955 0.21501225 0.115409665 -0.0591277 -0.26786715 0.12214642 0.0664581 0.025459249 0.2044047 -0.07302946 -0.1154633 0.016439782 -0.08002435 0.13135947 -0.12533015 -0.5070661 0.26567996 -0.20206532 -0.37810493 0.20913124 0.34538138 -0.076605454 0.5322552 0.45731395 -0.032625295 -0.23151226 -0.04956025 -0.35281223 -0.10139579 -0.4435546 0.091585204 0.15654929 -0.17394923 -0.19912711 -0.040210783 0.047125902 0.099753484 0.20263647 0.1421121 0.29306796 0.1120092 0.16727582 0.0061111115 0.105254576 0.14052513 0.46318188 -0.21993443 0.2653263 -0.45647478 0.087104216 -0.16336429 0.24507788 -0.003392704 0.2355373 -0.07469466 -0.17459488 0.16480954 0.053869348 -0.1433118 -0.20065252 -0.13377014 0.0004236443 -0.15600617 0.0055699316 0.17273009 0.012543543 0.10865995 -0.013019303 -0.2300575 -0.16740523 -0.31564137 -0.6622925 0.1462782 -0.03027004 0.10465249 -0.3170486 -0.25473988 -0.1462791 0.19557449 0.19269569 -0.12104751 -0.3476104 -0.12196818 -0.2384642 -0.19325133 0.29556116 0.02830208 -0.008134203 -0.49842232 -0.1827198 -0.24234076 -0.30794522 0.23694082 -0.32305613 -0.06793568 0.35994822 0.16414319 0.11135656 0.16434553 -0.086689435 0.02656786 -0.34351626 0.033325966 -0.17846456 0.057497233 0.03450809 -0.021928605 -0.14732073 -0.044508573 -0.13381355 0.05283296 0.16312301 0.03864307 -0.05055421 -0.13743703 0.01013835 -0.41276938 -0.20314728 -0.15019177 -0.039039686 -0.05823209 -0.023859644 0.4174884 -0.19423726 0.017798955 0.10970671 0.025688844 -0.05150576 0.11519936 0.14952488 0.48555928 -0.20608152 0.06336106 0.29322904 -0.3045493 -0.14091367 0.29883122 0.11683206 -0.2531834 -0.015854336 -0.15183981 -0.35117522 -0.20275629 0.16745742 -0.30267423 -0.29262054 0.14805163 -0.40012556 -0.052389085 0.4109899 -0.090515286 -0.0007176487 -0.15719038 0.034066454 -0.45620957 0.15013976 0.32020947 -0.20038456 0.05157559 0.24478012 0.51418215 0.07583622 -0.16232684 0.20062181 0.1700269 -0.027548037 -0.02324629 0.2522032 0.16251987 0.10139223 0.22106823 -0.54036397 0.052102007 0.052896146 -0.13151035 0.014893389 0.23693196 -0.1006031 -0.22760302 0.021890871 0.058219653 -0.16245982 -0.2755433 -0.45299587 -0.13002627 0.2875051 0.16667207 -0.3076934 -0.0847835 -0.086235926 -0.24572732 0.28525776 0.16620532 0.1343089 -0.15037654 -0.16865674 -0.089101695
as -0.43307897 -0.032626316 -0.48711613 0.09060992 0.26590705 0.14263663 -0.07121035 -0.33355173 0.15635401 0.08651163 0.029807433 0.25599688 -0.087462194 -0.14442118 0.0224663 -0.10109645 0.1637549 -0.1581009 -0.62482595 0.33072087 -0.24745691 -0.4665471 0.26208362 0.4235774 -0.095282905 0.66019565 0.5676703 -0.0423311 -0.28638136 -0.061944995 -0.43772417 -0.12509915 -0.5494995 0.115981355 0.20052211 -0.21423715 -0.24252766 -0.053787876 0.05567198 0.12170662 0.24999705 0.17746727 0.36584866 0.13982807 0.20409124 0.005199386 0.13324843 0.17661342 0.576236 -0.272739 0.32589728 -0.56420165 0.10623579 -0.20225205 0.3030737 -0.00898831 0.29310083 -0.09356204 -0.21509773 0.20663822 0.06433568 -0.17529158 -0.24608952 -0.1654758 -0.0015341243 -0.19282131 0.008110254 0.2081331 0.01118408 0.1374381 -0.020568857 -0.28716305 -0.20548533 -0.3938739 -0.82168 0.18554431 -0.03392516 0.1301396 -0.38984606 -0.31793562 -0.18521541 0.24151336 0.23435587 -0.14820468 -0.43096507 -0.1481448 -0.29135555 -0.23798442 0.36664894 0.033905055 -0.011191046 -0.6196454 -0.2223685 -0.2994325 -0.37689725 0.29669267 -0.39760754 -0.08551733 0.4482875 0.20117901 0.13421977 0.20736948 -0.10774238 0.03360673 -0.42586407 0.04203087 -0.21869062 0.074387155 0.0446426 -0.027265234 -0.18791553 -0.055517916 -0.16823006 0.06510007 0.20391043 0.047126256 -0.064113945 -0.16863969 0.008155556 -0.5093819 -0.25257248 -0.1840181 -0.053170647 -0.06977149 -0.030141093 0.5144909 -0.2383509 0.017298965 0.13530006 0.029001128 -0.06518758 0.14058687 0.18341571 0.6020643 -0.25288883 0.07848564 0.36211872 -0.3773821 -0.17503187 0.37366655 0.14161083 -0.30997854 -0.019235963 -0.18811357 -0.4343963 -0.24878345 0.21057108 -0.3777011 -0.36189434 0.17886874 -0.4933683 -0.063262574 0.50897557 -0.10814535 -0.0004124583 -0.19375797 0.044425134 -0.5705396 0.18735516 0.39227018 -0.249324 0.059773352 0.2993869 0.6368875 0.09393079 -0.19931751 0.24888885 0.21561247 -0.03209518 -0.03149572 0.3140785 0.20001762 0.12549894 0.27460667 -0.66940945 0.06632608 0.0631474 -0.16099662 0.024274038 0.2903653 -0.12624466 -0.28328422 0.028469343 0.07037352 -0.20127426 -0.3428774 -0.5629047 -0.15942341 0.35345572 0.2037483 -0.3773515 -0.10620358 -0.106995106 -0.3069912 0.35279065 0.20500861 0.16641386 -0.18635 -0.20821305 -0.11310718
mas -0.46139702 -0.03171824 -0.5127035 0.09924145 0.28017277 0.14654705 -0.078032136 -0.35094428 0.16419004 0.09122293 0.034723155 0.26668954 -0.09151421 -0.15356973 0.01920518 -0.10671753 0.17074923 -0.16757491 -0.6596552 0.34833553 -0.26196405 -0.49303812 0.2759966 0.44894502 -0.09698698 0.69864076 0.6027555 -0.047474887 -0.3027523 -0.06548994 -0.4583716 -0.13050827 -0.58303314 0.11890773 0.20952351 -0.22489439 -0.26067546 -0.055351097 0.06049634 0.12896718 0.26632956 0.18449475 0.38400343 0.1454454 0.22070047 0.0059949895 0.1396918 0.18881328 0.60965896 -0.2872666 0.34610215 -0.59600556 0.11442368 -0.21514551 0.32139468 -0.009102893 0.30779505 -0.098363444 -0.22924939 0.2195433 0.06669902 -0.18773848 -0.26233917 -0.17446174 -0.0018921115 -0.20116384 0.011378427 0.22273369 0.01216361 0.14324111 -0.019449433 -0.30264837 -0.22174981 -0.41616324 -0.8680558 0.19230834 -0.03787042 0.13873364 -0.41346928 -0.33483487 -0.19540225 0.25473833 0.25115246 -0.15644906 -0.45526963 -0.15906239 -0.30847624 -0.25044328 0.38748625 0.03703214 -0.012198155 -0.65425324 -0.23818235 -0.32108814 -0.40270492 0.31260428 -0.41954497 -0.09087972 0.4694872 0.21280135 0.1464014 0.21419355 -0.11362486 0.03419404 -0.45018932 0.04632661 -0.23341218 0.079821974 0.04387722 -0.029168395 -0.1937923 -0.059398502 -0.17596546 0.06775493 0.21820477 0.049457368 -0.06981525 -0.18348604 0.010042838 -0.5355708 -0.26905522 -0.19715066 -0.0522656 -0.07273893 -0.032041956 0.54739785 -0.2525642 0.01925181 0.14585568 0.031032577 -0.06611809 0.15032576 0.19690685 0.63445354 -0.2727595 0.080882065 0.386054 -0.39769197 -0.18492252 0.39478293 0.1504201 -0.3310439 -0.024772532 -0.19987018 -0.46035537 -0.26189956 0.22303684 -0.40127632 -0.38533136 0.19403826 -0.5215649 -0.063818686 0.53795403 -0.11617961 0.0015569197 -0.20341831 0.0476511 -0.6012432 0.1976501 0.4137861 -0.2635199 0.06586557 0.3176826 0.67469543 0.09754174 -0.21086028 0.26414093 0.22442254 -0.038565777 -0.030176472 0.3345475 0.21051666 0.13160904 0.28905454 -0.70869607 0.07130759 0.06550067 -0.17121382 0.02146061 0.30872783 -0.13244842 -0.2980914 0.02972295 0.07592654 -0.21168485 -0.36227837 -0.5921318 -0.16946372 0.3737721 0.21828009 -0.40251443 -0.1100722 -0.1144159 -0.32214093 0.37260872 0.21849091 0.1761601 -0.19633062 -0.22271232 -0.120134994
no -0.43700802 -0.029617183 -0.48603874 0.0951094 0.26633748 0.14295198 -0.073293746 -0.3330523 0.15211885 0.084281705 0.029860135 0.25491574 -0.08565117 -0.14231181 0.01840406 -0.09883359 0.1604637 -0.15829897 -0.62611735 0.33260286 -0.24768986 -0.46496078 0.26028025 0.4235983 -0.0937551 0.66163987 0.57222193 -0.04302639 -0.2862549 -0.06222867 -0.4379517 -0.122373044 -0.5495631 0.11359162 0.19641535 -0.21511388 -0.24311316 -0.05157354 0.060181193 0.12372884 0.25455943 0.17852399 0.3652456 0.13647924 0.20745715 0.007964998 0.13039109 0.17907356 0.57427824 -0.27481937 0.32704374 -0.56573343 0.105542794 -0.20324272 0.30699614 -0.0062762625 0.2933246 -0.09048677 -0.21517245 0.20873177 0.06170608 -0.17869708 -0.24746229 -0.1634341 0.0011957495 -0.19057934 0.0070669716 0.21177202 0.013850983 0.1379216 -0.016497716 -0.28687274 -0.20818156 -0.39511415 -0.8243703 0.18396918 -0.035631098 0.13181604 -0.39548957 -0.31598252 -0.18447758 0.2432044 0.23472904 -0.1444581 -0.430801 -0.15097295 -0.29352093 -0.23939386 0.36681065 0.037717126 -0.0109062 -0.6184208 -0.22580935 -0.3036854 -0.38209927 0.2972313 -0.39816505 -0.08561896 0.44740465 0.20381027 0.1383237 0.20646185 -0.1096669 0.032717258 -0.42875934 0.043727808 -0.2183504 0.0750419 0.04358603 -0.026262756 -0.1842521 -0.056647606 -0.16951206 0.06783942 0.20282695 0.047056194 -0.06529963 -0.17038897 0.009218526 -0.5096269 -0.25466704 -0.18427034 -0.052485526 -0.07278227 -0.030527746 0.52082866 -0.23962973 0.018374968 0.13809597 0.034341384 -0.06544938 0.14306024 0.1861125 0.6026089 -0.25651357 0.07691599 0.36316893 -0.37470564 -0.17832048 0.3737263 0.14713024 -0.31043825 -0.023791833 -0.19179146 -0.43753865 -0.24793915 0.20732781 -0.377757 -0.36677954 0.18318339 -0.49558637 -0.06513126 0.5079636 -0.11087963 0.0013477133 -0.19650207 0.044584934 -0.5707159 0.18436901 0.3966946 -0.2521869 0.05860713 0.2983844 0.6398899 0.09632263 -0.20402478 0.25062564 0.21351366 -0.03549468 -0.031881716 0.31673756 0.20111893 0.12538476 0.27121127 -0.6724145 0.06449332 0.063241586 -0.16469398 0.021915866 0.29267746 -0.12496608 -0.2796046 0.024359226 0.0724351 -0.19825467 -0.34094962 -0.56454444 -0.15945747 0.355226 0.20633823 -0.3827714 -0.106313094 -0.11092153 -0.3048624 0.35714445 0.20669974 0.16614087 -0.18962209 -0.21172236 -0.11588359
smart -0.38816747 -0.026754783 -0.43237257 0.08150926 0.23848608 0.12625207 -0.06352183 -0.29520455 0.13630459 0.072420254 0.029509306 0.22733003 -0.07652863 -0.12677106 0.01745531 -0.08791359 0.14485484 -0.14122029 -0.5576926 0.29138678 -0.21958219 -0.41435713 0.22988103 0.3770685 -0.08192968 0.5867154 0.50323725 -0.037959762 -0.25469148 -0.05664999 -0.38782147 -0.11060535 -0.4899639 0.10138638 0.1744622 -0.1865544 -0.2179829 -0.044913284 0.053455763 0.108269796 0.22561543 0.15742235 0.32586196 0.12089495 0.18394503 0.0051802713 0.1169356 0.15908171 0.5096641 -0.24474157 0.29080337 -0.5016217 0.093901664 -0.17700554 0.26877105 -0.00696313 0.2560223 -0.08006227 -0.18940915 0.18412462 0.058140643 -0.1570346 -0.21954416 -0.14632657 0.0020047375 -0.16953026 0.008714805 0.18677771 0.01391612 0.124396734 -0.017985247 -0.25731885 -0.18239293 -0.34926224 -0.72593206 0.16254641 -0.030363299 0.114621654 -0.34988862 -0.2832865 -0.16236809 0.21537815 0.2073655 -0.12866543 -0.3824406 -0.13126396 -0.25864106 -0.21003087 0.32475045 0.032040738 -0.010043757 -0.5485451 -0.19711854 -0.26644155 -0.3360182 0.26052427 -0.35293272 -0.0780756 0.397155 0.17604439 0.12348497 0.18124527 -0.09753853 0.032242414 -0.3775075 0.035113033 -0.19423221 0.06530048 0.038789928 -0.025333911 -0.16338088 -0.050567098 -0.14891452 0.055530034 0.18235876 0.03759073 -0.05588745 -0.15191086 0.009507771 -0.45227823 -0.22674024 -0.1654037 -0.042765487 -0.060358796 -0.027914355 0.46163288 -0.21115366 0.018572524 0.12018398 0.025448233 -0.056874376 0.12541711 0.16405024 0.53350896 -0.22844644 0.06635538 0.32472903 -0.33278728 -0.1568233 0.33207777 0.12624368 -0.2783841 -0.021241056 -0.16526835 -0.38904175 -0.22170892 0.18578334 -0.33311772 -0.32476196 0.16002354 -0.4395627 -0.055167653 0.45279202 -0.099552654 0.00088912394 -0.17471536 0.038032405 -0.503793 0.16511646 0.35167223 -0.22322097 0.056224227 0.2653041 0.5650823 0.08398682 -0.17624454 0.21874215 0.18734533 -0.03242221 -0.029424513 0.27978528 0.17844066 0.110147916 0.24246249 -0.59378755 0.05996664 0.056955103 -0.1424209 0.01987299 0.26165175 -0.10825346 -0.24740721 0.022912687 0.06204861 -0.1747968 -0.3046671 -0.4986016 -0.14098947 0.3164934 0.18382017 -0.33680782 -0.09304311 -0.09451054 -0.272212 0.31458414 0.18128137 0.15006196 -0.16521099 -0.18465401 -0.10255656
super -0.35047773 -0.026052132 -0.38736713 0.073567145 0.21542738 0.11319565 -0.05850917 -0.26534492 0.12168555 0.06555977 0.026734885 0.20225056 -0.06925999 -0.112155326 0.01598751 -0.07849934 0.12712413 -0.12649183 -0.50212884 0.2626067 -0.20079039 -0.37018475 0.20927282 0.33715 -0.07341716 0.5300632 0.45468473 -0.03393248 -0.22782741 -0.047495563 -0.34607917 -0.100422025 -0.44120985 0.09018506 0.15789425 -0.17154264 -0.19491553 -0.04059138 0.0442306 0.09766386 0.20013496 0.13936219 0.29026708 0.108135365 0.16829239 0.007541646 0.104835965 0.14324528 0.4613227 -0.2179831 0.26013651 -0.45189488 0.084812745 -0.1601539 0.24349794 -0.0069592413 0.23237117 -0.07623459 -0.17097412 0.16407669 0.04889765 -0.14250061 -0.19670616 -0.12939684 -0.0022396715 -0.15182063 0.00496557 0.1671894 0.009023657 0.10817684 -0.016247502 -0.22999336 -0.16870831 -0.31130078 -0.65853083 0.14806874 -0.026302801 0.1078662 -0.3108238 -0.2563967 -0.1457394 0.19435611 0.19066824 -0.11859704 -0.34543267 -0.1180733 -0.2353401 -0.19195671 0.29138672 0.027717764 -0.010767664 -0.49256748 -0.17954874 -0.24155225 -0.30430382 0.23742327 -0.32114452 -0.07091233 0.35801762 0.16116284 0.10965281 0.16543214 -0.08926555 0.025955522 -0.34315234 0.03263238 -0.17462361 0.057237078 0.035843216 -0.023987481 -0.1465804 -0.043657985 -0.13601775 0.05003147 0.16405743 0.035941213 -0.053530045 -0.13616243 0.008458838 -0.406937 -0.20009628 -0.14798751 -0.043035667 -0.057466544 -0.021487614 0.41555738 -0.19142228 0.015779527 0.10661788 0.028159825 -0.053632736 0.11199974 0.14554296 0.47897878 -0.20346002 0.06374345 0.28949168 -0.30135912 -0.13899684 0.2969555 0.11734505 -0.2472834 -0.017539546 -0.15291965 -0.34992787 -0.20080465 0.1668418 -0.29943475 -0.29292685 0.14261739 -0.39493975 -0.05145843 0.40922648 -0.08711058 0.003473951 -0.156271 0.034128923 -0.4560913 0.14739436 0.31260487 -0.19682114 0.04776354 0.2422589 0.50740874 0.07831811 -0.16223277 0.19762425 0.1720798 -0.025006196 -0.026093813 0.25444975 0.16315307 0.10153507 0.21994866 -0.53446925 0.0524753 0.0512895 -0.12797083 0.015456475 0.23231532 -0.09984425 -0.2262098 0.018795034 0.056628466 -0.15765284 -0.27019528 -0.45152006 -0.1273789 0.28553313 0.16533685 -0.30571163 -0.081696145 -0.08727756 -0.24393317 0.28402317 0.16501836 0.13737224 -0.14769383 -0.17146358 -0.08845257
em -0.45634127 -0.0332793 -0.51047266 0.09544902 0.28092727 0.14853431 -0.078159116 -0.34419328 0.16206183 0.08694695 0.033334043 0.2666597 -0.089056 -0.15203784 0.019849578 -0.10288816 0.16855672 -0.16414888 -0.65239495 0.34319755 -0.25774625 -0.48892912 0.27170298 0.4463573 -0.09928905 0.68925005 0.5939136 -0.043770272 -0.29634404 -0.066143855 -0.45682624 -0.1290084 -0.5770431 0.11779303 0.20887627 -0.2228947 -0.2550307 -0.05272441 0.06059427 0.12930241 0.265425 0.18383363 0.38070574 0.1445731 0.21729812 0.008915889 0.13646822 0.18363646 0.60278594 -0.28870115 0.34136516 -0.59142596 0.11111946 -0.21134977 0.31833965 -0.008599946 0.30524585 -0.09454215 -0.22587027 0.21410581 0.065290175 -0.18711188 -0.25724706 -0.17161141 0.0012748366 -0.19858298 0.009489313 0.21912147 0.013990585 0.1451416 -0.017828466 -0.3017054 -0.21895728 -0.40770495 -0.85930943 0.19341835 -0.035504207 0.1393235 -0.41205826 -0.33281162 -0.19427665 0.2509905 0.24448489 -0.15586106 -0.4486894 -0.15627977 -0.3040049 -0.25133023 0.38139954 0.039268713 -0.013000503 -0.6451535 -0.23453328 -0.3177526 -0.39578262 0.3059244 -0.41621074 -0.08750548 0.46717787 0.2107075 0.14455548 0.21601078 -0.113206334 0.03524508 -0.44787198 0.042924248 -0.22684908 0.07637462 0.04611417 -0.027652254 -0.19366717 -0.059351165 -0.17582586 0.06955791 0.21267492 0.049252324 -0.067662306 -0.18131405 0.0123761315 -0.5306407 -0.26265645 -0.19594197 -0.051661793 -0.07377064 -0.028633446 0.53988755 -0.2518777 0.02046149 0.14119932 0.03580855 -0.069215864 0.1477871 0.19112197 0.62984633 -0.26464415 0.07917701 0.38071305 -0.39461303 -0.18620583 0.39065218 0.14949192 -0.3242892 -0.0208255 -0.19601132 -0.45671472 -0.25750962 0.22072184 -0.39487606 -0.38340032 0.19060573 -0.5128943 -0.065523416 0.5339132 -0.11258812 0.0019165681 -0.20332775 0.044388592 -0.5923621 0.19303916 0.4133278 -0.258741 0.06556996 0.3141023 0.6675345 0.10081548 -0.20884049 0.25672916 0.22202474 -0.036358684 -0.030951736 0.33092138 0.20977695 0.12878685 0.2849029 -0.69916576 0.06986757 0.06496558 -0.17162856 0.023952711 0.30877015 -0.13191102 -0.29553273 0.026643872 0.07395287 -0.2076062 -0.35804516 -0.58838004 -0.16472498 0.37222424 0.2146168 -0.39777774 -0.109712586 -0.111698024 -0.31801492 0.37183702 0.21444668 0.1763481 -0.19720808 -0.21969163 -0.11608656
na -0.43185413 -0.032810584 -0.48407033 0.0939444 0.263927 0.14016905 -0.07234113 -0.32958138 0.15371308 0.08384764 0.03073097 0.25477716 -0.0881877 -0.14325692 0.018196048 -0.10203522 0.16251923 -0.15464811 -0.62609386 0.33044407 -0.24710475 -0.46620804 0.26009047 0.42264405 -0.092368245 0.66011494 0.5684117 -0.040866498 -0.2841326 -0.064289786 -0.4360826 -0.12139862 -0.5479212 0.11166152 0.19514859 -0.2120094 -0.24247885 -0.052829362 0.057180233 0.124244146 0.2519255 0.17297542 0.3645514 0.13877259 0.20421962 0.009001075 0.13142988 0.17438208 0.5747577 -0.2749977 0.32849595 -0.56133926 0.106707014 -0.2017114 0.3004568 -0.00478355 0.29035 -0.09074147 -0.21507803 0.2082504 0.061537784 -0.174191 -0.24362913 -0.16469438 -0.0023219595 -0.19060718 0.011098622 0.20767589 0.014951818 0.13631612 -0.02086989 -0.28771624 -0.20851225 -0.39117867 -0.8193281 0.18443853 -0.033547293 0.13289928 -0.39304656 -0.3164385 -0.18267648 0.24098954 0.2350399 -0.14776362 -0.4293305 -0.14984703 -0.288883 -0.23729289 0.36609307 0.03501448 -0.012229764 -0.6137825 -0.22301838 -0.29890278 -0.3752483 0.2917851 -0.3973076 -0.08490138 0.44597176 0.20263144 0.13568889 0.20161022 -0.1085868 0.032649033 -0.4239947 0.040938213 -0.21796615 0.07356001 0.041925654 -0.02822139 -0.18595403 -0.05378761 -0.16698729 0.06769519 0.20594057 0.045770083 -0.06368648 -0.17079973 0.009776998 -0.50562316 -0.2532535 -0.18235083 -0.05113334 -0.0710981 -0.028540391 0.5158942 -0.23658755 0.02062633 0.13679264 0.03010103 -0.06420514 0.13778117 0.18499869 0.59945273 -0.2526721 0.07544588 0.3646709 -0.37230355 -0.17499723 0.36858973 0.1446125 -0.31003428 -0.01930141 -0.18741521 -0.43506902 -0.2494302 0.20650771 -0.37484354 -0.36521634 0.17961824 -0.4917495 -0.06390749 0.50630474 -0.10779477 -0.00067910395 -0.19473043 0.041314103 -0.567421 0.18571872 0.39489594 -0.24775243 0.059111454 0.2983822 0.63191783 0.09299772 -0.19810992 0.24791443 0.21292585 -0.034014776 -0.031765822 0.31368116 0.20052281 0.12375349 0.2724397 -0.66650414 0.06640535 0.06430443 -0.15898383 0.022661055 0.29154342 -0.1260873 -0.28054854 0.028684739 0.06931556 -0.19963956 -0.33760592 -0.5614731 -0.16087715 0.35103515 0.2020349 -0.37564003 -0.10595505 -0.10834314 -0.30302632 0.35494706 0.20507395 0.16883776 -0.18502861 -0.20817293 -0.11438562
rapida -0.30381575 -0.021341383 -0.33516523 0.06683778 0.18499528 0.09728582 -0.05162445 -0.22731656 0.10549236 0.05958658 0.02212022 0.17761879 -0.06187367 -0.098631896 0.015625315 -0.070478804 0.11347238 -0.11141 -0.4347626 0.22809167 -0.17091088 -0.32515138 0.1791354 0.29457852 -0.06640092 0.4589812 0.39367512 -0.030968383 -0.19894111 -0.044529844 -0.30469403 -0.08849394 -0.38083783 0.07790103 0.13910659 -0.14949393 -0.17156577 -0.034961842 0.03944836 0.08670846 0.17717764 0.11977614 0.25190592 0.09627873 0.1447563 0.0055977935 0.088606805 0.12148476 0.40163156 -0.19225398 0.22577596 -0.39199874 0.076176025 -0.13920146 0.2088253 -0.005449416 0.19959918 -0.065635376 -0.15104215 0.14594401 0.045695893 -0.12364953 -0.16899589 -0.11284011 -0.00061260146 -0.13199253 0.0048397863 0.14581685 0.007917309 0.09741928 -0.011053341 -0.19912803 -0.14332156 -0.27123985 -0.5708845 0.12550096 -0.02550674 0.09255886 -0.2721379 -0.2196791 -0.12920637 0.16612601 0.16537115 -0.10037213 -0.29915565 -0.101704955 -0.20175247 -0.16513185 0.25391743 0.028214332 -0.006415927 -0.4281922 -0.15616982 -0.20949838 -0.26224133 0.20699933 -0.27744704 -0.058978114 0.31061053 0.13874611 0.09478861 0.14287703 -0.076488964 0.026169458 -0.29799518 0.027603524 -0.15386099 0.049665365 0.029597213 -0.019269353 -0.12728187 -0.0363584 -0.119688235 0.044583637 0.143842 0.03069959 -0.04270235 -0.11993336 0.0076206173 -0.35397387 -0.17756584 -0.12900238 -0.034436073 -0.047052134 -0.018980695 0.35867536 -0.16581476 0.011187997 0.094584644 0.02279114 -0.04384925 0.09921316 0.12698075 0.4158324 -0.17532454 0.054659914 0.2509683 -0.25942722 -0.12062088 0.25569248 0.10189061 -0.21832597 -0.012225009 -0.13169052 -0.30299672 -0.17326115 0.14446692 -0.25969017 -0.25219595 0.12493644 -0.33988965 -0.04263768 0.35063905 -0.07621751 0.0033726154 -0.13752227 0.032511048 -0.395918 0.12927742 0.27563614 -0.17378686 0.043440856 0.20640858 0.44320184 0.06580585 -0.1388799 0.17054507 0.14834692 -0.024641389 -0.020441446 0.2211191 0.14091632 0.08851296 0.19225563 -0.46439642 0.04495457 0.0436138 -0.113117285 0.01298075 0.203355 -0.08632931 -0.19420557 0.017119465 0.05116437 -0.14129418 -0.2360106 -0.38970795 -0.11203794 0.24510331 0.1436196 -0.26386395 -0.07166744 -0.07579657 -0.21517192 0.24531583 0.14244457 0.11842925 -0.12878856 -0.14696869 -0.079239205
facil -0.31534085 -0.020977499 -0.35515007 0.06766928 0.19489785 0.10334547 -0.052084275 -0.2431106 0.11000581 0.06061432 0.023673194 0.18478295 -0.06630309 -0.103486046 0.017053919 -0.07332744 0.11991282 -0.1122036 -0.45398366 0.24044383 -0.18337122 -0.34053177 0.1893384 0.3079496 -0.06787404 0.48186567 0.4127098 -0.031940997 -0.20782621 -0.045135166 -0.3164555 -0.09006852 -0.40111023 0.081782945 0.14459978 -0.15215434 -0.17991339 -0.039233025 0.044586964 0.09126445 0.18621549 0.12633932 0.26779523 0.09716748 0.15030915 0.0047748187 0.093968384 0.12994127 0.42102528 -0.19940563 0.24094705 -0.41210413 0.07683049 -0.14593767 0.21925636 -0.006407799 0.2119047 -0.06992265 -0.15462503 0.1529893 0.04422413 -0.1267725 -0.17692123 -0.11923443 -0.0022073337 -0.14133027 0.008537073 0.15200403 0.008494956 0.098237626 -0.013450655 -0.20803319 -0.15206005 -0.2849019 -0.59528846 0.13576992 -0.02359766 0.0967883 -0.28336203 -0.22986193 -0.13165002 0.1779368 0.17183222 -0.10602569 -0.3107718 -0.109290466 -0.21550407 -0.17370854 0.26406404 0.024759324 -0.010738488 -0.44900274 -0.16333069 -0.22071618 -0.27757794 0.21407123 -0.2878057 -0.064899534 0.32483363 0.14720972 0.099422924 0.15122525 -0.07823356 0.02399629 -0.31127328 0.033043478 -0.16088547 0.052935768 0.031843085 -0.02129104 -0.13699359 -0.03748122 -0.12307601 0.04892515 0.15078667 0.034429803 -0.049245983 -0.123103775 0.008948317 -0.36959285 -0.18689156 -0.13699695 -0.03607982 -0.052551556 -0.021526502 0.37860253 -0.17134708 0.011666051 0.10068363 0.024800977 -0.04387205 0.10098497 0.13289876 0.43673387 -0.18479219 0.05667357 0.26773462 -0.2745462 -0.12721555 0.27179027 0.10679097 -0.22594388 -0.01621474 -0.13700809 -0.31517583 -0.17821443 0.15119514 -0.27472806 -0.26442015 0.13226485 -0.35855243 -0.04753415 0.37259063 -0.08251276 0.00037503123 -0.14129288 0.0326567 -0.41160882 0.13245323 0.286697 -0.17993946 0.045761425 0.21651317 0.46407542 0.068475254 -0.14737277 0.17840512 0.15508677 -0.023217583 -0.022646537 0.22834681 0.14529581 0.09013759 0.20012395 -0.48789224 0.049709264 0.047972202 -0.120227575 0.014392137 0.21603365 -0.08836755 -0.20548439 0.021169484 0.05431443 -0.14397761 -0.24935466 -0.4088704 -0.11683873 0.25957376 0.1476735 -0.27602512 -0.07763819 -0.080498606 -0.22380647 0.26083815 0.15126702 0.122710116 -0.13786075 -0.1510345 -0.08193912
foi -0.19976889 -0.014197109 -0.22003362 0.04274633 0.12245573 0.06395445 -0.031196512 -0.15062664 0.06716811 0.039364368 0.012554605 0.11509074 -0.03809785 -0.06680858 0.008981711 -0.047430526 0.073529474 -0.07271424 -0.28318772 0.14723688 -0.11116216 -0.21065217 0.11701114 0.19362676 -0.03992639 0.29772246 0.25647074 -0.017777884 -0.13064785 -0.028742207 -0.19681388 -0.057495125 -0.2512717 0.052548368 0.091981 -0.09564736 -0.11360161 -0.022775084 0.026429027 0.05566651 0.11653531 0.07838835 0.16665956 0.06306598 0.093854055 0.0031261737 0.060927097 0.078131124 0.2617639 -0.121335976 0.15015072 -0.2547445 0.04532518 -0.09035803 0.13865662 -0.002710681 0.13144712 -0.041281033 -0.0976232 0.09397133 0.027006948 -0.08184901 -0.11159626 -0.07138776 -0.0019463277 -0.0879895 0.003474565 0.09167165 0.0049871886 0.0648261 -0.009150191 -0.12872875 -0.09202959 -0.17691532 -0.3724999 0.081271745 -0.018088318 0.05937701 -0.17633066 -0.14592916 -0.08456919 0.11091329 0.10908403 -0.06558729 -0.19509274 -0.068433166 -0.13274634 -0.1052709 0.16606613 0.019046117 -0.0058146794 -0.28129336 -0.10309598 -0.13805258 -0.16901165 0.1353694 -0.18326 -0.038491942 0.2040187 0.09046583 0.060460754 0.08994914 -0.049759462 0.017530909 -0.1955241 0.02043492 -0.09882499 0.032483414 0.018097624 -0.014141936 -0.08491648 -0.023093505 -0.07496161 0.0309022 0.09048138 0.018019324 -0.02838492 -0.079415925 0.0053764256 -0.22736974 -0.1159735 -0.08241062 -0.02530948 -0.032152914 -0.010439009 0.2351888 -0.10915597 0.0063975253 0.060639355 0.014348828 -0.028275378 0.06632188 0.08297544 0.271219 -0.11308821 0.036980968 0.16497114 -0.17121579 -0.08196229 0.16871129 0.06731123 -0.1426857 -0.008453991 -0.08784143 -0.19591233 -0.1119583 0.09473116 -0.16916488 -0.16775183 0.0828293 -0.22113352 -0.030804768 0.22757013 -0.052067704 -0.0007219233 -0.08966758 0.019070372 -0.2578611 0.08580921 0.17756103 -0.11492208 0.025844945 0.13663052 0.2865855 0.04234815 -0.09333254 0.110211685 0.09414031 -0.0177124 -0.010994746 0.14197671 0.09192048 0.05555993 0.12268832 -0.30379483 0.027198581 0.02961812 -0.071123466 0.011868489 0.13099667 -0.056233857 -0.12512426 0.013549418 0.032739863 -0.09102741 -0.15312675 -0.25239787 -0.072036475 0.16189875 0.091107376 -0.17008969 -0.04776613 -0.047548164 -0.13837701 0.15926492 0.09535408 0.077462114 -0.086030506 -0.0980549 -0.050663058
mais -0.438618 -0.03134281 -0.48991936 0.09302583 0.26820526 0.14206293 -0.07351823 -0.33379054 0.15304132 0.08243926 0.033482675 0.25672063 -0.08723937 -0.14274117 0.019861089 -0.099302575 0.16505603 -0.15738489 -0.6312673 0.330794 -0.24761987 -0.46918216 0.26276436 0.42878616 -0.09472345 0.66477174 0.57395965 -0.045063492 -0.2843459 -0.06452952 -0.436589 -0.12446564 -0.5556747 0.11431951 0.19895214 -0.21292195 -0.2436174 -0.054056846 0.05778845 0.12225609 0.2544653 0.17530085 0.36612234 0.1355889 0.20958893 0.0046767667 0.13050066 0.17961022 0.57791 -0.27367073 0.3321431 -0.5703876 0.10611979 -0.20067981 0.30448008 -0.0048544104 0.2949634 -0.09284856 -0.21501504 0.20540594 0.063806094 -0.17808293 -0.24831939 -0.16625737 0.0018307664 -0.19387966 0.010190577 0.21423684 0.014681642 0.13677879 -0.019754684 -0.28760326 -0.20705986 -0.3954992 -0.82563436 0.18506065 -0.034249038 0.13480239 -0.3966536 -0.31667352 -0.18188395 0.24240115 0.23615788 -0.14529352 -0.43196714 -0.15167463 -0.29538247 -0.23871364 0.3689472 0.036553707 -0.013315879 -0.62155604 -0.2243707 -0.30145237 -0.37894234 0.2957241 -0.39925957 -0.08651757 0.44808912 0.20287517 0.13542598 0.20609653 -0.10916235 0.033598024 -0.42865226 0.043844316 -0.22208975 0.07227091 0.04222602 -0.030851038 -0.18854181 -0.057336405 -0.16834372 0.06460282 0.20482798 0.045915715 -0.06310093 -0.17182328 0.012401217 -0.5123267 -0.25556573 -0.18412623 -0.049900837 -0.06877541 -0.029333271 0.5211537 -0.2404861 0.01816062 0.13885842 0.030632777 -0.06214726 0.140806 0.18586826 0.60423094 -0.25929216 0.077644505 0.36640745 -0.37655017 -0.1751142 0.3760054 0.14684705 -0.31134072 -0.023456126 -0.19064477 -0.43859026 -0.24692076 0.20825218 -0.37972835 -0.36497393 0.18333173 -0.49513984 -0.06520615 0.5147069 -0.10823361 0.0023102402 -0.19438536 0.0425304 -0.57015646 0.18485208 0.3959412 -0.24879706 0.058899112 0.30101562 0.63891107 0.097017914 -0.2023718 0.25120014 0.21473868 -0.03366354 -0.030591678 0.31786793 0.20138009 0.12570575 0.27507785 -0.67461425 0.06740574 0.064092025 -0.16488306 0.021251315 0.2958492 -0.12326504 -0.28050727 0.025837945 0.07300145 -0.20195666 -0.342837 -0.56260884 -0.15867674 0.3577947 0.20756853 -0.38337627 -0.10730551 -0.10728569 -0.30980396 0.3580269 0.20687693 0.16717155 -0.1905222 -0.21245733 -0.11626297
tem -0.40019345 -0.030437656 -0.44848272 0.0840176 0.24548978 0.12907092 -0.06656306 -0.30331668 0.14282861 0.07593898 0.026697682 0.23390158 -0.08227459 -0.13323535 0.020114621 -0.08996018 0.14766324 -0.14312185 -0.5781497 0.3039058 -0.22693111 -0.42869368 0.23824812 0.39051262 -0.08684639 0.60574836 0.5225103 -0.03821475 -0.2603493 -0.05634196 -0.40012106 -0.1129606 -0.50658 0.1050143 0.18254347 -0.19461928 -0.22564672 -0.047367282 0.052999265 0.11433892 0.22932205 0.16127685 0.33623254 0.12416705 0.1879745 0.004701615 0.12002259 0.16075893 0.5282749 -0.25170207 0.30279577 -0.52114415 0.09980248 -0.18343322 0.2812684 -0.00867392 0.2651942 -0.08405574 -0.19994564 0.18859233 0.06072623 -0.16048458 -0.22572477 -0.14782798 -0.0013717972 -0.1754551 0.008800203 0.19397524 0.011218365 0.12645411 -0.015280044 -0.2642855 -0.19101515 -0.3627669 -0.7531301 0.17131995 -0.033760946 0.11893498 -0.3619298 -0.28907204 -0.16817465 0.22131239 0.21793057 -0.13375232 -0.39621776 -0.13947795 -0.2672018 -0.22007784 0.33570498 0.035331134 -0.013272993 -0.5700527 -0.20609277 -0.27673 -0.34723082 0.26850373 -0.3671756 -0.07986662 0.41272977 0.18511544 0.12464046 0.18993695 -0.10209467 0.031072954 -0.3903524 0.03808303 -0.20211302 0.06961828 0.039396513 -0.026860597 -0.17209075 -0.050773546 -0.15714112 0.06013431 0.1889991 0.04278168 -0.06153535 -0.15792884 0.0078446455 -0.4697447 -0.23311506 -0.16988596 -0.0447713 -0.065703504 -0.02642664 0.47350734 -0.22028828 0.016076574 0.12374775 0.028426988 -0.059664704 0.1290469 0.17161685 0.55237305 -0.23396035 0.06889617 0.3337078 -0.34477603 -0.15985087 0.3419224 0.13165992 -0.28447503 -0.020200325 -0.17330728 -0.40250778 -0.2304379 0.19265898 -0.3466464 -0.33301958 0.16803268 -0.45402303 -0.058459647 0.4683179 -0.099561654 0.00059320306 -0.1783969 0.03838695 -0.52201694 0.1692579 0.3610544 -0.22921956 0.05773695 0.27601558 0.58697724 0.08537928 -0.1836598 0.22900552 0.1948664 -0.03397976 -0.030169705 0.28936142 0.18659547 0.11286879 0.2527403 -0.6168455 0.060339075 0.05853419 -0.14960185 0.021792013 0.27105352 -0.11706157 -0.25610664 0.023992723 0.06601104 -0.18390417 -0.3157734 -0.51424193 -0.14847882 0.32570547 0.18641578 -0.3467277 -0.095949836 -0.09962896 -0.28309748 0.32496732 0.18796404 0.15299536 -0.17347713 -0.1946905 -0.10510834
expectativas -0.2936842 -0.018292254 -0.32902554 0.06193631 0.18000539 0.096266694 -0.047108825 -0.22430636 0.10260798 0.058436163 0.021256067 0.17021792 -0.059841998 -0.09464046 0.012763071 -0.06985729 0.11030965 -0.10734359 -0.4228315 0.22615083 -0.16777821 -0.31534767 0.17311588 0.28789914 -0.06345563 0.446356 0.38341832 -0.029716713 -0.193511 -0.040757254 -0.2953755 -0.083563566 -0.36778107 0.07755617 0.13459933 -0.1429811 -0.1624416 -0.036862895 0.035813197 0.080301754 0.16834083 0.116871834 0.24932016 0.09359977 0.14185745 0.0031584532 0.0874054 0.11849994 0.39148745 -0.18823817 0.22082423 -0.38220406 0.07075307 -0.13605809 0.20789123 -0.005985895 0.1988572 -0.064592265 -0.14750005 0.13852966 0.041018814 -0.117787786 -0.1690071 -0.10755328 0.0019171261 -0.12828517 0.00838027 0.14261527 0.01107475 0.0916802 -0.012589178 -0.19278091 -0.13733807 -0.26621073 -0.5534113 0.123425595 -0.021673277 0.08748403 -0.26255175 -0.21209824 -0.121152684 0.16373447 0.1598021 -0.097949095 -0.29236302 -0.10280025 -0.19497345 -0.16350792 0.2482766 0.022484893 -0.006704336 -0.41769618 -0.15161452 -0.2012872 -0.25733632 0.19934332 -0.27218446 -0.057358593 0.30054742 0.13631324 0.09069656 0.14016941 -0.07460657 0.024037063 -0.2864164 0.029512217 -0.14695561 0.04987917 0.029533843 -0.018087294 -0.12792878 -0.038552523 -0.11562674 0.04235038 0.13683133 0.033090405 -0.043339476 -0.11363579 0.006029342 -0.3433372 -0.16889888 -0.1235091 -0.03756458 -0.04792591 -0.016432213 0.34809285 -0.16167286 0.014248335 0.0893509 0.021718668 -0.041829996 0.091713086 0.12577817 0.40737912 -0.1694624 0.05320752 0.24540809 -0.25299338 -0.11777181 0.2480481 0.09648313 -0.21236679 -0.011586963 -0.12936912 -0.2927265 -0.16874105 0.13875347 -0.25588906 -0.24409853 0.122962296 -0.33436197 -0.04113004 0.34598655 -0.07295774 0.0014910988 -0.12815115 0.030414984 -0.3839586 0.12836695 0.26761785 -0.16971627 0.040325034 0.20457372 0.4287779 0.0627164 -0.13846914 0.16873322 0.14765291 -0.024212226 -0.022268493 0.21570694 0.13374382 0.082978845 0.18635742 -0.4537027 0.042960804 0.045634013 -0.10771398 0.014691768 0.19685026 -0.08278728 -0.18863888 0.01488703 0.048448186 -0.13448656 -0.22936472 -0.37695923 -0.109251924 0.2365749 0.1405522 -0.2583802 -0.07159801 -0.07241607 -0.20875323 0.24173422 0.13906948 0.11477703 -0.12533152 -0.1402083 -0.07324574
tudo -0.37796035 -0.02779493 -0.4204099 0.08040319 0.23315361 0.121194124 -0.06559207 -0.28488022 0.13591251 0.074799545 0.025801929 0.22094731 -0.07748149 -0.12509108 0.01625033 -0.08458771 0.14166033 -0.13400164 -0.5435607 0.28515282 -0.21352771 -0.40257168 0.22820742 0.36905095 -0.08050597 0.5736257 0.49297708 -0.0385912 -0.24773663 -0.052594014 -0.3796817 -0.10775481 -0.4789112 0.097236864 0.17382443 -0.18407276 -0.21065181 -0.043731447 0.04914238 0.106584996 0.21895833 0.1536147 0.3187639 0.11983381 0.1806211 0.0070869112 0.11473357 0.15151913 0.49704576 -0.2372883 0.28328478 -0.4896754 0.09471071 -0.177393 0.26284882 -0.005266727 0.2546049 -0.07794448 -0.18523179 0.1791831 0.05598665 -0.15444435 -0.2156185 -0.14139698 -0.0028210573 -0.16493212 0.009070136 0.18273996 0.010737318 0.11766275 -0.016291378 -0.25184342 -0.18117593 -0.34242305 -0.71218234 0.15902065 -0.029075606 0.11607223 -0.33997306 -0.27464262 -0.16138554 0.20773539 0.2040979 -0.12817098 -0.37523252 -0.13186613 -0.2542604 -0.20869358 0.31882393 0.029841159 -0.012182912 -0.53420645 -0.1926793 -0.2627172 -0.32710063 0.25741118 -0.34450167 -0.07473058 0.38905105 0.17527011 0.12082126 0.17815223 -0.09608025 0.031576406 -0.36922818 0.03453214 -0.19146594 0.062953345 0.037033767 -0.0261924 -0.1624183 -0.04942324 -0.14721175 0.056580883 0.1789685 0.037519325 -0.057500057 -0.15089925 0.010436537 -0.44264236 -0.21955645 -0.1590611 -0.04296954 -0.059939057 -0.02507949 0.45002806 -0.2062181 0.017860115 0.116813846 0.028899033 -0.05503416 0.11976352 0.15967122 0.52174264 -0.22118036 0.06362842 0.31472585 -0.32515106 -0.15171272 0.32452556 0.12629947 -0.27169082 -0.0201587 -0.16318837 -0.37844095 -0.21357837 0.18036886 -0.32904568 -0.3164926 0.1554887 -0.4279441 -0.053980913 0.44277644 -0.095428966 0.003900638 -0.17038755 0.03885578 -0.49512625 0.16115358 0.34405804 -0.21667486 0.050370164 0.26202336 0.55130154 0.083678685 -0.1743889 0.21688162 0.18330427 -0.02913978 -0.026347715 0.27527758 0.17152114 0.10487655 0.23731208 -0.58294713 0.058648024 0.05336892 -0.13816313 0.02049936 0.2558752 -0.110273115 -0.24432383 0.023533 0.06388359 -0.17301992 -0.2950062 -0.48556808 -0.13576253 0.30459422 0.1785226 -0.3312775 -0.09222705 -0.09170776 -0.26593232 0.30945066 0.1796304 0.1436232 -0.16472717 -0.18524729 -0.09746441
otimo -0.24882363 -0.01968577 -0.27903467 0.051646076 0.1510515 0.07961206 -0.04047971 -0.19167863 0.08815348 0.050243963 0.01812298 0.14604287 -0.05114028 -0.080630004 0.013096021 -0.05599364 0.091403805 -0.09031051 -0.3618468 0.18764223 -0.14438924 -0.26629743 0.14873128 0.24370071 -0.053109117 0.37802607 0.3262464 -0.02354984 -0.1646266 -0.03612424 -0.24865395 -0.072446644 -0.31503966 0.067551665 0.11318556 -0.12293998 -0.13853858 -0.031809844 0.033398915 0.06820964 0.14285488 0.10247936 0.2110255 0.08023802 0.121368095 0.0011558803 0.07509769 0.10345616 0.3283098 -0.15684596 0.1905208 -0.32388076 0.06239209 -0.11793301 0.17287919 -0.0031888783 0.16590393 -0.05299093 -0.12496096 0.11828551 0.036920283 -0.100251585 -0.14355516 -0.094495766 0.0013661083 -0.11078502 0.0038819064 0.12141519 0.0071032736 0.0769292 -0.008784249 -0.16483556 -0.12173236 -0.22414666 -0.47233036 0.10796874 -0.02157276 0.07793039 -0.22352944 -0.18026303 -0.10422791 0.13908447 0.13788566 -0.08459899 -0.24860777 -0.08614203 -0.16639574 -0.13920553 0.21009877 0.018659113 -0.0071268384 -0.35290766 -0.12795407 -0.17330864 -0.21619953 0.17111081 -0.23021643 -0.0505324 0.25530237 0.11768759 0.07802186 0.11858147 -0.06507879 0.018322082 -0.24698858 0.024091654 -0.12521772 0.042023104 0.025788343 -0.017597916 -0.10929286 -0.031199738 -0.09822741 0.03833028 0.11812252 0.023628542 -0.03607255 -0.096768335 0.005353148 -0.29240066 -0.14552757 -0.10782405 -0.029596169 -0.040468622 -0.016473327 0.29714072 -0.1356927 0.0109750675 0.08068425 0.020403268 -0.037653547 0.081335954 0.10770617 0.3444866 -0.14469318 0.045758992 0.20782754 -0.21590388 -0.10279457 0.21166764 0.08494964 -0.18071382 -0.014144242 -0.10770851 -0.25140128 -0.14342928 0.11933596 -0.21620117 -0.21089217 0.10335716 -0.28517982 -0.034526378 0.2912932 -0.065211385 -0.00041071777 -0.11414965 0.02496622 -0.32605124 0.106993124 0.22627296 -0.14195198 0.032221787 0.17324059 0.3630701 0.05435299 -0.11485447 0.14117187 0.122596845 -0.017553221 -0.018839415 0.18093947 0.11472898 0.07239521 0.15799272 -0.3822601 0.03922947 0.034123313 -0.09088075 0.013719688 0.16898847 -0.071414866 -0.15951438 0.016620703 0.04188522 -0.11412086 -0.19727333 -0.32501984 -0.08917063 0.20279112 0.116171464 -0.21771541 -0.059705988 -0.061216414 -0.17396085 0.20253299 0.11598624 0.09414308 -0.1079237 -0.11950177 -0.06367304
